-1.065962245005818598e+00,1.226167032742456531e+00,2.787358745003539751e-01,-1.153378810714762670e+00,1.592913155331742159e+00,9.801591069598205586e-01,-1.315817745940264460e+00,-1.028743888227307973e-01,3.327739289783642751e-01,4.654652049614875775e-01,4.027768434616749715e-01,-1.156466430979602444e+00,5.617980856998787687e-01,5.564388855712076865e-01,-1.621029907688575689e+00,-4.570923490264926919e-02,4.558902345901495734e-02,1.012977481505629607e+00,-2.230840313230758376e+00,-2.508391628504886423e-02,1.414395907118448370e-01,4.857651118422079972e-01,4.387001292084053983e-01,-1.087989907227966846e+00,-5.358396809407010020e-01,-9.509445145842559954e-01,-3.190715868596819549e-01,6.424166994854145774e-01,7.524629043621433588e-01,1.001266582566839203e+00,5.369752737337760706e-01,-3.749000574373412831e-01,-5.445444020164199594e-01,-7.262772359147195989e-01,-4.665517664399291831e-01,-2.768118677897269397e-01,-2.208144630870054304e+00,4.027053704409972457e-01,8.144031778048074210e-01,6.378099490230223489e-01,-2.697379243674965510e-01,-1.704234274581323039e+00,1.297203720839643415e+00,-5.229289167298003527e-01,-9.567680241280416067e-03,9.275574063939894254e-01,-7.377120421187810528e-01,-9.919323518944156426e-02,8.225534547891901749e-01,2.387076402588229063e-01,-3.121533716684012916e-01,9.881930949369802653e-01,5.405519073607238933e-01,6.663693002096779949e-01,-1.318609117980007905e+00,2.019701458206588363e-01,-1.884110166236094286e-01,3.187841668339436163e-01,-1.016312564888308817e-01,8.111792951694564158e-01,-2.248319349192581473e+00,1.300381810444878772e+00,2.199998673312558495e+00,8.630680785864990323e-01
-3.255979021867874135e-01,-1.940142899573948920e+00,7.543253066441490962e-01,-6.689035390001568659e-01,1.754837446241668819e-01,-1.509364861119141810e-01,-1.062962362984670284e+00,-4.502236859299354466e-01,1.130147477397675182e+00,-7.389163923354720442e-02,-1.016007169773170071e+00,-1.667746926559551257e+00,-5.293132640810722656e-01,8.240003040203118800e-01,1.304482021116897261e+00,-1.883714724979850041e+00,2.269530979186011321e-01,6.882630783615748538e-01,-1.424936460710164443e+00,7.622171407782056818e-01,-5.551463202249777851e-01,-1.032526736519927324e+00,2.400972507967853026e-02,7.910943696541054004e-01,8.738721776706358524e-01,2.860996691409095974e-02,2.001234808120443187e+00,-4.831841115284289945e-01,2.615091376260107459e-01,1.628214277381654584e+00,-1.719389849602002807e+00,1.477223981540315201e+00,-3.397747308359111429e-01,7.748652709433991870e-01,-3.715757318457927894e-01,-9.608194397705597245e-01,-4.651062961562311693e-01,4.270586529708049195e-01,2.989114132347434616e-01,3.657986214916491008e-01,1.117266727378607216e+00,2.307317375906286494e-01,-9.734985761692441786e-01,-1.323515779059359909e+00,-7.041603790229415960e-01,1.259745793624067023e+00,3.597553533404990733e-01,1.260981388874130360e+00,-1.118066192652701130e+00,3.313969310597176809e-01,1.019633073797157730e+00,8.857315022207512545e-01,-1.296504695774851168e+00,1.492996039226570204e+00,-5.646630188718272381e-01,-1.338410716646968979e+00,-1.161162657332944326e+00,-1.906357884839427475e-01,6.593060090186546318e-02,-1.639979305255879760e+00,-1.706900710937135024e+00,-3.430239683185463684e-01,-6.657516972398536126e-01,4.337273720796596677e-01
-8.635211936616390416e-01,-2.446017887370680877e-01,2.619146401423534942e-01,-5.935055896627084993e-01,6.533295910484546720e-01,-1.207463581341910119e+00,-1.796623335262482746e-01,-2.949097129952966689e-01,1.675289379256822642e+00,2.463406187717405993e-01,1.013766753445457747e+00,6.035117069357418540e-01,-2.345161478129180743e+00,-2.699277110998627993e-01,-7.248458491963091221e-01,-2.052807402496465983e+00,-1.398875512341741345e+00,-7.977117422972097582e-01,-5.250749248379383838e-01,2.405917940987331305e-01,5.915462350946070202e-01,9.486332376215217410e-01,-2.659144649006731642e-01,1.564165396894632964e+00,-2.080374369910514609e+00,2.476755851072042436e+00,1.038957665767778815e+00,1.670793560362777486e+00,2.480220666212088615e-02,5.833452229196243177e-01,1.670886631503292197e+00,1.147859393568923858e+00,-4.643401966107062878e-02,-9.420283010200709573e-01,4.605218650545327419e-01,6.362733633544807033e-01,-7.513940449902162255e-02,-1.217698164393369309e+00,2.504303460731794662e+00,-3.464233078472027105e-01,3.070483148801052553e-01,-7.831666666772220120e-01,1.097692077469477168e+00,4.126440923418743245e-01,4.741337877410822799e-01,-2.830738656120167507e-01,-1.866097727124064631e+00,-5.134888107415934710e-01,2.888929530758462816e-01,-1.859432063714026584e-01,8.727746135426205365e-01,1.046062529265771035e+00,-1.099935012981164695e-01,-1.540956783125085050e-01,9.038296090553469275e-01,6.485234353812801000e-01,-7.696298705963910969e-01,-7.417147307245887111e-01,1.403554082177542961e+00,1.855989337096070058e-01,1.143159981835063288e+00,6.219644853083958758e-01,-5.375853471035866304e-01,3.096027237160721701e-01
3.009043915100356181e-01,1.906510883097167541e+00,-6.864866745503526158e-01,-4.370133390258307271e-01,2.036541140369372560e-01,-9.401267935053220226e-01,-5.321992044470787997e-01,-1.903589144878727879e-01,7.902546507574960133e-01,5.886115528751707272e-03,-2.019390129035977255e-01,-2.099731665642341927e+00,3.067155524781993714e-01,-3.694896658631418446e-02,-4.390006547970289885e-01,-4.502880584967464128e-01,-8.693546711614289491e-01,4.609037353084676214e-01,1.856369507735051050e+00,-1.496616369798128954e+00,-1.292001720957704380e+00,-4.955757400244895083e-02,-3.257191892655917909e-01,2.563641299922783112e-01,3.125933646663613952e-01,5.577595032033424438e-01,5.723372892177003290e-01,1.974074838991049630e+00,1.610298513696121869e+00,7.943375700505769799e-02,1.276005068168368117e+00,9.036357571330064786e-01,-7.833836381297991647e-01,1.500468305621739384e+00,-4.700626532895229026e-01,-1.280994294675252831e+00,-1.364983556694501443e+00,1.047092162709965857e+00,-1.485630529024578872e-01,1.685439578999113619e-01,6.126199358085730046e-02,-7.126182404230013701e-01,-8.961685523703223633e-02,4.646733384336723671e-01,1.063156836482661433e-01,1.286551913551444937e+00,6.386669747573548994e-01,8.550275939541784886e-01,-3.346238548195605844e-01,-9.331170164690684166e-01,-2.743991339447777733e-01,8.943643142307176053e-01,9.294970006868341628e-01,2.928571781101974025e-01,-4.508423914295944246e-01,-3.414335087516112699e-01,-7.228630264185071930e-01,3.400109972325160435e-01,-1.727896458001982216e+00,-5.838290580834877286e-01,-2.431536870367073389e-01,1.403712861831237779e+00,2.120564078409650666e+00,1.129992838858198567e+00
7.342731998893409218e-01,-7.841819145255743972e-01,1.568218746514395079e+00,8.960363068274120879e-01,3.632110665825222240e-01,-3.720048717969553359e-02,3.978774947117078575e-01,-2.359566307556266451e-01,-1.511476376693111190e+00,4.119368485695472648e-01,-3.640488081571443546e-01,-6.895745754787356852e-01,-1.060177286836241795e+00,1.397003587944200209e+00,-2.241601927103957337e+00,-2.194660858558966920e-01,1.402322970946845437e+00,4.257739845734458406e-01,-6.021090436077219943e-01,1.264502736795859006e+00,-7.757363118302480764e-02,8.556818241696139138e-01,-4.388983493688950466e-01,1.069206254784483390e+00,1.134776937339836200e+00,-1.843865258357162140e-01,1.114785643830859208e+00,1.047525187214577658e+00,-1.556097213515113264e-01,-1.482111392031995267e+00,-2.056808882968204633e-01,-6.799900732387602620e-01,2.974157510514527925e+00,1.172606341644241157e+00,3.091753790931943691e-01,5.899159149134963753e-01,-8.277637628498468736e-01,-5.754123515204626615e-01,-5.595299901900652184e-01,-3.972054722272388982e-01,-7.510339078411096825e-01,-3.487445272223415049e-01,2.097369817267375147e+00,-1.505984253007505436e-01,2.812002984162944585e-01,-8.376189766013102389e-01,-1.793469577899599043e+00,-2.248498444670431251e+00,-1.119627329406207988e-01,1.008867755322471638e+00,-1.547445787441992238e-01,7.113319128272688197e-01,9.077222078587982024e-01,7.880298524622654233e-01,-1.287950029032018107e-01,-8.642144878215662906e-01,-6.335929818872448882e-01,-2.449533036421253918e-01,-1.620501317527814011e+00,1.333105181283299023e+00,-4.653492747195796947e-03,1.933571858135126664e+00,4.754034666345466342e-02,1.137126793253418811e+00
4.605391670210710053e-01,-1.353842491017930305e-01,-1.824295601307699688e-01,1.854545939382166164e-01,-1.016910594160314318e-01,-7.239458663802742500e-01,-3.816613460126297985e-01,1.123246529644004843e+00,-1.260918843286726876e+00,1.269491620028616818e+00,1.583724110756010495e+00,-5.208416740035479164e-02,7.599157146288405551e-01,-6.166178019527869258e-01,-1.265880711839979522e-01,-5.732446499365863035e-01,-5.958814970129104882e-01,-3.343580530116469496e-01,1.993190664288741365e+00,-8.720107475821589071e-01,-4.648792194538828304e-02,6.794197107877796293e-01,-2.499999291421680647e-01,1.005202206968624168e+00,7.335831498509505222e-01,1.136246179093529929e-01,-2.483729029248031850e-01,-3.215664042997662397e-01,-1.272056251244564118e+00,-7.177360624437711945e-01,8.720279096177991907e-01,1.478985511231834193e+00,-2.447334596678476970e+00,-1.011062572824010575e+00,1.572085692834853443e+00,2.108049528817552976e-02,-3.804658146030417964e-01,-5.524388003255796820e-01,-9.015124197690012053e-01,1.040173789473512134e+00,-9.404300557487698109e-01,-8.604836081199360720e-01,-9.113429086638268062e-02,1.155069467684259887e+00,8.583276146277674101e-01,5.774080731278384837e-01,1.239888054979694898e+00,-1.355538748325266107e+00,9.297669712910826556e-01,-3.574917386935900776e-01,5.688444754271300141e-01,-3.660595452509354808e-01,3.869512228799371623e-01,1.360507509077494515e+00,4.851728567308387086e-01,-8.369203905204458671e-02,-8.409939059382859350e-01,-4.115708888114706920e-01,1.032241805409271490e-01,-4.705380610986389239e-02,-6.764884828934605299e-01,2.601949042221018416e-01,-1.227333225774776437e+00,-2.598038918156389432e+00
-4.988539165700305311e-01,-1.904287576353586031e+00,2.484458622195688804e-01,-2.557234818767496476e-01,-1.514329768812505417e-01,5.109105356294670885e-01,3.008375896871043897e-01,1.759247527558138069e+00,-7.805601225860651082e-01,-1.012075561115263422e+00,-1.360583425532206903e+00,-1.325604919275090721e+00,3.163375522151203323e-01,1.853861873967565854e+00,8.909077899792473554e-01,-2.748557608937302402e-02,9.980992299693453029e-01,-9.550026947894917351e-01,8.894082965495275772e-01,8.863877967866663488e-01,8.503555654310440692e-02,-1.488412225866117211e+00,8.848248589808238584e-02,1.376242196653085115e+00,-3.036621685780281910e-01,-6.427890859904168419e-01,7.415456703493142898e-01,-1.524666415128129726e+00,1.702598644717749909e+00,-1.184177044730011730e+00,8.338259402731171832e-01,5.843063590462533874e-01,-8.823137719734099049e-02,-1.629803051787757751e+00,-1.392476828222641017e-01,-1.314356028089676887e+00,1.257419646803925151e+00,-3.534474852931136085e-02,2.038735466561804044e-01,2.391148050685300230e+00,-6.504122673695679480e-02,-1.868289897261593937e-04,1.798894902166179310e+00,-1.419573377977181750e+00,1.842213624494718482e+00,-8.578052293000825168e-01,-1.146583536142588844e-01,-6.093593969029502677e-01,2.716106537874838911e-01,6.002190609502010554e-01,2.362798997018227265e-01,1.316523652585438686e+00,1.695715918485246831e+00,-1.517402131422155520e+00,9.046230633280877287e-01,-5.168371191311273982e-01,-5.000925576304315889e-01,-1.323953013717796390e+00,2.284486009513762461e+00,1.435045163251201517e-01,6.934640018963142971e-01,8.477670685360217950e-01,-1.033707012442139028e+00,9.153535662330981870e-02
1.231102499928550920e+00,7.798910642896009771e-01,1.524100276422825528e+00,-4.794713038834498287e-01,-8.605663346699956584e-01,-8.111953648179059950e-01,-9.826597482567006603e-02,1.045580367258422544e-01,4.937712806441461599e-01,-6.625389581870928524e-01,-4.946510881548825123e-01,-1.677515739051384791e-01,5.864042500070109076e-01,9.555902538021296966e-01,-1.854073739750570007e-02,7.315355542372274922e-01,-3.669851526058697799e-01,1.790981528009643331e-01,-3.396445449658768712e-01,1.214848858321214031e+00,5.058189426260017996e-01,3.541042710873478216e-01,-4.714486056683352966e-01,3.334098380909005788e-01,-3.714604270315865486e-01,5.017119008203246855e-01,6.225821763881115301e-01,-5.343403671502561236e-01,3.791205136606457526e-01,-6.620241909150031967e-01,4.424626149826148547e-01,-1.225186290310072534e+00,-1.597883312932187605e-01,3.344968976211438183e-01,-1.383569088078331566e+00,5.625366910455867897e-01,2.098424684261747108e-01,7.118678969819737246e-01,-1.973013161899174195e-01,1.180789986167517069e+00,-1.982933593093909375e+00,2.739777025419265044e+00,-2.183689568062578967e+00,1.046291860242610783e+00,4.110477116885938309e-01,-1.565106003437639393e+00,1.056591258416529788e+00,-5.249535550651347471e-01,1.904083258820081781e+00,-2.179865220034311601e-01,-7.904351731207582832e-01,1.262291652683653065e-01,1.186521971313630130e+00,-6.226095562358902047e-01,-8.890603303810959979e-01,1.512085456026126540e-01,-1.706345032650155025e-01,1.874796045467633121e+00,-8.115125677207541965e-01,3.656013795618057172e-01,-1.231812702947683302e+00,3.521231112841530231e-01,2.944171851197533440e-01,-1.355434092402005297e-02
-2.738740143741780556e-02,2.933336988550052649e-01,-4.302560209715024508e-01,-8.858315641426509068e-02,-3.001348807935095078e-02,3.667800266183330882e-01,3.499387773662912537e-01,1.096844610673243375e-01,-1.530469567046240376e-01,1.799255297467662551e+00,7.573115636999308009e-01,-4.141331218577860573e-01,-8.165442412819664542e-01,2.576685822584344129e-02,-2.639282070470778119e-01,4.774023317896952112e-01,1.671724282663137995e+00,1.752494101911339364e+00,-1.533603704489872877e-01,-1.793696969319243939e+00,5.837675806252103777e-02,-1.282423243973130011e+00,6.010783378629772633e-01,-2.049107735879466485e+00,-1.114472665521115818e-01,1.268675584297253911e+00,-1.574797349587741868e+00,9.230896257622371592e-02,6.956129901855422348e-01,-1.564955435963812036e+00,-3.203878772980718326e-01,9.325697486524943125e-01,8.014799294655845507e-01,1.276898353890138615e+00,7.839483050767276362e-02,6.983679471712017639e-01,6.697391837115092006e-01,-7.517867623235662267e-01,1.289296606422820179e+00,-3.246344284912006106e+00,4.298361946781022458e-01,1.504643939473497560e-01,6.169804324535549389e-01,-1.565419800653136573e+00,6.192734976662941371e-01,-1.434053815851391356e+00,-1.184214720046084413e+00,9.355348765263609145e-01,-2.863129236752664508e-01,1.096578442935695286e+00,-9.450697487096270111e-01,-2.901834184725146759e+00,-3.303633332203783080e-01,-7.557319224074303676e-01,-5.101667224868731143e-01,-3.095839220110198631e-01,-2.437001290763474604e+00,-9.350727830973570853e-01,6.737634612931552303e-01,-1.916999214425725573e-01,-9.831022932515979251e-01,2.610646508956157574e-01,3.631411175633584842e-01,-7.609375762806001031e-01
4.419680512414428386e-01,1.778056797607547868e-01,-9.448182847752002733e-02,2.288557082105963369e-01,6.525776723740041030e-01,-1.653207627803672919e+00,-7.326651569875465286e-01,1.557275623740649761e+00,-3.405108237841922847e-01,2.340851606644878680e-01,1.031173273508772414e+00,-1.139289889780304765e+00,1.998590195895298516e+00,5.061022134200457989e-01,-8.080587539667186125e-02,3.499381253032259886e-01,-4.226100479244886965e-01,-1.584034034016818804e-01,-2.312644400061452110e+00,-9.826509510793172975e-02,9.894995617772321672e-02,1.199647916496315581e-01,6.773738088509649868e-01,7.568366874376981912e-02,-2.044171752808640274e+00,-3.447268400842671832e-01,2.076712705407998349e+00,4.697924058722561802e-01,-5.901120650916923394e-01,-9.207786620280510315e-01,5.937477128006218852e-01,-1.210879531208899573e+00,-6.258133731191859450e-01,-1.392393290994049071e+00,-1.438029721611975842e-01,-1.497599613070433433e+00,7.484003518788209797e-02,-1.159055460481351663e+00,-2.112034555496013211e-01,-1.258890470656217175e+00,5.108790358523030983e-01,-4.400662948757163018e-01,3.459805196368317959e-01,-1.449003242850117334e-01,1.861119466999332228e-01,-1.174165377068707938e+00,6.849564198257631631e-01,1.923418274450211796e-01,-8.232572147646816108e-01,7.881215985316800676e-01,1.497026863876598668e+00,-5.946199056991420262e-01,1.081011812372510428e-01,1.164746107256804386e+00,-1.036147790099807953e+00,-2.472743716011392978e-01,-1.261822481862156786e-01,-9.403661005756471791e-01,5.524261195168767014e-01,-4.931536061162124507e-01,2.597951537547957823e-01,2.191145089802176482e+00,-1.764397323633783099e+00,-1.193464114351951100e+00
-1.249083504674368905e+00,-3.969593449593695755e-01,-2.483488390707847271e-01,-3.576099183038425000e+00,-7.884443044966812364e-01,2.728923557448334480e-01,1.017509772304176163e+00,-2.876295225498634034e-01,6.167031545952964544e-01,-4.438219500457635247e-01,-8.196299157071507135e-02,6.088177632508932208e-02,7.580823554056242974e-01,-8.191462427540208147e-02,-2.311641641176406803e-01,2.383144603219483348e-01,6.854337081838618451e-01,1.299496082052603141e+00,8.932547251627702412e-02,-1.521885059130193341e+00,-3.146055364957309752e-01,1.327305799953277132e+00,-5.986225107272727941e-01,1.087502279701958896e+00,1.554955315513453451e+00,-5.912794584249996266e-01,-1.481683383795210363e+00,-1.984111302274680355e-01,1.863369589302882767e+00,2.093832151841958478e+00,-1.236427470924596150e+00,6.155111541468752945e-01,1.932171655603105997e-01,-2.673471981459712987e-01,1.350125402613477688e+00,1.027015596056202601e-01,-3.819080239473073290e-01,-8.364139968468271569e-01,6.712090165076828319e-01,9.683722048631753232e-01,-5.468038181824201871e-01,7.228009341575293289e-01,6.161584566999009915e-01,1.353744518159575971e+00,1.373409096754599323e+00,4.627404914080945342e-01,-1.149331851927731796e+00,-1.304619020082428582e+00,-1.502306152230595826e+00,-4.076847715382637266e-02,1.359014221877050455e+00,1.764124237349772972e+00,-9.135117716431355728e-01,-3.271761709747973979e-01,6.894775016529104406e-01,-7.047519731960854017e-01,4.641870025553091472e-01,1.035720683191995395e+00,7.185167863219660278e-01,-2.014312747969571604e-01,1.245671803771950303e+00,-1.514414030900909758e+00,7.391116415565189834e-01,1.101784575852749581e+00
-1.504690928647441639e-01,1.432957406961446745e-01,1.660534418505058118e+00,-5.158555146627639143e-01,6.891841095844436493e-01,-1.290569435288007050e+00,-4.935726193680692320e-01,-1.269511004803099974e+00,-1.150517712632816297e-01,-2.636477294663092108e-01,-1.186713126248348127e+00,1.656581825175533096e+00,-3.326381725726483274e-01,1.450878768167078503e+00,2.179874409828383708e-01,1.475287659744497271e+00,-7.277787559970106956e-01,-1.194453901896288528e+00,-3.167834517992577648e-01,4.704363988472016755e-01,-1.676606750762249298e+00,-1.015811447193864403e+00,-2.227695757128788367e-01,3.789170745173137123e-01,-5.985718603661341897e-01,4.196286851278511754e-01,2.634772526696717687e+00,1.831475915425238465e+00,-8.672744137924534025e-01,-5.172373262372398361e-01,1.127422890469901962e+00,1.280276314373732571e+00,7.185828629327993822e-01,3.545155089546756511e-01,-1.520844520421972546e-01,-5.891988459496523278e-01,1.642364783084571567e+00,3.071320006185719320e-01,1.059953542824354777e-01,-3.899530948809164510e-01,1.075633986096579786e+00,-2.320102108769503957e+00,3.397853337495300718e-01,2.644454834322609305e-01,-1.681108206905658764e-01,8.900414682601662797e-01,-1.255048033054876333e+00,-7.974102194800575250e-01,-8.986624858027790763e-01,-5.745813512021440417e-01,-2.374009987783926856e-01,-1.046783322550465023e+00,1.176620304242943060e+00,3.316026431989464118e+00,6.691296936249867544e-01,4.232734245271999596e-01,2.521307680301735132e+00,1.843441727522843188e+00,1.094368823832732485e+00,-1.092681911829828323e+00,1.060599879816011448e+00,-3.772453873313636463e-01,-1.724394194202896191e+00,-1.208985577298611891e-01
-4.957505087714197400e-01,-7.085541026369169826e-01,-3.157344984712842639e-01,-1.038891163137801943e+00,3.804626019156616135e-01,4.079949831907237479e-01,-5.521023384454871730e-01,1.259658802288810220e+00,-1.401653107311816582e+00,1.134884843354474926e+00,-1.309201296068092990e+00,-2.583617496899597854e-01,7.640627564774181701e-01,-9.589595359201089630e-01,8.050827138415984630e-01,-2.442734172559771100e+00,-6.147453823389152916e-01,-1.280208396033684082e+00,1.479965321929530120e+00,7.952144676922570099e-01,-2.196299698879750628e-01,-3.248484816080837723e-01,3.228933452888611555e-01,-4.946193324113400958e-01,1.091049075645329047e+00,2.704554032279015141e-01,-1.727245746973917750e+00,-6.113146323641382995e-01,1.719582526550032242e-01,-5.826150322228700329e-01,1.311242661934563625e+00,-7.089825910303376721e-02,1.742526054061979357e+00,-5.052547190988159187e-01,-1.364445029480690075e-01,-4.188136910298339566e-01,-1.394620348122939557e+00,1.253641275069479200e+00,3.311516358062743248e-01,-6.948107641340235396e-01,-1.663861204411378747e+00,6.590321612759612036e-01,1.290769115263703526e+00,5.744237332265715867e-01,-1.212054003900663091e+00,-3.893440108074341377e-01,2.216734034806636888e+00,-8.892554220032370393e-01,-4.125978764321532322e-01,-6.888851743828983132e-02,-1.758484376864127841e+00,8.181453529852539264e-01,4.350179102139328235e-01,-9.847593166048732582e-01,-1.563698609269261075e+00,1.540674879644692193e-02,-1.934678687268421848e+00,-6.532722489747520012e-01,-2.604051473725725874e-01,-9.445042424013827542e-01,1.465277818294342005e+00,-1.566675847435710645e-01,-2.045520670009413622e-01,-1.147910781795167923e+00
-4.501029278947181744e-01,-6.887144759359452584e-01,2.396503848381209278e-01,2.788399830874642715e-01,6.738565569496098862e-01,-6.817644214728271201e-01,-1.326231684918931730e+00,4.539306940748792929e-01,-3.376048248721608691e-01,-2.243001342601293469e-01,5.394387537613805350e-02,-3.284739334088448426e-01,5.665599949211220787e-01,-7.004592663622301041e-01,9.802682647418244910e-01,1.398861430034037179e+00,-7.850795578096955163e-01,-1.451499238172338835e+00,-1.568153721437287873e-01,1.171947707320104781e+00,1.644882416935085745e+00,5.714460111288276467e-01,-6.939217942342698064e-01,1.781788289731093267e+00,-6.040958658167123740e-01,4.725552953046155968e-01,-1.190664489346676014e+00,-1.791560580252157808e-01,8.945987723917747658e-01,-5.226928088785697257e-01,9.306618172239007336e-01,2.498330833888627311e-01,-8.520348798095838116e-01,-1.219872502376711410e+00,9.041984045710876883e-01,2.659645716924570746e-01,1.345832145741340691e+00,7.684174194100140687e-01,-2.472667330939849750e-01,-4.673213587372275213e-01,1.203710645032759929e+00,1.022022975296273950e+00,4.635397707307305493e-01,1.740763586111442329e+00,-1.433466314537847675e+00,-1.526978692284001182e-01,5.779684851093164211e-01,1.472470537316677319e+00,6.738185208023287354e-01,-6.701132414199149068e-01,-2.157059865650446662e-01,-6.683749970765038295e-01,2.303308209492041403e+00,9.141686447551145012e-01,4.341960667072811836e-02,-7.086864470092181234e-01,-5.912428109606299165e-01,1.645017932293592056e-01,2.402015634585703274e-01,-1.103715839141342192e+00,-1.274230800703388677e+00,6.696531776473323427e-01,7.519927888073782984e-01,-1.359443924200044229e+00
-1.771148416636757039e+00,-4.254027870684832235e-01,1.031064595787933857e+00,-1.961408404423590768e-01,-3.358354600489297681e+00,-1.414616976767091527e+00,1.723538932315962224e+00,3.587574139606605761e-01,-1.307528545987356239e+00,1.078904808549477068e-01,8.913103613029813022e-02,-3.441369570553026724e-01,5.998721316304908013e-01,5.310472677957881471e-01,2.249579753537823024e+00,3.165205956745934524e-01,1.498260674545802140e-01,8.812204955289103248e-02,-1.566754514048487312e-01,1.120886359279810174e+00,-3.192223146937305800e-01,1.108276511381586227e+00,6.798365747149096583e-01,1.389138189380616506e-01,-6.652736071498421833e-01,4.191151875567721286e-01,-1.146335106463958198e+00,4.862385952617766516e-01,-1.036382419976292102e+00,1.879261459143826585e+00,-1.277669131595138063e+00,1.227104351153632117e-01,1.528582748332532881e-01,-1.274525622698983618e+00,-6.340522279730164135e-01,1.423998183703854559e-01,-1.054494164892284314e+00,4.324424956042229873e-01,-9.109489926195663001e-02,9.074958118421529996e-01,6.986440055364155910e-01,-1.657840642972790102e+00,2.554367927186124709e-01,1.026066716096694531e+00,8.289546720093984300e-01,8.344917231649020550e-01,3.759840422475302368e-01,1.515563989860097216e+00,-4.904463407560545329e-01,-8.357762495114214041e-02,7.806239962775637364e-01,-1.845335516109367635e+00,1.528483555125835558e+00,-2.453019419477473206e-01,-5.837843512212758101e-01,-6.724596657772968777e-01,-2.403456254685459204e+00,-6.815786084495132346e-01,-2.488923877783546512e-01,-1.258189046327669036e-01,5.554107516684152202e-02,-4.099443907420962652e-01,8.584204624920860338e-01,-5.124472981321721576e-01
6.719214635832354565e-01,-5.491824991663588618e-01,-6.770143632803761191e-01,2.429818576040479794e+00,5.940780076095659723e-01,-3.706342717184998303e-01,1.052000829748681865e-01,1.212830617834446678e-01,-2.761076993227099541e-01,-3.435689177356807122e-01,-1.410344814252430856e+00,6.301650327888767000e-01,-4.262164354943221434e-01,1.873547529155253077e-01,-1.027554799462446100e+00,-1.314623381585639794e-01,-7.075014668980943444e-01,-7.411613395635164858e-01,-1.199206161461282560e+00,4.212480930292053505e-01,-1.032452977397236848e+00,2.668663905493282376e-02,1.328832580147808473e-01,-1.111815217869998262e+00,-8.831149157833378949e-01,-9.564821541945535133e-01,-1.917438287585793433e-01,-1.105977236976082523e+00,-4.101593808252178563e-01,3.264270463967667846e-01,3.449749531649052292e-01,-1.912132281778000376e-01,-1.224503903407014427e+00,-7.394392817003617724e-01,-2.500011428148110615e-01,-3.882743573703757028e-02,2.462761890394395414e-01,5.906452667097472631e-01,1.028759576369984163e+00,5.030572056834405892e-01,1.195473391767517102e+00,1.115152125547341777e+00,-8.572755369630329358e-01,-4.626699590138905194e-02,-8.340414692387546625e-01,1.724347074774925936e-01,3.086519712907938584e-01,2.121613565614811403e+00,1.113188202990375242e+00,-2.308520792661600041e+00,5.608355067588071119e-01,-1.071065592973293068e+00,-1.091243195807456212e+00,-5.366052271849599542e-01,5.450218910753743540e-01,-1.947127913438926813e-02,-1.716383076706424982e+00,-3.691166036350921470e-02,8.948376525587682373e-01,-1.887315171390279156e-01,2.858851555364558955e-02,2.277130809253129939e+00,-8.264969430953318652e-03,1.377415330839310448e+00
-4.600916604914192520e-01,-6.805113647867037097e-01,-1.639679027721840376e-01,2.142855568656730214e-01,-8.622022695517611579e-02,2.375008433595636459e-02,7.325357478010152690e-01,5.945058762952176723e-01,-7.840778819648768216e-01,1.373910143759264235e+00,-3.285125475257566485e-01,-8.894681985153753967e-01,4.387911693257739304e-02,5.349478133935192670e-01,-6.395313338343271425e-01,6.227757188147049483e-01,-1.784451933273239366e+00,-2.554428578413601159e-01,2.350952477816532937e+00,-8.224474652614130465e-02,3.022691092865493756e-01,-6.237945538585589755e-01,-2.281790122072772764e+00,1.787972676666690797e+00,-1.085485326069060896e+00,7.122888183412784402e-02,-3.116979566375752131e-01,4.431456008341855823e-01,4.268034858929180553e-01,1.034808262775811949e+00,2.933497643728245376e-03,5.587436033590450352e-02,-4.714903472272268803e-01,-1.943953276625288162e-01,-6.062875817483139862e-01,1.575579532769671998e+00,3.576831989814283075e-01,-4.600167190055975963e-01,-2.814391164242928678e-01,2.804084801105888869e-01,-2.776869349734031323e-01,-4.477018916091608514e-01,9.328387541697014118e-01,-5.428904673831530525e-01,7.152515360101550923e-02,7.956982815540114551e-01,1.100778698099805331e+00,-1.360406872150434543e+00,-1.566706516375347302e+00,-9.136565091899339075e-01,-3.078479087117923285e+00,1.628248117096174008e+00,1.203802867621216327e-01,1.218671717323660975e+00,1.446365209566206289e+00,1.062373788445672318e+00,8.895994793168142678e-01,5.518182109016801506e-01,1.178055723116077980e+00,4.771330311848914207e-01,-2.412138666836170092e-02,3.443386908849531761e-03,4.689456682153925748e-01,-8.316656835982763063e-01
-1.812649204544132475e+00,7.513049489567054096e-01,-3.979224129352772477e-01,1.433524736049617054e+00,-1.708046413093602389e+00,9.677452643891145678e-01,1.219709642498540303e+00,2.660712628311437400e-01,-2.910201144581248678e-01,1.366080632808738121e-02,4.145878028667745463e-01,9.542726519607606095e-01,6.979277022415460996e-01,-5.967672021464416332e-01,-1.069900971198596062e+00,-2.121093048647404999e-01,1.303223271198208799e+00,-9.642313383212207656e-01,5.155215556918481268e-02,4.693886174153056867e-01,9.631951383947234824e-01,5.745540467880262403e-01,-3.554881842694829763e-01,9.331739140103348928e-01,-1.022658205982207136e+00,-4.959134425532991663e-01,-2.198653094018870324e-01,-2.172975848335544358e-01,-1.011767133250348394e+00,-7.554877404053572665e-01,-2.112108122014553224e+00,-1.744920063678717215e+00,1.296956310635879683e+00,1.016870442942665154e+00,8.194612605955761131e-01,-6.939887463641416510e-01,6.512768917692240978e-01,2.093243557851636627e+00,-5.290061717881803897e-03,-3.022460639220490020e+00,-1.257271629816937963e+00,-1.591303458665916715e+00,-1.878492445645267184e+00,3.839613961839259959e-01,6.026019627419120228e-01,1.574186026491845469e+00,-7.957063759349309873e-01,-1.911717243862851356e+00,1.012628164758858418e+00,-7.693593721956053511e-01,2.295030091519579263e-01,1.882799244433131625e+00,-5.232093852032920767e-01,-3.556525353515208043e-02,-2.526356195261555970e-01,-6.251372993645295528e-01,-9.132944867709778813e-02,-1.707301301316340239e-02,1.163739134765575667e+00,1.173121788623710859e+00,5.814866168721795070e-01,-3.043988067603777825e-01,-1.014860118828196711e+00,-9.961645641409746510e-01
2.167675662773957068e+00,-2.620650398438106876e-01,-6.118090071638758731e-01,3.864065041514312404e-01,8.170017431595804069e-01,-6.494985531032304582e-01,2.738050001936161992e-01,1.293917948744789381e+00,3.984981285561587372e-01,-1.544081413554483084e-01,2.149582658567632532e+00,-4.791640318582018887e-01,3.464425614048044499e-01,-6.793595914975365524e-01,1.407921159154775781e+00,-2.642466203056703655e-01,-5.373955035775855871e-01,4.185760776412852380e-01,3.458554231640619814e-01,-1.068101774814772309e+00,-2.200003871651015908e-01,-1.065420523324961843e+00,7.779062368932273541e-01,2.180614719780422373e-01,-4.132729249020193341e-01,-6.522213491588636780e-02,7.816260985418158613e-01,5.616062783248817469e-01,1.052995940071276726e+00,-8.157750115663181534e-01,-2.906720599505028813e-01,7.774116260181540561e-01,-8.563053811690599648e-01,1.706061650585336820e-01,2.170375825885322851e-01,-4.629089186957402458e-01,-2.258612455035803324e-01,-8.295502266787102563e-02,1.075355249892312459e+00,-1.021485159313695545e+00,2.932635276442122074e-01,1.678660028085990907e-01,1.439330685254100461e-02,9.721595693252299553e-01,-5.732234255453670935e-01,-4.636184625276011384e-01,5.051389308402223222e-01,1.701339607316882496e+00,-8.057987377969900999e-03,1.090171239268543868e+00,-1.141178335251958442e+00,-1.459720626697933454e-01,-3.890317207490845974e-01,-1.667303119418551915e+00,-8.425212502937544645e-01,6.513810924176970385e-01,-1.091801884368556852e+00,1.020260554240243200e+00,2.124077650988141219e-01,-1.362835676304393395e+00,-4.407141272765148221e-01,-1.741142028562294164e-01,-5.897149551459006656e-01,-7.461934676688237733e-01
-2.024571631968745955e-01,7.764470001115012510e-01,-1.088667881236549784e+00,1.607501238112322151e-01,7.131147578154080069e-01,3.348606674297014973e-01,-4.752965046756983392e-01,7.621011143205308480e-01,-2.586515456136601609e-01,5.972347622719448301e-01,1.047121209656590501e+00,-1.868548986899359221e+00,7.113340721946708189e-01,-1.161457614340332567e+00,-1.247555465990980217e+00,-3.563395327351783215e-01,1.189830148592782466e+00,1.447689225198141028e+00,9.518357146662951296e-01,-3.457614501621122938e-01,-3.699032831013427947e-01,9.113856222243630345e-01,1.578929734962732478e+00,5.425199703358443148e-01,-9.168098707997569818e-03,-3.540595341488776970e-01,2.467902060830944877e-01,1.310016880159518560e-01,-1.958093584659781894e-01,2.114824210907306767e+00,-9.231024909395697531e-01,-5.297378429649958198e-01,5.885938651198837496e-02,-3.290792749366490688e-01,-9.638266613907605640e-01,1.361907598944748887e+00,-3.375520076363425770e-01,-5.620753473144199930e-01,-1.233844622168078775e+00,-3.604517912263479618e-01,1.886048310235097336e+00,5.429557440703538518e-01,3.718910145423348079e-01,1.347707078772398592e+00,1.654510674690835570e+00,-2.918103534307712188e+00,1.567548481111340486e-01,-8.783256333998614718e-01,-3.405604140068311803e-01,-1.990833482778758379e+00,-1.303062995734256546e+00,-3.338653030602714566e-01,-7.112317746435846688e-01,6.235521754665936944e-01,6.183643032049191968e-01,4.568137996486241748e-01,8.355511154049038991e-01,3.330077245403537667e-01,-3.295743891013315219e-01,-2.308894983717293681e-01,-8.722619010356181812e-01,-1.604272183828235221e+00,-1.202364433829690382e+00,1.237077853690620594e-01
-1.780099952955562781e-01,-1.082895202484263963e+00,-2.267360362777124827e+00,-5.951695064783559808e-01,-5.111332084248989410e-02,2.460446879788800445e-01,5.927007623850942819e-01,2.198711709213672094e+00,5.727210463588007228e-01,1.226410178256269523e+00,4.332484175685795691e-01,-6.368558596417214224e-01,4.335321652486571198e-01,1.663684109433778202e+00,-3.986590443408930540e-01,8.238180888782760114e-01,-3.013629917724892915e-02,-2.023553848180233150e-02,-1.104960242656959135e+00,1.399806173602357873e-01,1.278183497842093619e+00,8.040108872618360047e-01,8.139013873709128877e-01,-1.285178769370824980e+00,1.793263298740184863e+00,5.199927843575455899e-01,-1.103674306302480507e-01,6.525699572047710673e-01,7.881940100970573626e-01,2.097688761698476012e-01,-1.386275927869389912e+00,6.253207928312436437e-01,7.286911215054958646e-01,-2.277576358012650459e+00,-2.451888962498021129e-01,-2.176081104053341875e+00,3.546171301454442149e-01,4.695211441560574739e-02,9.091789561867757996e-02,1.804540136098128800e+00,-3.381503247894522297e-04,1.127142225479953686e+00,-9.138707593577942712e-01,-2.070083865984976068e+00,-1.076494541944502670e+00,1.042277060934723387e+00,1.862177252163801588e+00,-8.641388694635062651e-01,-1.454346409825309216e-01,7.638724718148222348e-02,-2.017030246283875450e-02,-9.298044741150038317e-02,1.192135470672428532e+00,-3.477049828377376528e-01,1.247365259944950289e+00,-3.013625549002766357e-01,7.374358904173781981e-02,1.164566844796515621e+00,-4.502264686320442966e-01,-1.230490196164888861e+00,-6.742278742522491708e-01,5.440196757296583002e-02,5.499059479727282929e-01,-1.934019600326835064e-01
1.240147670064554397e+00,-2.535753497481186280e-01,-1.014752949739223586e+00,-1.564414746907708542e+00,1.120087806769312966e+00,-1.633228986852582609e-01,2.202031032483204864e-01,2.063052883550412719e+00,-5.805145566906675381e-01,3.420867413526614276e-01,-1.456546538652803813e+00,-6.782301784634242603e-01,1.676222924844356976e+00,-1.822143054805725138e+00,1.424873991337959334e-01,1.301079269824620077e+00,-8.184047955587819834e-01,-8.860990076285748529e-01,3.257223463026412413e-01,3.761988381867326647e-01,1.293710843164765034e+00,-1.957080773072735272e-02,-1.743258374994465010e+00,3.802717569286597210e-01,7.302196142363910625e-02,-1.703032608080985999e-01,-5.082951702390932081e-01,1.287627803333763588e+00,-6.739970681691488386e-01,-1.217624117893121083e+00,-5.920790647029527953e-01,5.748651050831222742e-01,2.566461882269883699e-01,-5.730527075599125553e-01,2.922960928293260457e-03,9.027603455575450297e-01,1.011403435414403473e+00,5.994352399742027826e-01,1.219630330092696724e+00,1.355882088892612858e+00,-1.255765439716219345e-01,-5.216564801736357504e-01,9.070852192924175883e-01,-4.766667573993948470e-01,7.517495560871650939e-01,2.556080644879118458e-01,-1.624643237122295414e+00,8.816917863897394403e-01,-4.462905828648328771e-02,8.494076648851097699e-01,1.322236165290933130e+00,-2.438334066661906330e-01,6.023962566595044699e-01,-2.746995250271394018e-01,1.741224457586385777e+00,-8.046259045078584249e-01,-2.576230522190017802e-01,-4.413572327466828704e-01,8.121945983331083641e-01,1.240427999145916838e+00,-7.961822437211796277e-01,-7.115270977205764846e-02,-7.684697419243873284e-01,-8.981509308419745041e-01
-8.971661588240164020e-01,-6.293303758930779424e-02,-2.333542504793937600e-01,-7.365392535689506692e-01,-1.443776975333577184e+00,-9.558378157208833326e-01,3.478267864129943598e-01,8.127887480864159908e-02,-1.785016024556807190e+00,4.034810001325697670e-01,1.480670662360271006e+00,1.146047540000641463e-01,-4.014680557643389158e-01,-1.825333123184366968e-01,7.098759164729643301e-01,7.930850508125562026e-01,-2.372533463372535345e-01,6.060125116577180782e-01,5.737084299090756678e-01,2.605932749644560356e-02,-1.146238162881801026e+00,-1.826137219941378204e-02,2.975652129068024343e-01,-1.131622436826808381e-01,-2.946020841342426033e-01,1.210605347162262202e+00,8.620093428834616489e-01,1.683768575763720188e+00,-9.661719043762510006e-01,9.949621134313753057e-01,-1.502971168376545097e-01,-1.710272866908690403e+00,-6.099555600506204600e-01,-2.079842922894590274e+00,-1.646099826949813716e+00,-7.758420144622018011e-01,1.886129123213045711e+00,1.699024999707164640e-01,-1.655259119353390540e+00,8.367405575353143998e-01,2.209518034761974281e+00,9.802007880203521539e-01,5.919095415523122350e-01,4.456571938588227422e-01,-1.446729222077897781e+00,9.080658784338517808e-01,1.312225402466727031e+00,-1.982972393109922349e+00,-2.799798795875544366e-01,-4.780330165859364988e-01,8.657212227433200846e-01,-4.980327313368863029e-01,1.095569495355607215e+00,1.149120944409125933e+00,-5.036911079850611150e-01,7.906432092170735670e-02,-8.177124254526934033e-01,-2.177034918818136155e+00,2.460885208669944646e+00,1.862178707348907336e+00,-1.554163935048897383e+00,-6.838603703960990376e-01,-5.711089479309843231e-01,9.188080795523073663e-01
1.784115267320621312e+00,7.048622426061363910e-01,-3.237366141253819052e-01,6.470690264481760989e-01,5.979799260242121273e-01,-1.127430401059462239e+00,-2.892555166603430483e-01,1.462594070785312894e+00,7.596967953700843601e-02,-2.224006048327887841e-01,-7.673841885174753630e-02,1.798524694752353437e+00,1.151291451074662048e-01,-3.310781904960177879e+00,2.312981568628086571e+00,-3.025255674079596058e-01,1.107129370383420186e+00,1.237492911170685467e-01,3.821259037830461169e-01,2.421967929419901744e-01,-1.958608031567703245e+00,-1.237910662217604374e+00,4.036388984869218599e-01,-4.689854556157524446e-01,1.633130746750344864e+00,1.574637676124655217e+00,-7.444438294376896081e-01,7.603735646720335417e-01,-1.540449011075504214e-02,-9.208969876369168528e-01,-3.425098496774690027e-01,1.054693250696496554e+00,1.416799905109271451e+00,-4.093793238678202773e-01,-5.244188376538407720e-02,2.664229954138649936e-01,1.214347514982882181e+00,-1.501220530666089070e+00,1.191304671271269155e+00,-6.747842568863704482e-01,-7.220021914125465123e-01,-1.326650008113526846e-01,5.507772641651107470e-01,6.691599737732337738e-01,-6.805794105715552433e-01,5.060796694765261616e-01,1.097767388511164288e+00,-1.424510616207207425e+00,-7.014508692206626872e-01,-8.354005863257534248e-01,7.872814669012300204e-01,4.086558420001117353e-01,4.574866526841314118e-01,1.612822825224693446e+00,3.628777237414354800e-03,-2.695297744412178953e-01,-1.287975947958233558e+00,-1.757473720184784760e+00,1.606174250645516777e+00,6.825808611161083839e-01,1.525966125253219174e-01,-1.429234287485052990e+00,-5.754449845180064083e-01,6.138501805092391184e-01
-3.865576236140507577e-02,3.369968640383989578e-01,2.986249153140880241e-01,-1.254791226964846462e+00,-8.392251925106171129e-01,-6.370355576197821168e-02,-2.061707070468647096e+00,4.080750801195402733e-02,3.391939573464150537e-01,8.833428874339313008e-01,-3.379522534732243289e-01,-2.689948201589061894e-01,1.487299426981379735e+00,1.766815634883799613e-01,2.816971600031096569e-03,-6.092156763019369592e-01,-1.097355908176449235e+00,-1.417420113445433616e+00,-1.778656695335182614e-01,-3.662857738128529328e-01,1.994909176093190017e-01,7.462706980483739816e-01,4.218701972987796700e-01,-1.682866113900900684e+00,9.892984916764939740e-01,7.382455946561825577e-01,-8.478589215535055346e-02,1.506566811509193748e-01,-2.337350105123969513e-01,-4.466141493085168390e-02,9.939939267889676966e-01,5.458524051524773490e-01,1.062960457762546440e+00,9.371092698008058886e-01,1.136166289756577186e-01,-9.465611788778763858e-01,1.005153246496915731e+00,1.544840078362964997e+00,-1.672098432990745120e+00,1.271454469998563486e+00,-7.287960155338132351e-01,4.305500116820946445e-03,1.242249848875476737e+00,-1.109341878560831551e+00,-1.986507214892721529e-01,-3.445646468483993252e-01,5.453762032855257597e-02,4.155066057470366836e-01,1.174357236790110059e+00,5.122786265080441215e-01,-3.471770947188303202e-02,-1.340657252767496921e+00,-1.195611111528899650e+00,-1.235118892367645715e+00,9.236484052337087247e-01,-1.992482183867760437e+00,2.188526368405000755e-01,-1.473831765764039625e+00,5.699488112913873028e-01,-8.277116728477864616e-01,-7.631214468855661570e-01,5.457616576661333818e-01,2.998912499127266013e-02,1.094931219851264403e+00
-1.190090718011602045e+00,8.931939471058197855e-01,-2.070167560186866873e-02,-2.246242534557455706e+00,7.047333200402451370e-01,-2.483911863866433978e-01,-1.955815470951262736e+00,-2.323277205500336173e-01,-2.602676063921687821e-01,1.262601986662159614e-01,-5.975763681755040801e-01,1.204265625302400888e+00,6.623460622029636591e-01,1.087876833570700086e+00,1.712753825219322401e+00,-6.535224531759468158e-01,5.021590563169836541e-01,-1.276155422185521138e+00,1.223172001318111324e+00,1.139594770385980338e+00,-1.967877771442889858e-03,-6.156085383241656495e-02,-6.726292701347416636e-02,8.867957438750447841e-01,-5.366059467717253229e-02,2.656696770238060168e+00,-1.255188910084832798e+00,2.606230206182600928e-01,-3.913251636106435116e-01,1.749864751597202117e-01,6.992863612919230087e-01,-8.942387479409972251e-01,-1.054280022700242236e+00,-7.236921081496300312e-01,-1.093674782756729469e+00,-1.544201062613245190e-01,-8.879537219721733710e-01,6.615237330493520251e-02,-1.092420195201296851e+00,5.044237571319860614e-01,-5.500389812483804652e-01,-4.378378042407636284e-01,-5.002270631528400457e-01,5.235761396199208884e-01,-7.990175244211435990e-01,1.513241139390708367e+00,5.476776324134987606e-01,-1.281269466502608534e+00,-1.521079569103188867e+00,6.921549734097441897e-01,-6.860836692343186272e-01,-5.121750266937179497e-01,-1.410310974796433081e+00,6.202493873271452962e-01,2.503477571888844122e-01,-1.586744599268773648e+00,1.757300840002155251e+00,1.575584871567556444e+00,6.259540508754662946e-01,2.142993761003511022e+00,1.415397115546161766e+00,5.942917912644565259e-01,6.952822043754994796e-01,1.652295536336320980e+00
1.232750831049211238e+00,-1.617618180487294943e-01,1.580956881447793949e-01,9.649933696998628241e-01,-7.672255078508078974e-01,-1.159220386380321433e+00,8.012910479902729532e-01,-7.968505803964442968e-01,8.711570104835404393e-01,-2.553779322227583415e-01,4.163310211639009162e-01,-1.440055466089201319e+00,9.025907452390240504e-01,-1.535024943892545179e+00,-7.156540996084891082e-02,1.333757296905499601e+00,9.545743518249306669e-01,1.247695438233672016e+00,7.179856784895982669e-01,5.295795189977144934e-01,3.625619961608573805e-01,-1.899392361905588300e-01,-1.558843414891210311e-01,1.802689885769661382e+00,-2.860807651093130177e-01,-9.154671090872995576e-01,-3.096184398979239805e-01,8.586138547993116266e-01,2.236987057761414266e-01,8.540442430153527553e-02,9.383142315283927726e-01,-1.135521037749945839e+00,-1.922323169528954157e-01,-3.665942882883677090e-01,9.181340719361338887e-02,-3.816510484265887571e-01,-8.803007288941205877e-03,-1.491400593106211314e+00,1.241595237497570281e+00,1.342214993728448880e-01,7.437290519990842341e-01,-4.199220025493098918e-01,-1.130257731132331633e+00,-6.631923061903525207e-01,5.636150127176235980e-01,-9.992638291148009388e-01,1.196832851458116798e+00,8.706409158426611228e-01,2.313179204056101945e-01,-1.665387917920628347e+00,-3.064202074387285535e-01,-1.891392397282593285e-01,8.054022743959282638e-01,1.549272635191856873e+00,9.481829330359201613e-01,7.130487978999275889e-01,4.240098089298293682e-01,-8.164703577818595015e-01,1.169751110535091509e+00,-1.161209751571343346e-01,4.389772933816231681e-01,-1.200363113909662882e+00,2.381226059596540434e+00,3.919184468157901335e-01
-5.331551201114087535e-01,-8.968992539114865881e-02,1.406123232130788991e-01,-9.079799025077411878e-02,-7.042376209240902574e-01,4.285546211022891461e-01,-2.538878554957924027e+00,-2.543465622195213993e-01,1.044504903734249535e+00,8.328594426805205897e-01,-9.852215988725684381e-01,-1.058124379577722249e-02,2.871416976467218440e-02,-8.382744089130201859e-01,-7.686271886250422014e-01,-6.029930214020387536e-02,-4.616770514212716059e-02,-1.294511595034374407e+00,1.056847910060669138e+00,1.569018459672681054e+00,-1.006716566625478038e+00,-5.238140620917473012e-01,4.333354341656240893e-01,-1.368913635059647360e+00,3.371317330729299844e-01,-1.196185347861349335e+00,2.395301723333314037e-01,1.357760695045696187e+00,7.007633683299934191e-01,-1.260976238780685987e+00,-3.711733643748069134e-01,3.417927917023431961e-02,4.522193550470404166e-01,-1.534711878455954637e-01,-9.392353914155855410e-01,-4.589846060300684649e-01,3.814848659571949407e-01,-1.149235174855331026e-01,7.368029320100358825e-01,1.090447313311273092e+00,-8.381037908512986023e-01,-2.420161151450649917e-01,-9.282932547548702340e-01,-1.356445804346890993e+00,-3.144166901886348287e-01,4.735216836233211990e-01,7.834242538884826912e-01,-4.406995672602768699e-01,-3.288925319429293892e-01,1.628930138579012921e+00,-2.350810696340760675e+00,-4.579359925501140793e-01,7.537985119887954388e-01,-4.412352755602140797e-01,-1.098201938647597631e+00,-5.800952440594211446e-01,-6.071871618143086929e-02,4.382063495262756292e-01,6.696985701151353387e-01,5.349719206282013140e-01,3.136298308951827596e-01,-2.070332533565836242e-01,2.992174171014961789e-02,2.312259979420577594e+00
-1.314831696948356221e+00,-4.999018328615629225e-01,-5.958798325190651779e-01,-6.737768027855955966e-01,-1.495379654045009554e-01,-2.035370244289758657e-01,1.011483517754452333e+00,-3.271374561253340141e-01,-8.405680769086518733e-01,-3.484817233370293144e-01,-6.550190589504399918e-01,-1.794299796508776135e+00,-3.541685745129604657e-01,-1.292907426855145481e+00,-4.643946167516254664e-01,2.075873788864408820e-01,7.644964074696749545e-01,1.002928895935578213e+00,1.719644860759247607e+00,-3.015340703530574040e-01,3.714192637372382144e-01,1.003420064459824790e+00,-3.308066485700679737e-01,-4.108623840550317818e-01,-1.201925114189289073e-01,-1.222847392561416280e+00,-1.048621970807887271e-01,-1.835688827541044899e-01,1.136702442528453316e-01,-1.115192930554221445e-03,4.202513705573559522e-01,3.956883266301279845e-01,-1.405391975717814601e+00,1.389893894107767203e+00,1.000840398177575086e+00,9.687102963304933256e-01,-1.344669419020369405e+00,8.801942353382301576e-01,-1.678442362595255366e+00,4.861829108409302380e-01,1.170479255183520362e+00,-4.894879728492201876e-02,1.898980318112078181e-01,-3.669898137019476647e-01,8.036346598419236154e-02,-4.960606351758993782e-01,6.157693635818612954e-01,6.035469363526125841e-01,8.989052371072690784e-02,3.143606381324932642e-01,2.291962750431753570e-01,-5.077354188505774912e-01,2.576013667783708452e-02,7.694029439358518463e-01,-9.272198277781601439e-01,-9.260541385113373325e-01,-1.053572458242461735e-01,2.228840078576025618e+00,6.147426635010651008e-01,6.050277303462177070e-01,-6.581785895212018955e-01,-1.437077194670324169e-04,-1.599558026473922201e+00,-1.351045409934602093e+00
-1.695544829463607739e-02,-2.260653869639910329e-01,5.892986907889564974e-02,1.132650807462021181e+00,-1.350382824243713475e+00,-5.680588764009127933e-01,2.073320545848956753e-01,-5.047401901886726730e-03,3.246788333185529618e-01,-1.294775816488805409e-01,3.201946186669558242e-02,-1.152635789367988384e+00,1.684619955670556779e+00,-1.068935657826851904e-01,7.826888492145768206e-01,-9.216789523228351433e-01,8.454402643760476899e-01,6.644734627358129808e-01,-1.175934148835020343e+00,-9.737824610825248639e-01,2.040868051016033746e+00,2.830156624389666975e-01,6.780410740712441431e-01,1.074946060933524628e+00,-2.419324791641178418e+00,-8.210427044628634263e-01,5.844003376807358485e-01,-1.438370304165920821e+00,1.585725610084167680e-01,2.167827098842186828e+00,1.645516835893650054e+00,1.557375965154761954e-01,1.091789454658583569e+00,-1.189979951533133740e+00,-6.349233459550531755e-01,-2.235707263618335716e+00,9.454889228322836958e-01,-7.146233425633666814e-01,1.788359609978815046e+00,1.091991279859123691e-02,4.274491622359236631e-01,-5.793967270695050686e-01,4.064047732117286038e-02,-1.999684940025656887e+00,5.725647001307657691e-01,-2.340101498356325749e+00,7.779326775798593996e-01,-9.724978776968831173e-01,5.077125540581372415e-02,-2.186933447529822161e-01,3.746683822769779071e-01,5.286977972525711555e-01,6.480167369456714122e-01,-2.137871705557775337e-01,-2.524237828079623491e-01,-5.446104127573493381e-01,-4.095933752835563546e-02,3.513204103071715378e-01,-1.131372330845123120e+00,-1.385148322093419759e+00,-1.106208779124819852e+00,2.061621194297012405e+00,2.658841796495919896e-01,-3.784881803364389397e-01
1.008303692853473654e+00,-5.979676296137722558e-01,-1.354038001647813960e+00,5.663162231149323489e-01,1.329815441502043782e+00,-1.106394434400718829e+00,4.523044143137474049e-01,-9.747001718906046497e-01,8.624571941724231694e-01,1.534337983364961300e+00,1.173100965937283968e+00,-9.300581573999074925e-01,1.964903156724054467e+00,2.454637629219699468e-01,-1.209319452167011866e+00,7.052562635537145130e-01,5.049988072786494309e-01,-1.626574785811319757e+00,1.426298030883697665e+00,-1.081337623030258932e+00,-1.631012500679574151e+00,3.379847267875696337e-01,-7.677499009921864292e-01,-1.034121308188454602e+00,6.782627748438094795e-01,7.599865921804301871e-01,3.144361285983227616e-01,-7.129839173362330085e-01,-5.845537373186540098e-01,1.632988712652716778e-01,9.484606386523030119e-01,1.516604444456955525e+00,-3.577669475186387449e-01,1.145802716885318678e-01,1.012508978791714753e+00,-1.244634903000944176e-01,7.508227090165089379e-01,9.808145817957234502e-01,6.594975467439033734e-01,3.722516202415402931e-01,7.384775953416890248e-02,-5.578154250593183594e-01,9.680503192842266902e-01,-9.683280534301380582e-02,9.086454054592254526e-01,1.274792461297002688e-01,-8.165706781947774662e-01,9.703169629796459805e-01,-1.078915553392736815e+00,-7.375505825760589329e-02,1.017784295663241301e-01,3.126971055822007073e-01,-4.340339076475493996e-01,5.483672089848625752e-01,-8.550688700159996269e-01,7.917785586054674196e-01,4.120580086285798305e-01,1.258604513281792681e+00,-8.347606235263483887e-01,-6.689109714208778534e-01,-5.393834992508736992e-01,1.056546891982440339e+00,1.644235172329069794e+00,6.547605513109356901e-01
6.551010166873686424e-01,8.157237343426561038e-01,1.046439088598589251e+00,-6.188260931973019741e-01,7.721265078614510946e-01,-8.493354326192592563e-01,-3.826841923596295270e-01,-1.276430147659022296e+00,-9.522228761097727145e-02,-2.655160408812132777e-01,-1.517994999389793431e+00,1.717714283003714648e+00,9.308935301267907692e-01,2.642508501774422647e-01,1.724106351270819681e+00,1.415510690970335772e-01,5.525345522672003851e-01,1.343042251832592848e+00,-1.140431017371300815e+00,-1.191294767631737722e-01,-1.904889462953865742e+00,-8.138445267681760908e-01,-1.351835173864190720e+00,-1.463586957957399903e+00,6.877687275420514279e-01,-1.132196984301226061e+00,1.510372807117986937e+00,-1.184270716854680661e+00,1.197493550260653628e+00,9.241014861702365746e-01,4.821018675044055901e-01,7.079455552403153273e-01,-1.195327484648966987e+00,1.102270671872137342e+00,2.050511331371913937e-01,2.979396147280203300e-01,-2.770499477124203636e-01,-3.406369946154894079e-01,-3.726744733071263305e-01,-4.012711466921529690e-01,-8.188649764264523956e-01,1.267739379499740915e+00,-1.216270439182798979e+00,9.186729077295068269e-01,-9.492759686591322188e-01,-4.816633330167894855e-01,-7.876121522055461455e-01,-2.330740330329375443e+00,-7.846136895842804604e-01,3.521268606256904299e-01,-1.191623886734964444e+00,6.333613959219001055e-01,1.044259853661444692e+00,-2.194508713305929060e-01,-4.542447228257914804e-01,-5.385006227244196753e-01,2.217536293236743727e+00,1.840706063472500598e-01,-1.211773845455737186e+00,1.339311011352251946e+00,-2.946902723945794000e-01,-3.510739536245701120e-01,8.228686244664502880e-02,-1.930018153614233345e+00
8.710702227948809995e-01,-6.034848273083304182e-01,-1.156315552522086398e-01,-8.377001988343782402e-02,-6.170945093218958011e-01,-4.212929994936895350e-01,6.134209780315148519e-01,1.759855013430734250e+00,5.340624484788746296e-01,1.507404331173666456e+00,2.349562503420569382e+00,-1.611554601808533604e-01,-8.343628431503509191e-01,1.157810219725747158e+00,5.865913512374809624e-01,-2.825907495762054744e-02,5.327158239119292871e-01,6.708310906871481905e-01,1.009201554008476182e-03,1.129321015846913356e+00,9.484972410245603447e-01,-6.949872673917665278e-01,-8.322331866044098136e-01,3.010170388426213761e-01,2.713679393261827499e-01,-1.307769822383346991e-01,-1.109365879361451507e-01,-1.665567488737449864e+00,1.247331041024557219e-01,8.054872766794772820e-01,-5.850098624255068991e-01,-6.361228810715697790e-01,7.299260285486865174e-02,1.867972601008541511e-01,-1.946910639822571509e+00,-2.560077445213642555e+00,5.565149688563668651e-01,8.566312424474045728e-02,-1.007460656869416660e+00,-5.665971116677870345e-01,-3.757881060065216272e-01,-7.841123798946735279e-01,-1.340124991543490074e+00,2.978520808650569549e-02,-1.731711691483122095e+00,-1.063747716174261226e+00,-3.459828064566643047e+00,-2.261903799482842814e+00,1.102909319606601990e+00,-2.436037934717877107e+00,-9.922297929744621214e-01,1.957838838950538840e-02,-9.728687206668001908e-01,-1.078422224778758043e+00,1.367955396321867578e+00,4.377601027206312612e-01,-7.992748719222092513e-02,7.150423385682617150e-01,3.631553223535159969e-01,1.237366705192375793e+00,-1.560855491830286157e+00,-3.329140956409868957e-01,1.202428486324607526e+00,6.570176859945940917e-01
1.795321906815952495e+00,5.163549631406649798e-01,7.353130311032557431e-01,7.237128039090807707e-01,4.263183153521407087e-01,-3.507957980264621023e-01,5.977810042894022846e-01,-2.206807811575803857e-01,4.672314549772640380e-01,-8.204642256679653967e-01,-1.965397993014727396e+00,1.373001598327323380e+00,-3.714156441206591941e-01,-1.376872452358855803e+00,1.442138096199430564e+00,9.649121978390408083e-01,9.875737338729194403e-02,1.860220924926344610e-01,-7.370530623803956960e-01,-9.416763611750281759e-01,7.410274423099586505e-01,-1.137816873056691991e+00,-3.877445641217567851e-01,-8.059701287155974780e-01,-8.346165874398167595e-02,2.846806589462366754e-01,-7.913711316863141221e-01,5.096473939538355147e-01,-8.854961308655170393e-01,-1.250584185134494986e+00,9.035336593832065111e-01,1.530462013172871449e+00,2.351062425903445163e-01,3.844960410291097808e-01,1.922761726312094632e+00,1.274009114408627408e+00,-3.635284295160846613e-01,3.218853799582875319e-01,-6.265649717663812623e-01,-1.285979950356802126e+00,-7.941124988385582784e-01,-7.288999840835200805e-01,8.061607798356587029e-01,-7.548784303658735428e-01,1.057432089420875743e+00,9.975090741277423678e-01,6.109709372031989494e-01,-2.613385056665938344e-01,1.059662125393345367e+00,8.740194430978526913e-03,-7.298715367210958371e-01,8.618545405458849507e-01,3.397728467475432113e-01,-1.250781028934148997e+00,-2.640863342746325171e-01,2.065890239214094759e+00,-3.805494309209361825e-01,-1.301570171078389127e+00,3.685987860995892929e-01,1.155211100429966775e+00,1.462177786176716898e+00,-1.101619302747133711e+00,-7.000459168290821266e-01,2.302932149887416902e+00
-8.681463273127838498e-01,1.445302616796457995e+00,4.708711435205168439e-01,-1.707579368548549414e+00,1.330666742160237614e+00,-1.266019723169710565e+00,-1.178267023216659437e+00,1.485732026088533830e+00,4.963384614266348471e-01,1.167704615834824322e+00,-7.892202998339461484e-01,5.198433552084792408e-01,3.521250189680856568e+00,-7.379808578428034282e-01,-6.745073464536919250e-01,1.525582264071889016e+00,1.106216715374078313e-01,-5.822099978032174716e-01,-6.771689446024095060e-01,-1.302362485552650329e+00,-2.166949839654642940e+00,-2.814026651788661959e-01,-1.220981617628434712e+00,-9.767216505483483635e-02,9.133567766762259454e-01,-9.144032853705094110e-01,-4.559304643591527983e-01,2.622984062374044897e-02,6.070649754916637164e-01,-6.791833928117118058e-01,8.146817477001203622e-01,-1.844221059583550648e-01,-3.560213562577279611e-01,-6.348495198484619406e-01,7.363413957075798377e-01,-2.345054364445906814e-01,1.473270811964501492e+00,-1.648824452040148492e+00,-6.978558407827497589e-01,-3.843503882251654846e-01,4.668059633736442171e-01,5.281106818694835114e-01,-6.437409022605237174e-01,8.115836387686801989e-02,1.216229555614776192e+00,-2.777483997429636836e-02,-5.331467399789028283e-01,5.740329320101199562e-01,-8.306497174223357316e-01,1.141722115698090123e+00,4.710712734019888992e-01,1.868016911319125173e+00,-1.533870276360735363e-01,5.866869891130063186e-01,-9.129865451998206982e-01,1.134820181856502908e+00,5.208035587575449155e-01,2.988703711473618130e-01,1.854534742852438356e+00,3.898322573795825474e-01,2.055261113637179449e+00,-1.969266954165427644e-02,-5.094387499713626255e-02,4.160663581131661681e-01
1.457176119496369215e-01,1.924287806534091594e+00,1.504817932420970727e+00,2.080744615144620280e+00,2.365701912281269192e-02,-1.743742615542937191e+00,5.816845462138535705e-01,7.430313908034289483e-01,-1.630409218930496396e-01,6.705935426568024882e-01,5.833810777610405340e-01,1.610242795989647591e-01,-2.362513067655331034e-01,-1.750205433106763131e+00,1.854579831740912899e-01,-4.453068407664870221e-01,-1.643049269260803136e-01,1.071192315426333863e+00,1.935958214560013768e-01,7.075972086279781470e-01,-2.753836442872950596e-01,-8.771096904867006216e-01,2.198018551761623807e-01,-2.095722089153562728e-01,4.509353256638248264e-01,9.149636993273710939e-01,-2.312182584357861170e+00,1.000313518841039917e+00,5.310511379986846414e-01,-8.942441410765297194e-01,-2.879951800432881126e-01,1.073124069186029428e-01,-4.068923104239616784e-01,2.663980104164032525e+00,3.342865734768521446e-01,1.038377212452253007e+00,1.889759591943337869e+00,-6.741509345927350072e-01,5.625945946470567449e-01,-8.494434746652480550e-01,-3.883420249763963050e-01,-1.995833707486867614e-01,3.601858608516876892e-01,-3.038912352956984475e-01,-1.807535089525549976e+00,-2.330658250952781230e-01,2.897657513710275579e-01,5.100074910894697444e-01,-1.564737304731047773e+00,1.499005656849186963e+00,2.771001303699334173e+00,-6.072576423997609885e-01,-6.212873961306495385e-01,9.835893788598006893e-01,9.255608064971887483e-02,-4.635627034344503294e-01,-1.783970982961041729e+00,4.008567794137113949e-01,-7.226722600308215227e-01,-4.877212252429128925e-01,-6.286050634320391461e-01,-7.833840254830425759e-03,-2.352647851657384770e+00,-1.244666667864939180e+00
4.788814585661082535e-01,2.617619803463973049e-01,-1.345432482723942558e+00,1.077630778682535873e+00,-2.470391826121609125e+00,-4.022085247922709689e-02,1.089548933587838553e+00,1.929428021774131530e+00,1.362364129059288609e-01,-6.187722119744683003e-01,-1.828947590508545940e+00,1.201805438027935546e-01,2.317056451723845112e-01,-4.615473582418899157e-01,-3.777286421966761232e-01,2.007490750119470535e-01,-8.191578831716698206e-01,1.908362327069307030e-01,-7.553298889275243955e-01,-2.419764312071037704e-01,-1.176136575658660366e+00,-1.465425386605404522e-02,-8.558334185970742913e-01,1.922133883371021756e+00,-8.368076713019501067e-01,-1.534264367763575332e-01,-4.532702384629442860e-01,-3.989897480308346456e-01,-9.425869962217203746e-01,2.074573582905494984e+00,8.930844741437358181e-01,-1.834958665928401178e-01,6.513275610875968180e-01,-5.834268850339803247e-01,5.609565689527944155e-02,2.310997338002549473e-01,-1.966478466539919867e-02,-1.185859146439613099e+00,1.457709038338980578e+00,6.005787631938783733e-01,6.341649502405563021e-01,-7.603898565782228891e-01,4.751996446668371177e-01,4.590057016805516032e-01,-1.059835770618834799e-01,4.962210077351965343e-02,8.536353334697527329e-01,-1.729483697843345047e-01,7.055447084941580682e-01,1.241065916147426007e+00,-6.686467849670341135e-01,-1.325116744815242997e+00,6.781449593081703142e-01,1.787992098464735946e+00,6.457197046653448957e-01,9.708362475208948128e-01,7.333321616448211788e-01,4.638098843088808709e-02,-3.536435414911105746e-02,1.115462824602629355e-01,-3.059880245679358346e-01,-5.257255915106748972e-02,7.297904466689623115e-01,1.082044456468067128e+00
-8.272003595298670353e-01,-3.751732676884071416e-01,-1.271765398492529453e+00,5.051189404601998945e-01,9.771562773096676979e-01,-3.270082851578666183e-01,-9.169537199420203510e-01,-2.367638946533374700e-01,-6.841010231097643945e-01,-6.189383002041497495e-01,3.641941857109277647e-01,3.912160759164828305e-01,-1.936581855092115445e+00,-5.333778846732741830e-01,-4.474673034190551069e-01,4.099128547067784623e-01,-7.895762371786897438e-01,9.908585242170184770e-01,9.334050933790072335e-01,1.486309688255196271e-01,2.789382973609309032e-03,-1.430007504057805523e+00,6.375447303867866067e-01,-6.687007267742947070e-01,8.851866239629512245e-01,7.234533551816622055e-01,5.921508212424989592e-01,1.802977916005548797e+00,-4.384472574760797103e-01,-9.001293729262563326e-02,1.558786560401201893e-01,-3.607187588884657736e-01,1.202739535809948412e+00,3.289263779673580745e-01,-3.667943082697044388e-01,1.423046454367363489e-01,-3.830477792072444210e-01,-1.171403351395299497e+00,-1.303867854784354963e+00,-7.491495405422757825e-01,4.272238991022946353e-01,-5.830704289022188291e-01,-1.051664588769133796e-01,-4.037222651832971243e-01,6.779793907131456132e-01,-1.184795389082684780e+00,1.980037326104201911e+00,2.065012577286353956e-01,-6.777582232928861528e-01,-7.277932457766175638e-03,2.854496494615681446e-01,-1.039935829098411479e-01,-9.168299121852409028e-01,6.150311737782379051e-01,1.120291800543928157e-01,6.023026063530325658e-01,-1.546860121651186359e+00,1.048773745136930113e+00,1.485955879725947115e+00,6.246879130671418867e-01,1.397971604852036753e+00,-1.025426191320419456e+00,6.674271161303679811e-01,-4.929697329658799254e-01
8.918345816237724932e-01,-3.409598626959550738e-01,-2.242842209850157698e-01,-1.857596914201964378e-01,9.216439721107413385e-01,-8.648875044843399307e-01,-8.738410145888800828e-01,-2.330735142700425533e-01,1.039303358973641539e-01,1.849225535384225516e+00,-2.669336972746010339e-01,1.110369408486222564e+00,1.054712746189156558e+00,-1.364933744821508643e+00,-1.178072564852271187e+00,8.432961853625051685e-01,-1.901925611671034577e+00,-9.448563787564606686e-01,-3.449978387859858331e-01,-1.849939793740542487e-02,-2.757893802677827133e-01,6.337043527623125172e-01,6.614835550041364698e-01,1.397984993409230547e+00,-2.380357577730304042e-01,5.372308083902462839e-01,5.026386205012527419e-01,-1.907698423180747893e+00,-3.957786549829745426e-01,-3.238529111500396684e-01,7.382291771689383775e-02,6.090016389831718335e-01,1.263149859779721496e+00,-5.032156653164893134e-01,2.053463664334378880e+00,5.560224369959327895e-01,-1.179924641434525023e+00,-3.662545532003889104e-01,-9.311216443403029785e-01,-2.057680024057920859e-02,-1.071187515983559990e+00,1.921397977956015857e-02,7.085250228302182318e-01,1.574233627691568493e+00,-1.023306386082113884e+00,-2.063438843926406641e+00,1.854140836165198147e-01,-2.160334252820103954e-02,-4.362030000442062017e-01,1.245323011214456876e+00,-3.647667358671525806e-01,-1.914839743080002099e-01,7.037574526604435665e-02,-1.290654606921804781e+00,1.737621491786343286e+00,-6.889133787846367651e-01,-2.976445389926443141e-01,-9.318873711051790520e-01,4.409603151788446529e-01,-6.859539338784290674e-01,-6.703548026148580252e-01,5.999656042337856432e-01,1.520556000187052392e+00,-1.672815488372492831e+00
1.391346995940096365e+00,-3.953129118995591385e-01,1.526369500125770440e-01,-3.512982832752737927e-01,-8.921397695064889888e-01,7.116124445552492184e-02,-2.693823240690432996e+00,5.637627933388705825e-02,-1.085229044908321505e+00,3.003921807350805051e-01,-3.314155907845541815e-01,-1.537593593606559228e+00,-1.825452273092431354e-01,9.893639531987450386e-01,-4.952553611577724113e-01,4.013414228527392713e-01,1.017237873947008708e+00,5.369852925273398414e-01,-9.254714321290841150e-01,-4.472486361721657588e-01,1.898879097866051024e+00,9.247614369055704442e-01,-6.344370092087615598e-01,9.442250192876020520e-01,-8.146970390294103193e-02,-2.021741482836482418e-01,5.574073758382864785e-01,4.720979732244868221e-01,-7.212523689458998355e-01,5.887779359618163788e-01,9.427181165693941933e-01,8.945764495961479046e-01,8.197306257743709468e-01,1.124147351886082724e+00,1.690080400595714571e-01,4.060108808072234732e-01,-5.486944507151975126e-01,2.162774031714281620e+00,1.158294061836900424e+00,-6.556023752165228702e-01,-1.466602022898274571e+00,-1.165516532799224736e+00,-3.230125410085562532e-01,-1.405735785847709085e+00,-5.837505755580257860e-01,6.746238197865396247e-01,-3.603876471835650297e-01,5.376769311859288525e-01,-1.313360055075942778e+00,-6.553703271652143725e-01,-1.555229682993533591e-01,2.474343106689068428e+00,7.245861632809399433e-01,5.309757162973309796e-01,4.817055023584239648e-01,4.588358235056753665e-01,-1.151498981660795895e+00,-5.799436295640270078e-01,1.970018470077602168e-01,9.052212548108784507e-03,-4.840970346141362790e-01,-3.743592490778026582e-01,-2.855719543127078208e-01,1.055552196753031247e+00
1.727939441998106673e+00,-1.155669908838347748e+00,1.401716775606726140e+00,2.242579695574590248e-01,-6.551946955667269611e-03,-3.540162520008215963e-01,-1.287718957997757985e-01,3.460942823712070404e-01,-3.767756051645742010e-01,-1.161763733242655139e+00,1.438699128085639822e+00,-1.506270539157756883e-01,-8.927470817865149622e-01,8.170328724806964482e-01,-4.829584902940928237e-01,6.678367840147841905e-01,-1.771391938528198429e+00,3.034360507105454685e-01,-3.729073228691835440e-01,1.127154393202479607e-02,-1.069502239286722167e+00,-2.226624167374219976e+00,1.339466334508743639e+00,4.909995698797003927e-01,7.167914807366104757e-01,1.764441302020873348e+00,-4.025771554415950026e-01,-1.581228798230311261e+00,5.635950777465916772e-01,4.762492663835696804e-01,8.012250129569523649e-01,-2.605543349126179242e-01,1.429914437944703520e+00,-3.869334534313382257e-01,3.154408105263917794e-01,-3.514561025460897770e-01,-4.461558104006113634e-02,1.720799766223750915e-01,1.715863584242026951e-01,3.284077308178378063e-01,-2.149708179472835656e+00,-9.211951513252655127e-03,1.176321477826719697e+00,-1.177302606501522630e+00,3.673614064103099541e-01,-1.418850349497034813e+00,-4.666298653234723925e-01,-2.009695123571132225e+00,1.362195711987779889e+00,-8.071174735699356839e-01,-1.997912736960043290e-01,3.666480696509756276e-01,2.461284388156094183e-01,1.525290436482825474e+00,8.446140070343147732e-01,-1.062510905290180663e+00,6.032960327897320951e-01,-6.602177255098080622e-01,9.883841472908975190e-01,-1.925965439032109039e-01,-2.154036752958007617e-01,5.006265377302576702e-01,-1.328725913445819806e+00,7.217763230800931795e-02
1.434738066917551624e-01,-3.479655985966523812e-01,-6.869592327655377195e-01,-1.872476733791920700e-01,9.324749075512853702e-01,-1.853545042594860970e+00,-1.639065667918386371e+00,-9.503777267988990918e-01,-6.168448275090996358e-01,2.101878441224516031e-02,5.983309298245200747e-01,-1.212308878631303433e+00,-5.957315733053527573e-01,1.064523192546221297e+00,-6.942108477678050615e-01,-8.194403760076076626e-01,-7.064195318575987592e-01,2.216600794302731714e+00,-1.353051563082327879e+00,-4.052079504089953765e-01,-2.503592193487056972e-01,1.549949416257988544e-01,-3.831621229114533511e-01,-1.409598323960749910e+00,4.412759931035627470e-01,-4.044080466232599091e-01,-1.030572836073589071e+00,2.229299190198528624e+00,-2.978683738555212845e-01,4.294120447433084076e-01,-4.749343671090636154e-01,-7.160026205201417415e-01,-1.044475248466687711e+00,5.470384177692436678e-01,-2.000553081236762676e+00,2.132657089509729875e+00,-3.380888855272234372e-01,6.655883801070070493e-01,1.190354751468262640e+00,-5.248222396075080676e-01,7.346268512098561576e-01,7.057931517407428634e-02,-6.713059668427440174e-01,5.756146812893580406e-02,4.473075743786494307e-01,1.117881637471415335e+00,2.066045581891970517e+00,1.138535611280491633e+00,-8.412153815745117280e-02,-1.324790070881304571e-01,8.402027198094532690e-01,2.866755354162197733e+00,1.206432888325261743e+00,-9.458831954486004445e-01,2.029896048102639572e+00,-1.751787988640480354e+00,-9.337359289216298208e-01,-4.167131993512518950e-01,1.096318565306463988e+00,1.398693953463059922e-03,2.936955728701431956e-01,8.522875446478427042e-02,5.286025591410065116e-01,1.832242378715846609e+00
2.027744415967774883e-01,-2.580740342225255057e-01,1.117115767880985377e-01,-3.562547417852681142e-01,-4.937155617677406183e-01,-4.388553799467490024e-01,3.672792077380875320e-01,8.225211091306022793e-01,-9.580360239165192082e-01,-1.547618642243971943e+00,1.540779379299405671e-01,7.942023217102371913e-01,2.084413210241103653e-01,-1.662356689674654164e-01,4.413828772020412239e-01,-5.468830287371093668e-01,1.291535092377081195e+00,2.034077265587972139e-01,-7.817634029650782912e-02,1.460236859454954628e+00,7.478152896613550205e-01,7.658256804594958389e-01,-2.229222955792273808e-01,-1.188944093245537958e+00,7.810284588077883727e-01,-5.369200669090143929e-01,-4.333357039044338221e-01,-6.968723605054411019e-01,1.289592816601257096e-02,1.674284859356730326e+00,-8.779962015132044550e-01,6.685331134089310678e-01,-8.156561811615260504e-01,8.566480663648472493e-01,-1.644107878005900414e+00,8.110023011159983586e-01,1.304843014730716066e-01,-5.876859660681993391e-01,-9.062563317117328099e-01,4.586943489948288044e-01,1.865612054009350151e+00,-3.227688089113359693e-01,3.584977299444059295e-01,-2.671792789748104746e-01,2.146314951712807034e-02,-1.887764908456593116e-01,1.408745277515518923e+00,-3.578883743031340825e-01,2.659218179766242862e+00,1.463596919712305100e+00,3.181477235366385048e-01,5.927461075425591863e-01,2.179166558382849228e+00,-8.424046968958365245e-01,-3.508231364065604319e-01,1.788034347734367840e-02,-8.414937506695988612e-01,2.315357073606557070e-01,-7.739703166850314675e-01,-7.955310304777464259e-01,-7.030982825909519729e-01,-6.127958493169565202e-01,1.483574008258575994e+00,8.049412474429797903e-01
2.012323941265063088e+00,-4.488891309571524380e-01,6.329720376858447572e-01,-4.497821593063176526e-01,9.538640687703662246e-01,1.162751964534919136e+00,-7.236390833539822764e-02,-1.427926010651789701e+00,-3.786013231298774318e-01,-7.618335023203824941e-01,-5.447230770402222699e-01,-1.946158926788258969e-01,-9.989417812871126401e-01,-1.686693811598382942e+00,-1.256244062682547069e+00,-1.912306906785011584e+00,1.646282177815887149e+00,1.568175385728082460e+00,2.060464302619615107e-01,3.980099412617436050e-01,-5.081797107152835613e-01,-7.703726107777683074e-01,-1.839681222985447284e-01,3.504269099782537644e-01,3.109991869474672543e-01,1.549346390118900185e+00,6.007744505813609193e-01,-4.541991791732782890e-01,6.517312387717821842e-01,-1.078551387923312455e-01,7.074045219735933809e-01,2.073481581551671615e-01,5.686598313391787451e-01,1.977085276974841488e+00,5.465980240182353178e-01,-5.132548434652370872e-01,-8.584081529028267932e-01,-1.402929483539640254e-01,1.094295692386033775e-01,5.918879146990455586e-01,2.127956692362387159e+00,3.274647252546418197e-01,-7.944361226202538706e-01,1.736964131553220936e+00,-9.046040161685909853e-01,1.156281934863454125e-01,-2.316053802080246526e-01,1.741655124781647801e-01,1.840059097413883071e+00,8.499046048061951186e-01,1.102203281919844402e+00,-6.335122542787556543e-02,1.058476191654428966e+00,1.051407071483715594e+00,1.046831252151807700e-03,-6.727269900625769683e-01,-4.111576093983002750e-02,7.771447150973914697e-01,9.022180049741398422e-01,3.705520309294852432e-01,-3.182464548536213800e-02,-4.465392211522311583e-01,9.524052514349754528e-01,7.864276046996377945e-01
1.124720303961516565e+00,1.567600900781577766e-01,-4.127901940078888832e-02,3.368608796561990415e-01,-4.216379533264986712e-01,5.267014087996838567e-01,6.331905753585452823e-01,2.074207539025005598e-01,-5.958033963537232580e-01,-1.027429144963803109e+00,-4.578285517589266163e-01,4.989580160779836793e-01,1.022107999512926080e+00,2.343673605019289952e-01,2.060383583516014028e+00,1.430417796645223394e+00,-1.392943306216450627e-01,1.326978974481589635e+00,-5.414189958804654923e-01,2.667131788516556856e+00,-1.068912059174423224e+00,-1.179395545870594725e-01,5.382285612826215315e-01,1.192098584423314511e+00,4.534144485727769069e-01,1.188234172840853642e+00,5.177410409544070946e-01,6.070593563019406336e-01,-1.357412691927453174e+00,-3.321377356101635203e-01,-5.683749276786536075e-01,2.913717806308844249e-01,1.312476052952608940e+00,-8.689027147353832747e-01,-1.167974627368439933e+00,2.119692007021720226e+00,-2.787656754404116421e-01,1.509226393394273558e+00,-3.540308259694365800e-01,-3.135186054951683010e-01,-1.654934339317429837e+00,-1.813967214607984157e+00,-1.368065770059707642e+00,8.102268800446101871e-01,3.019830680690900326e-01,-6.917907096912943032e-01,-1.059050224994804168e+00,5.610356454141850469e-01,-2.391928851003346512e-01,-1.076690471495824974e+00,7.682773757187555397e-01,1.254092773539275507e+00,-1.181999749457415261e+00,7.928973040802138605e-01,5.605539036341210535e-01,1.133139002812583618e+00,-1.452919175869145763e+00,-3.691743864095701211e-01,1.621223913593133892e+00,-2.479606661874861340e-01,2.274659646320142253e-02,-3.381409883033097974e-01,1.076755507169107728e+00,2.666737563595155125e-01
-2.051953225946827164e+00,-1.547147139415204542e+00,-5.177081238328601343e-02,1.328832230636329270e-01,1.397475619026138371e-01,6.257095659123985687e-01,-8.133763192532159625e-01,-4.030771105569413981e-01,-5.811167626986610824e-01,-1.726823980672429260e+00,-1.151475093042378495e+00,-8.719041095024004928e-01,9.434422663457954217e-01,3.285285465876804922e-01,6.974136177637231260e-01,-1.783513920475803261e-01,2.543623196208260939e+00,-7.869601831040495821e-01,-8.025821230746287005e-02,6.707126919142722965e-01,6.646776196683900073e-01,1.431086719542562780e-01,1.298780577275575832e+00,1.054867820775633902e+00,-1.077339818689753814e+00,8.885001259248346273e-01,-3.124866559126749377e-01,-1.689822168332136831e+00,1.562064121921166393e+00,-1.111998525017640516e+00,1.245943577548273895e+00,-1.508411556952008015e+00,-8.373712769175930548e-01,7.719337850287691927e-01,1.393358755020595696e+00,-7.188835549060471619e-01,5.500367626943848398e-01,-6.350656199530484436e-01,1.056732877218060328e-02,1.353511152235718606e+00,-8.385450589247855913e-01,-4.874461907393843330e-01,-6.590780620203585960e-02,1.676216447910861884e+00,-2.261730854703300153e+00,-1.816661598015500700e-01,-1.703978468610036767e-01,9.467365590456580104e-01,-3.775236963118484557e-01,-6.857520702511129551e-01,5.992697379613027842e-01,-8.680029275529778099e-01,1.091308279725377028e+00,-2.539692546426217667e+00,-6.186212485423072671e-01,9.609036014159141326e-01,4.051975003986923451e-01,-1.307166896007365020e+00,-2.625401509714249751e-02,-2.321012598847123520e+00,8.781012877802866212e-01,8.222798071173955670e-01,1.339618238821968177e+00,3.108723842593235850e-02
-1.011232308501826660e+00,1.013591505004153986e-01,-3.253655399313791774e-01,2.886970376002109123e-02,-7.957441586510302090e-01,-5.636514592229709963e-01,-1.673060266832113729e+00,-2.169549407009986552e+00,1.207238050619766856e+00,-9.742512920858414915e-01,1.220822404667350897e-01,6.467744622914703978e-01,-5.457975164163307857e-01,-8.394754110203292985e-01,7.749653934691270729e-01,5.948016738371717516e-01,-4.307070293104955927e-01,-1.196797307427227341e+00,-5.657061062345567493e-01,5.007223539444193294e-01,-6.147157200272740374e-01,-8.515842604187443543e-01,-1.545823608953228179e-01,1.292636719117862487e+00,8.566343838987851549e-04,-1.096843650229732514e+00,-1.492985435664383465e+00,-1.469271553035650824e+00,-8.574948667761888021e-01,-1.774512952918915476e-01,-1.917327655376568796e+00,-5.899038819270627787e-01,-1.450547800991423664e+00,-8.175138357631798192e-01,-7.918750313502058435e-02,-1.016634899091926281e+00,-2.505479520741145660e-01,-6.341588235761189685e-01,-4.122530834295744517e-01,-9.942077520808286772e-01,-5.655095265708945940e-01,-5.247520635512619158e-01,8.921621083873823022e-01,-1.084974543385556878e+00,9.941518184825552940e-01,1.789388999964150184e-01,6.835256742746620429e-01,-4.987450613488226409e-02,1.026548503025600301e+00,4.530147633809455954e-01,-5.461096663953369790e-01,-4.744361398086629489e-01,3.924570880852261412e-02,1.957571926980460064e-02,4.734270756814971670e-01,3.280838651051558308e-02,-3.928659602333409717e-01,-7.772885779691940389e-01,-1.032183849592687164e+00,1.163341044306478722e-01,-1.082004983326812608e+00,-6.924978354697064464e-01,7.179337775505465480e-01,-1.818957728746780189e+00
2.152643054656020905e+00,1.515667395369409975e+00,2.521265736448562444e-01,1.160005100757874663e+00,1.490406664377774248e+00,-8.672536785475161158e-01,-3.188601491044317005e+00,5.561917993169932517e-01,-1.304900522204220259e+00,2.016071785950301898e+00,8.100726247408606140e-01,1.527947602938925398e+00,1.493200871255693896e+00,-4.572215529367448794e-01,1.547257387105664073e+00,2.939112405324806887e-01,4.613661303545306125e-01,-2.191240808649292937e-01,1.167212737347943091e-01,5.465187637969936008e-01,-5.999821813138076498e-01,-1.305823968012223002e-01,-6.104737029697538953e-01,4.903539481709787151e-01,1.116753581505431026e+00,-5.435980607083786831e-01,-6.742160034651367706e-02,2.123999125647822173e-01,-2.696630253112099473e-01,1.058048643409911671e+00,-2.466471215302511524e-02,4.988940673721122820e-01,2.060094209705214396e+00,-8.669793874771377640e-01,-2.894114723142493517e-01,-6.051011462094129101e-01,-9.950472741160820353e-03,-1.874571337734037002e-01,2.139472616709039432e-01,-9.557667485759395731e-01,6.797270407418863625e-02,-7.566136451268143936e-01,1.057865891564995886e+00,-1.490665579779063277e-01,5.434119647798620750e-02,-5.709794158935507236e-01,4.799214721087451951e-01,1.997746291193603474e+00,-8.112121692539998596e-01,-4.345008162401550744e-01,1.004255190767667560e+00,3.328446719830602807e-01,-1.474821840586473531e-01,2.663726661945962082e-01,2.216109726961986492e+00,-7.266526916979747508e-01,-6.593570602131478831e-01,4.948895628664934931e-01,-8.275428483999573981e-01,-6.289359044313789227e-01,-1.684528200590928726e-01,1.112478980281855323e+00,-2.126812014460345290e-01,-7.257572288782291325e-01
-2.588049582440734575e-01,2.304816169495912392e-01,-8.853279593594761687e-01,-1.206940750377318017e-01,5.912132951656476898e-01,2.670277709835296331e+00,2.568753629241973258e-01,7.988278583774540698e-01,-9.998127473080978822e-01,-1.723982190180106955e-01,-1.517355523702157205e+00,-5.498824264161467079e-01,2.870780382338768422e-01,1.494798149557359512e-01,1.451178759516126293e-01,3.775541863735296100e-01,3.470540555421318674e-01,7.360209866644145116e-01,8.777864065960128137e-01,-8.208123490425507374e-01,2.053582317590892936e-01,2.019296267664094646e+00,9.723151649176046130e-01,3.408563899731686386e-01,4.971019041215791745e-01,8.745267132864331661e-02,8.339892465559284318e-02,-1.461108190534334383e+00,-3.054166205932315470e-01,-2.338798268538279934e-01,2.760391487369478480e-01,1.749465434279871001e-01,-1.161927037092541221e-01,1.241838433617978410e+00,1.556485780975386035e+00,2.599122013807113163e+00,-1.039461695793114648e+00,2.184858868644107943e+00,1.758776813540698480e+00,-3.869820825049323232e-01,2.810421581407346103e+00,6.224642013674365204e-01,-3.175783596984002033e-01,1.684191097300538273e-02,5.242022968683427431e-01,-6.323599458558434305e-01,-1.012088553180984007e+00,4.603937740416796376e-01,-5.219308332332579514e-01,9.460145846300108685e-01,-1.005515785649311461e-01,4.369966495206462631e-01,-9.996064736367518133e-01,-5.866463716412129159e-01,-6.013369279504388043e-01,-1.192036511822406331e+00,-5.118363867293481695e-01,1.446487551621902679e+00,-9.917238459642302439e-01,-1.347482720622058983e+00,-8.563646609931804266e-01,-2.951068321531844299e-02,-1.283189474424416332e+00,-1.779594865908973089e+00
-1.880649695495600071e-01,4.336436842600506769e-01,6.220264902403854768e-01,7.908691286510842744e-01,-5.858808341763480643e-01,-2.572360025656010407e+00,6.257345929574908983e-01,-2.789257681286949064e-01,-1.342045047062284446e+00,-1.494131821682127770e+00,2.513371553035478323e-01,-7.298731474818532794e-01,-2.446749850376401525e-01,1.000277908203228705e+00,2.217508663263061675e-01,-4.993935336016150917e-01,-1.443327492730114070e+00,-1.426155373150644667e+00,4.136692492000221821e-01,5.160094021948705700e-01,7.102835996376009042e-01,4.900435993664478129e-01,-7.966770894869803499e-01,9.879291195622634802e-01,3.493001174013499743e-01,-7.148720316239124406e-01,-1.865573857410519343e-01,1.501841789130611317e-02,4.431503790773772544e-01,-7.467036708614863683e-01,-9.789401455337801705e-01,-4.238986892697967357e-01,4.554328243723951286e-01,-5.578839556045850356e-01,2.549482396151724894e-01,4.380785465202544082e-01,5.067149749692301253e-01,1.324018818819956422e+00,8.897229540906976819e-01,-7.348730106986545163e-01,-3.767284506378433817e-01,2.365377509593494798e-01,-2.059292815214519290e-01,-2.226310402918214582e+00,2.240070394333836812e-01,-7.546142519785464797e-01,5.074380344409158416e-01,1.946364132761177146e+00,9.294966659662865505e-01,-8.476516792688839619e-01,-1.332836009915543629e+00,-3.687019479703854130e-02,-6.696914848656804198e-01,-3.975461865924292404e-01,2.156573699680506828e-01,-1.504325565394500241e+00,-6.523501901292000360e-01,-2.750867497098801948e-02,-5.048595368099587644e-01,2.702652389009444975e-02,4.404396622369239900e-01,-1.209463880004666647e+00,-5.595533701979619190e-01,-1.185555420574921082e-01
-1.183384113083628675e+00,3.687481702185839705e-01,1.774909081314353099e+00,-4.204058298075968869e-01,3.888629995438162568e-01,3.884783786192282928e-01,5.942397007099650130e-01,-1.847329742511026662e+00,1.513551741230967584e+00,9.699460757143958389e-01,-1.707334147101572108e-01,2.674704000239385704e-01,-2.804904629642726022e-01,1.048630050253409607e+00,2.399139074418363549e-01,7.707969401980906410e-01,-9.492748125693674724e-03,-2.563538604797580778e+00,1.467561146704519981e+00,-1.587862978762370370e+00,-7.464723325530960851e-01,-4.567785987428390482e-01,2.632450629607909209e-01,-9.162220529207061315e-01,2.045169231029037249e+00,-1.566458904817503162e-01,-5.068001663789633016e-01,-2.075918822985234613e-01,-5.173465046435398174e-01,8.846124879217275305e-01,1.447138338166238825e+00,6.114809966270015051e-01,-3.384893151654687626e-01,-9.035817144582529714e-01,7.880098326725712976e-01,-9.151292009539754302e-01,1.051731061078531093e+00,6.170289244689095703e-02,-1.179958630538512770e-01,-4.112646563909201913e-01,6.190468900075235537e-01,-5.960369549872845951e-01,-4.192155863456235032e-01,-7.988052283364184269e-01,-6.990927327262437263e-01,-6.916514300456346742e-01,1.220707660637060599e+00,-5.606784141642608965e-01,1.059331589910385008e+00,4.360405660173393150e-01,9.670489409530970137e-01,-2.684922495625434724e-01,1.075370096893141225e+00,1.151724921097905918e+00,6.946877646847493537e-01,-1.520786145222751351e+00,-7.101859071684378799e-01,5.715603689206206761e-01,1.046098724196106389e+00,5.401265922952870335e-01,-1.008709031206719287e+00,6.894911497970077630e-01,-2.281115315612896932e+00,-1.070307665037182332e+00
2.648968684577765131e+00,-6.507676659127948904e-01,2.838863087824234910e+00,9.216330892827481747e-02,3.458621285617918262e-01,8.860423009598480393e-01,3.665306492520588599e-01,4.106101091595407704e-01,1.160377419535441490e+00,-1.889583497197276030e+00,-1.170335871505561176e+00,-3.126915845017700368e-01,-6.223202529876715738e-01,-2.445304853283969959e-01,-6.106374371246646726e-01,1.016566757131159626e+00,-3.085822585565347054e-01,1.215660766428084405e-01,1.926575082589975230e-01,1.301678567078233373e+00,1.105872634748707783e+00,1.016950272562651580e+00,-9.349805021989042730e-01,1.417157513680708858e+00,-1.288240834176305860e+00,-7.478301249354243341e-01,-5.452223703981073921e-01,-2.630306988873090113e-01,-3.705383855820845729e-01,9.351416356603992064e-01,6.586724012106716097e-01,-1.137504044714696905e+00,-3.588303162608967867e-01,-1.179987077670401341e+00,-6.967914860175830061e-01,2.223623349984270581e-01,4.432471140697382128e-01,7.757494034718835918e-01,-4.764866790384481021e-01,1.212313316652225081e+00,-2.223803711455059950e+00,-4.053282031475721747e-01,3.384831866749677953e-01,3.283630290975181887e-01,2.717758513675729293e-01,-1.485008947514175004e+00,-1.107012334101257434e+00,5.718771070144955671e-01,-1.020199760900723618e+00,2.312622969801027273e-01,-8.485339900859171225e-01,-3.307962839425065416e-01,9.982496842705976814e-01,-4.444493131487811666e-01,-1.469622644511949572e+00,7.693227330708725109e-01,-5.688744906457713357e-01,-1.960081247403629101e+00,-2.884338815843233705e-01,2.414771244391982208e+00,-1.469543108286171407e+00,5.890418821122048731e-01,3.309876075177939359e-02,-6.520146645326572177e-01
7.358857982530665476e-01,-5.440428774683552238e-01,8.373626695646386731e-01,5.623124747660954714e-01,-4.906161016227080229e-01,1.103680994254128578e+00,5.492797385607148808e-01,-1.405468133646198270e+00,8.415433339069459118e-01,-1.149892786344373086e-01,2.275258989078327687e+00,1.345146169568328665e+00,-1.375747930233837679e-01,7.196460334853500562e-01,-1.811595939091017460e-01,5.879041278034703444e-01,3.876671644374574122e-01,4.969467757046149292e-01,-6.317428193920792134e-01,2.487748269299502879e-01,6.837259906551931277e-01,-4.144475639610890050e-01,-7.339884707502226657e-01,2.034232294729688417e-01,-4.534001162327241374e-01,-1.539571106136065071e+00,-2.373071964398757172e-01,-1.355511870975577571e-01,3.303567651284086693e-01,9.795109900117147106e-01,9.815281991781360516e-02,6.786985145607283831e-01,-2.430775151439746595e-01,1.137402991782573869e+00,1.600094668007264964e+00,-3.400437141280762687e-01,-4.691598007476813770e-01,-2.234218174220035547e+00,-8.985820853399500985e-01,1.308924852117092197e+00,-1.214805497990682159e+00,1.550520997948016788e+00,1.020435603416958603e+00,1.840013104325577409e+00,1.352405508408323298e+00,1.269075180001116854e+00,8.240454657440073882e-01,4.908320540898077344e-01,-3.116981231863873991e-01,2.090655200080943910e-01,1.535563667840731616e+00,-1.115871140832578989e+00,3.494397063371821321e-01,-1.120826715358502090e+00,-1.728394501856234333e+00,-2.176200368832835519e+00,5.916444746384540432e-01,-1.270296334387703396e+00,2.804859595179973741e-01,6.642831176115774339e-01,-1.107625094320601744e-01,-2.405019558124183582e-02,2.668732137893885081e+00,-4.237570626036023524e-01
1.628861415640528443e-01,7.028483063311725676e-01,-4.820947203115520385e-01,-1.549660103461904415e+00,1.070395949874434427e+00,-3.821729393347181314e-02,-1.089461082225460453e+00,-8.218964667200252538e-01,1.548353157039286554e+00,1.527399723158223477e+00,-5.498910282062731136e-01,-3.278725753739240162e-02,3.678240865830855189e-01,-1.127907558045599723e+00,-4.529830208611124176e-01,1.422733476688323506e+00,1.227014301809953523e+00,7.357620783902050210e-01,7.615318717683531302e-01,-5.137619756183684494e-01,-9.023837356677276433e-02,-1.200127609589305006e-01,2.382429674210202741e-01,-1.326531505187434901e+00,-6.334190709713931611e-01,-2.878552313709230037e-01,-1.384916081193205417e-01,-8.516905378079768774e-01,4.672257854031546254e-01,6.101823706466170671e-01,-7.863688484230763054e-01,-1.771451617686689461e+00,7.010036961944804412e-01,5.216821521832727404e-01,-1.445417435972959075e-01,2.841463804430864326e-01,4.776928644951904945e-01,-3.847778638314138799e-01,1.703014963414214877e+00,5.267154287206036178e-01,-1.522186812242865450e+00,7.314750847263805644e-01,-8.773927058102879428e-01,-3.034571325775879957e-01,5.801007141945734302e-01,-1.212818909143284635e-01,6.764377656723996601e-01,-8.476833839825664851e-01,-7.663348014859829860e-01,-3.213358484086017292e-02,-3.284624675011912909e-01,-7.749795107835958374e-01,1.561278983537085274e+00,-2.453442392139607575e-01,7.353556706341252136e-01,-4.669974908393938473e-01,-1.273926395212703122e+00,1.414642762460837311e+00,1.581136254657886431e+00,-1.790878430388775255e+00,8.348528597327882494e-02,8.963581421216315626e-01,5.856112490300834361e-01,-1.560426916490167626e+00
-2.062232564501598475e-01,-8.701226931936862918e-01,2.812358238308579228e+00,-9.295036990785864317e-01,-1.850089016726110536e-01,1.627578997089868806e-01,-3.476021620399389334e-01,1.869648693170611997e+00,1.938911601312997890e+00,6.019790265535347462e-01,1.198849459568345210e+00,-6.842199540964412074e-01,3.247512508484350358e-01,1.080015510319281669e+00,-1.285146707847468317e+00,9.515041095342106070e-01,8.694727341873309534e-01,-1.119019483475509835e+00,9.042166703187111132e-01,1.878918728275323691e+00,-3.699747032257874602e-01,-8.414770702845709716e-01,1.157931658160116895e+00,1.502113949982460284e+00,1.171783953378283005e+00,-1.699394283890668156e+00,7.489437723026475258e-01,2.601983041158280052e+00,-4.223772174089233111e-01,-4.747150378095114642e-01,6.078473150926957391e-01,-1.407088027724504808e+00,9.387268801829595777e-01,7.748887768118437602e-01,1.685889679048391043e+00,-4.704346724272875230e-02,2.039584153670760125e-01,1.264693682781223405e+00,1.666480958963099779e+00,5.940070932123691499e-02,6.382323032594378054e-01,8.042257179898081310e-01,1.188477072744722918e+00,2.276807613972683608e+00,3.350050706765713565e-02,3.706804127566051266e-01,8.986230840791183949e-01,3.533467422599881336e-01,-2.715889527438233753e+00,1.038209291847489668e+00,-4.670902877320428637e-01,1.021895833757199057e+00,7.333328816720416921e-01,-9.032925595315496325e-01,-1.815647560483094392e+00,2.469950101595389302e+00,-1.002077062722736889e+00,-7.680099300021157038e-01,4.416037473045547057e-01,-8.253378632872315768e-01,3.863082449432394538e-01,7.363302893687992956e-01,-9.227263576016287994e-01,-1.295813129002367114e+00
-9.810056334815697721e-02,2.502957271271765149e-01,-2.154890738455392252e-01,-3.235998370892527176e-01,7.545751155820786815e-01,1.529476006013827272e+00,-1.447292654255346811e+00,-9.065308977344180286e-02,-6.884304212366220144e-01,-3.496313002078515475e-01,6.248695761417271122e-01,-1.920158719461756869e+00,-9.484264342349857380e-01,-3.827614875360381141e-01,1.279978643744909828e-01,5.952512634799802527e-01,9.865603721736290188e-01,-7.484295103833346063e-01,3.818936985642372717e-01,-8.707375853466068349e-01,1.556219928973537669e+00,-3.401676529144743721e-01,5.119047084171739481e-01,5.385103358601748269e-01,2.048452362700405038e-01,-7.949930529405723201e-01,5.832193512639249899e-01,1.968101359506983505e-01,3.701325072633515068e-01,-2.060171202752437924e+00,-1.517722352408391373e+00,-1.610350181396823732e+00,8.600743310613381265e-01,6.866813025296125694e-01,-1.268244758008015838e-01,3.876828055067109147e-01,-6.374037885981257423e-01,-1.250090626343060229e+00,7.616303047474692889e-02,-1.709455683955572389e-02,5.395239031836243093e-01,-1.355383537509331493e+00,1.542715540949753272e+00,9.849887065785137841e-01,-6.723270810422223853e-01,2.379821941972230237e-01,5.811382535203265531e-01,6.812512975603206566e-01,3.762225697259519164e-01,-1.104961599125641250e-02,2.551983705093536225e-01,-7.900803310971252769e-01,-6.291673957475591994e-01,-6.231932473206851508e-01,7.565323016014007251e-01,6.842675897120169548e-01,-1.455280590870588364e+00,-5.857795137976254951e-01,2.389204329983613539e-01,-1.167992890335780576e+00,-9.882657220620846283e-01,9.911115375620542789e-01,2.648285822466757145e-01,2.215920746422913312e-01
1.477247237103749944e+00,1.521892613814028516e+00,4.522665281881982913e-01,-6.723998034197558038e-01,-6.439715505736192114e-01,2.467440691015754806e-01,-4.852486677086424449e-01,7.480455366142172435e-01,-2.610191003214276106e-01,-1.005780358205322855e+00,8.018591274184041495e-01,-6.844094105843873121e-02,-1.177548647966870865e+00,-1.467417842237100700e+00,1.445466705038795041e+00,-9.265263434299112477e-01,1.097851553590820650e+00,-6.803185540676705001e-01,1.322403627939890969e-01,-4.771489881391428600e-01,8.450243447239313976e-01,5.170860972863693394e-01,9.284341407504330679e-01,1.845920695215661045e+00,-5.635929407032537197e-01,2.387862867900207409e+00,1.259399782398282097e+00,2.517510030390036402e+00,6.776022954078607663e-01,-1.085436417867561426e-01,3.788348762618469756e-01,-2.062823089750144501e+00,-4.506533804230341000e-01,-8.219596110555273949e-01,-2.718819918149569581e+00,-1.059518502822925479e+00,1.133949598967897598e+00,-1.892820428771571084e+00,1.138588548986384064e+00,1.293383547834871417e+00,1.387904517252556591e+00,-1.125430001063488117e+00,-6.420424296791817920e-01,1.830158136948150549e+00,5.547581107190562300e-01,1.049051056376740787e+00,1.407702994290644272e+00,-5.662973726382268813e-01,-8.401872472233330447e-01,1.556665694556157442e+00,-1.482764070126405542e+00,3.216632171082538516e-01,-7.413351022361367448e-01,-6.165450468690889529e-01,6.768198592917801237e-01,1.120492347764362018e+00,-7.315157107981322682e-01,2.216807404726694131e+00,6.935492075093138142e-01,-3.196730512190984475e-01,5.978206172534362706e-01,9.751873163777958764e-01,6.947317214160224630e-01,6.015077751919034599e-01
-2.520386773167333505e+00,-1.427159445752477496e-01,-9.790890642794727872e-02,-7.024054390649360213e-01,-1.047799954810187506e+00,4.003669434099888513e-01,1.726992602347036387e-01,7.233298483413049818e-01,-1.927922317806704422e+00,-1.188529535003164606e+00,2.837383683531334577e-02,-5.300310559191359072e-01,7.375296815909268000e-01,2.268836729805244090e+00,2.241611482465906968e-01,-6.390728742553839492e-01,9.995731991180195619e-01,2.146605776992635661e+00,-7.335037166785476348e-01,8.807596215633008985e-01,5.188245527321611039e-01,8.916377257898497888e-01,4.297733620973687857e-02,2.659884348764399942e+00,-1.209666633224538712e+00,6.861086039377352064e-01,1.643672356646148358e-01,-1.315491354417091863e+00,2.695040622429443200e-01,7.985137787598056702e-01,6.483907227321313860e-01,-2.294971760745160849e-01,8.791276660092304240e-01,2.663583367503697952e-01,2.457417693455551388e-01,-1.293051889074226413e+00,1.306030997004953953e+00,-5.993472742626994032e-01,6.079400890364560217e-01,4.234036629964667980e-02,5.116100729678052517e-01,4.032447561696656663e-02,4.978056021425974476e-01,-1.260276877131667916e+00,-9.507788997350987703e-01,-3.096452143184237338e-01,3.485071459031758440e-02,1.077934633913567586e+00,-6.124915766118356197e-01,3.702340477484889480e-01,4.269107894797051217e-01,1.354934101533143753e+00,-8.396499256363323949e-02,-7.705714665671033192e-02,2.642335412054127031e-01,7.344359050591182658e-01,-9.916865628302745650e-02,-4.089407458478672153e-01,9.608983162929667365e-01,-1.367756076780170527e-01,-2.364165222168004288e+00,9.619921867750450550e-01,-5.184696326999724825e-01,1.330905990594528188e+00
5.280256153081915871e-01,-7.878725868016062117e-02,-1.952061593406897444e+00,-2.398539406275197461e+00,1.753120968973793214e+00,-3.719032119861345742e-01,9.369122246398579046e-01,1.436613325309992417e+00,3.673662684796007993e-01,1.087408057127724925e+00,-8.095891335944317424e-01,6.312610486549017352e-01,6.751635275836589400e-01,7.792163335582077410e-01,-6.526206639818963318e-01,1.281552375413673728e-01,-2.923345771133858961e-01,5.620393227876158138e-01,-1.085069487088219597e+00,2.707977310233743440e-01,2.440279012087757660e-01,1.325449773403887921e+00,2.280272987306570034e-02,3.096237653458965289e-01,1.214500684160608746e-01,-7.613693028500824189e-01,1.076028166024236343e+00,-2.070351712250865506e-01,1.176085801733351310e+00,5.623169288618189432e-01,-3.441210379705342159e+00,-1.093178657976197510e+00,7.077320399008731888e-01,-3.989428742551925366e-01,-7.349792280504540143e-01,-1.948143585501568520e+00,-1.229730592994104643e-01,1.784575945514671746e-01,-1.765367509673349877e+00,-9.370238990256674061e-01,-4.103084869471066987e-01,7.038836882683414675e-01,1.026252848065869028e+00,-1.046460735596105085e+00,4.917362069668193003e-01,-6.348205866795461061e-01,2.420753159995545634e-01,-6.095957649169753134e-01,1.138093671899621795e-01,1.716305710748244673e+00,-1.072564145020054038e+00,-3.736099210092965195e-01,-1.393537265372164935e+00,2.310383144131714861e+00,-9.700722712147979987e-01,-1.630569415156099822e-01,-4.261872623856685083e-01,5.427074215957646830e-01,7.233852391633981416e-01,-1.028815999395825243e+00,5.437778653605495061e-01,6.967601657555708705e-01,5.596511433772591859e-01,-2.702087327307024431e-02
2.477804752416027156e+00,8.808839309558025299e-01,4.322610755938702254e-02,-1.157232737676811007e+00,-7.782054117292970252e-01,-3.315755515525642960e-01,6.059284527283594901e-01,5.849781318073451475e-01,1.020467725898847045e+00,-1.847182209849998369e+00,-6.664012514929137376e-01,-7.136384366209621577e-01,-2.210921009114899805e-01,6.185324760132276944e-01,1.560126467148520435e+00,3.296315420703820886e-01,-1.319688317080016660e+00,-7.361602987465128145e-02,-1.517184359314300401e+00,5.811062278130614267e-01,-4.157916772787273452e-01,5.811521326171885660e-01,-1.549006095714178910e+00,-7.235311366261018562e-02,5.800506941999465926e-01,-9.048890167762045911e-01,-1.123534057535545416e-02,-9.424549268305787431e-01,4.583438542109221497e-02,1.532725794358395233e-01,1.688244104371281473e-01,-2.797399532550878254e-01,-5.979534505787674759e-01,6.211959639750559425e-01,-3.200617012098488229e-02,-2.262024997959565520e-01,-1.942016420435845880e+00,3.521032156625312770e-01,-1.245509496725573317e+00,2.337914928228040368e-01,2.489082066592232523e-01,2.988356779981637956e-01,1.972137685770448123e-01,8.051182755000565461e-01,7.680561739336306815e-01,1.011655261293070929e+00,-1.549052957597354840e+00,-1.651117836345908016e-02,-1.184292000864262118e+00,1.578812509643048756e+00,-2.432878453702745081e-01,-1.439421539363364033e+00,7.019428722437806023e-01,1.084994356790057957e+00,-9.138693746022689135e-01,-8.085220808538532422e-01,1.002015248139931369e+00,-7.082166275968543312e-01,1.163955390349926582e-03,1.570083172595972298e+00,-6.247484235622778603e-02,-8.263840536380567814e-02,-3.928949267349423624e-01,-1.995925868182392426e-01
-1.403680383766261031e+00,2.651789708133110626e-03,-1.159299203824138758e+00,2.264896911700911009e+00,-1.342438033403212216e+00,1.126722847784586534e+00,1.006107655898053288e+00,4.498132662101973489e-01,-5.814184820429505463e-01,2.216344771790230261e+00,-1.528657393407902576e-01,-2.128091949216660561e-01,-1.218489034943761595e+00,-1.610382499795831146e+00,9.628587821151753934e-01,8.939632627223168537e-01,-5.926756087541713569e-01,1.077417319230614678e+00,6.090542628986109763e-01,-3.644720688346995141e-01,-2.983933152948646805e-01,2.788582759185928572e-01,7.441252010239365333e-01,8.775051366886849058e-01,-8.045329817160845609e-01,-6.082380764154916575e-01,1.884086277589874792e+00,1.738861421353858461e+00,6.592051542773981199e-01,-1.507762410547865972e-01,-7.025307762755498286e-01,-1.023855083545201161e+00,-5.717279058407023218e-01,-1.917315317123964968e+00,1.002077764540697524e+00,1.035378037562588283e+00,-3.426730327794448305e-01,7.102613072681576156e-01,-6.633350586468881316e-01,-1.790201740061672986e+00,2.145110118982093805e+00,-4.206688711176245765e-01,3.030606335835487816e-02,-2.486424478360381163e-01,-5.874476070368841452e-01,2.031878963896522006e+00,-2.147921708598053425e-01,4.029347482481916431e-01,1.285448867360857936e-02,7.247445018327496324e-01,-6.351121358830505992e-01,2.614424985953858638e+00,4.089007076860004530e-01,1.580444061880837525e+00,-1.437179517566721687e+00,3.714043719581545944e-02,1.401487237935617747e-01,-6.208075954987078982e-01,-1.908991329173201912e+00,-2.172979992198200705e+00,2.855390491311782242e-01,-1.412052670361634010e-01,-7.486335854316859828e-02,1.661790815695977530e+00
