-1.253655092405741023e+00,7.106238014944885606e-01,2.190344254878017205e-01,4.451050749073631185e-01,-1.064270404733539954e-01,1.142705484249004977e+00,3.077521519053174059e-01,-2.229010316877125530e-01,-9.887425196912593695e-01,-1.172528158616374050e+00,-1.308598309283222905e-01,6.387746838378430825e-01,3.455193154840392467e-01,1.396298396776394779e-01,6.971708799590493610e-01,-3.768800070587282613e-01,8.606635927487166215e-01,-1.583569442481185030e+00,6.814478054657004957e-01,4.275817729490775654e-01,-6.204122107170892964e-01,7.392355217808306289e-01,-7.538664883909836911e-01,4.386129346913794635e-01,1.030488248086882219e+00,-5.014688454825365627e-01,-1.023460671345789885e+00,-5.764268882453895682e-01,-2.204998657631249692e+00,9.348425164721834157e-01,-6.930833315323191579e-01,-5.342974925133848751e-01
7.112987876386817065e-01,-2.906665521906407479e-01,-1.204910453946511195e+00,7.053525260457730317e-01,1.228205573447863352e-01,-2.066768264952410505e-01,3.802250609240156454e-01,9.555841122922458242e-01,-9.044327153595141389e-02,9.000223691553346228e-01,-2.113492643674301230e-01,4.127882875642578386e-01,-4.052032799223723725e-01,-4.832543662211311042e-01,1.240836772986680270e+00,3.349973893701038152e-01,5.999773204237426327e-01,-1.611720749291291277e+00,-2.635286413840634001e-01,-7.975470373069335484e-01,5.310726849862510424e-01,1.024568091626139044e+00,3.767977227590296740e-01,-3.864252241284003020e-01,9.828740666103294998e-01,-1.173142192722922278e-01,1.059749411853723178e+00,-6.595443197738264374e-01,-7.512861550356323415e-01,-3.106121799334589650e-01,-2.675491619709717828e-01,8.970640639045850129e-02
8.982084497557395464e-01,1.359051008606168010e+00,-1.224053413508091381e+00,-1.798488124108994501e+00,-8.459181238051360907e-01,7.498312252267984590e-01,3.206366112816598224e-01,2.311879769947815522e-01,-1.947374642522303523e+00,-2.359486214266695858e-01,-1.754952610325997142e-01,-3.832925756362432490e-01,5.291753234125897709e-01,7.808430028533062117e-01,1.791497111011841059e-01,-1.262542772964990734e-01,4.795323809998910392e-01,1.239507259661582372e+00,1.226593843156694869e-01,2.087620126767530393e-01,1.497709871550982452e+00,-7.879490180245611874e-01,-1.985732395448910559e+00,2.615595591568704026e-01,4.555621375297711495e-01,-3.190089998269513005e-01,-9.966520838980892361e-01,1.740650312675430522e-01,-1.775991801771036549e+00,8.363010628683404946e-01,-3.470129724233776414e-01,3.967147982120292071e-01
4.643903959891924060e-01,-2.294343409664206523e-01,8.106805476431463431e-01,-6.737981539271118425e-01,2.623533193030202160e+00,-1.746964050293103310e-01,-1.003255892933768934e+00,1.213423593098506698e-01,-1.635108531381947727e-01,-4.917771644220071403e-01,-7.841776213899479542e-01,-2.007655815390501086e+00,1.940620419180646650e+00,-4.023010076411608349e-01,-1.038842958987494125e+00,-1.920300043912537002e-01,-1.244377342978493006e+00,-9.900778151533730087e-01,-5.270501521651604904e-02,-4.743758954900264418e-02,3.033288202051022120e-01,-1.084733463549378274e-01,1.591415534213002914e-01,-3.687661064524702104e-01,2.703043282390352187e-02,-4.167374292864237800e-02,-7.624355525125275923e-02,4.929881626714491261e-01,-2.058073470337674904e-01,-1.379325019935012220e+00,7.965754201887467190e-01,-2.321442496829217994e+00
9.278848846184487575e-01,6.954769423943351070e-01,6.727645216326386679e-01,1.209333375218785145e+00,2.645276421327800720e-01,3.570564723908665333e-02,-3.699736866567583937e-01,-8.702084873647799590e-01,-2.558542735525593526e-01,-6.384570392019427165e-02,-1.464900590610930919e+00,-1.805954866481670473e+00,-4.727281897224411278e-01,-4.060927540038993810e-01,-1.751688807359436550e+00,1.345788484692347131e+00,1.263841176824650914e+00,1.681096481048002245e+00,1.369121297084982869e+00,-2.352488304128385277e+00,2.604479366477427948e-01,-2.686241619336384168e-01,-3.230597372901182762e-01,4.655866113647586513e-01,-2.301655838216231764e+00,5.546368505084237066e-01,-1.052718299578249361e+00,1.734258732800159630e-01,6.211501656807308924e-01,-7.298199090530254063e-01,-4.864609814162902945e-01,-4.618884553333731935e-01
-6.559137801624010944e-01,-4.250159036329677065e-01,-9.422304215815056894e-02,-2.468102691819957339e+00,-9.443288186143521112e-02,-1.986038025885599634e+00,-1.313441339736296065e+00,-4.411564923285746925e-02,-4.131751314470099024e-01,5.783791039227323405e-02,-1.911173270174638228e+00,-2.770245114088474847e-01,-7.525693184279347303e-01,2.116528105163053564e+00,1.387595739165010666e+00,1.113863775655803856e+00,2.568224019656581536e+00,-1.344188582237062723e+00,-4.400304361200754744e-01,-6.549497880063152866e-02,8.243695376066180192e-01,-2.198870785325700794e+00,2.416970331594383570e+00,-1.641204250046226054e+00,3.656173852371644717e-01,-2.146871306992963024e+00,-9.963780759038328716e-01,-3.079700822139103678e-01,-1.093514432322411523e+00,-8.008856108105324445e-01,5.900790952649064280e-01,-5.706290147489041509e-01
4.059589429786327197e-01,4.730764534136644439e-01,3.221598478505666163e-01,-7.342157913547209258e-02,9.702452602273982096e-01,3.492538851390390442e-01,2.179741570910228299e-01,9.340965429504883843e-01,2.597671688623940378e-01,1.043127352001859798e+00,1.909467450998574012e-01,9.527669767234374643e-01,-3.120685343760902786e-01,8.694258755591576238e-01,-1.343990044367662007e+00,1.416754510662809441e+00,1.833899558230546109e-02,1.234525065495382795e-01,-1.737772647970546425e+00,-1.548636952900685759e-01,-1.299018313225895449e+00,4.688985170541254965e-01,-1.644569551129779761e-01,-6.190141322297875170e-01,-7.502164019313000143e-01,3.632227721563124900e-01,2.306671090121120704e-01,-1.233865616093144713e+00,-1.058800851314587593e-01,2.702089889315789639e-01,6.186126198675650362e-02,1.860139666277434323e+00
-5.299417691553827137e-01,-6.681831700035458788e-01,7.491620572858409544e-01,1.698152358007712248e+00,-6.719363311941094485e-01,-5.840110416954102934e-01,-1.087833096205023942e-01,-5.090949264039882349e-01,7.700718492731246922e-02,2.900320585333630685e+00,-1.708119410950528216e+00,1.822960070373947028e+00,2.002112880068131484e-01,2.184886779942683543e-01,6.892313157177425154e-02,-1.392833264351225342e+00,-1.515638357142661485e+00,3.616135864361581520e-01,7.917490488147568284e-01,-1.077000130153819235e+00,-4.522642865521243061e-01,-1.184631885470220469e+00,4.681117693629250481e-02,-1.622911362481775921e+00,-1.780670165648498449e+00,-2.370049938782889387e-01,-1.509952584875996207e-01,-1.040347305156011704e+00,-1.134774429712537502e+00,-1.766443759276133063e+00,-3.408633163950582912e-01,-1.728742261943597494e-02
5.247517590725921943e-01,-1.195976023437437252e+00,-2.863135480925424470e-01,8.058588994580553333e-01,2.873321554241924924e-01,-1.302217750192935064e+00,-1.302163707921841329e+00,5.254441713383061208e-01,-5.936218496460508032e-01,-5.324463599067964514e-01,3.312690544798659320e-01,3.345732233984363008e-02,2.212682339543798005e+00,-1.264027367880870223e+00,2.458752502837390636e-02,-1.153660333971056329e-01,-4.311180588624170529e-01,-6.789772003391900679e-01,1.474456836198584364e-01,3.725190842376924910e-03,1.555398433123076130e+00,-7.924649125826477292e-01,-5.687410723656859401e-01,1.333074208997898413e+00,2.129627894750512618e-01,-1.148903798303804402e+00,1.148996768622419368e-01,-1.189088337852033606e+00,-1.018948661241254605e+00,-3.678285841005102946e-02,-1.251968564562547126e+00,-1.048253624750960622e+00
1.403280152415578241e+00,-1.950260968958527297e+00,-2.589393154774375927e-01,-1.101965975489572758e+00,5.705856132638146283e-01,-6.854511683768442776e-01,-3.035744572819752407e-01,-1.096508594611295795e+00,-2.595501735672229304e-01,2.422215763314413906e+00,1.433709440499633336e+00,6.790628628085612073e-01,8.791110356533284875e-01,7.117820560906321092e-02,-4.008630410551742851e-01,1.718591266168518095e+00,1.770378058038386548e+00,8.586742214669689233e-01,-1.440059523112668272e+00,-2.507892015445060685e-01,-2.365190658410777080e-01,1.236161928096878304e-01,-1.388892310831628008e+00,1.763157394982024506e+00,-6.282011922638865986e-01,5.099670725711190622e-01,-4.701568237111006937e-02,1.387901059029949646e+00,-1.611185009503783183e+00,6.586842899991397493e-01,1.856793666445042845e+00,-2.096747986004694919e+00
-2.998974608617867577e-01,9.100715958694767238e-01,-8.611330171429421032e-02,2.701245815164320940e-01,3.244592675009327354e-01,6.894902296183623696e-04,8.466683617972506348e-02,-6.999882426057328910e-01,1.358756639378261299e+00,1.146217297604409158e+00,2.704698741672698636e-01,1.142929652081030367e+00,-1.425496076781023191e+00,-1.066401714964626990e+00,-7.474992817065642670e-02,1.102566525870886327e+00,1.263558967298739955e+00,1.646308111033244259e+00,-1.143869407969928531e-01,3.785299261173280527e-02,3.282100236979077490e+00,1.375917468112102471e+00,-1.728068360779611012e+00,-6.928915880941107774e-01,3.053730622658593630e-01,-3.551777339425486457e-01,3.079912025318209401e-01,-1.094043139547481003e+00,-8.839227989571294408e-01,7.294368188734688951e-01,-1.592585143284497851e-01,-5.476813222355655375e-01
1.732386318557107008e-01,9.577158069712779498e-02,-5.518328290896931110e-01,-2.579498711013624490e+00,9.821460599608070607e-01,-7.521730921275462389e-01,-9.534439370177855144e-01,2.268608532113059600e-02,-1.307111924079283227e+00,-1.043013125082104642e+00,3.980435713653602825e-01,-3.031959238761470776e-01,-4.054741605627490419e-01,1.360094302073107941e-01,-1.107403447574039079e+00,-2.382377052195763512e-01,-1.115029826236142441e-01,4.532879485965785049e-01,-2.476093794380335444e-01,5.373730285302886767e-01,6.848501755876788000e-01,5.995083480531866460e-01,-4.952320749289428892e-01,-7.700655002695830920e-01,1.019592781638210544e-01,6.218823788729929136e-01,-1.041911991348318384e-01,3.360152066754607536e-01,-1.043545059448461321e-01,2.530761961905794721e-01,-8.892109909818474156e-01,-4.612435748770884331e-02
6.311332339528835655e-01,1.680374231545287422e+00,-3.138097417968979674e-01,7.368125333544907063e-01,-1.153348434889475138e+00,-7.338219792981883760e-01,-4.285426193748813617e-01,-6.467717405886978799e-02,-1.828505465040103362e+00,-2.236660133187611810e-01,-9.244826136312513931e-01,-7.510048648352919409e-01,1.048363913977533590e-01,1.960803020840828637e-01,2.840954790935585894e+00,9.890725137368479025e-01,9.719144638450180618e-03,1.008355717509857641e+00,-3.456795018844003448e-02,2.582723894219215305e-02,-3.642269170116505528e-01,-1.079186514876818992e-01,1.840666088672911482e-01,4.156000326445245530e-01,1.698808435251488169e-01,-4.603669464428870595e-01,4.806435187952674548e-01,-2.662930207366875912e-01,-1.838350021534091550e+00,1.867299277327960194e+00,1.155182572641980210e+00,3.989109785978103839e-01
-1.142351441739390072e+00,-3.163597651609508232e-01,-3.473091943256192415e-01,-1.710089588910435277e+00,-1.492177821737810106e+00,1.200001356226249039e+00,-1.413828236497583157e+00,-5.287023574946098092e-01,-1.075967966644707063e+00,-7.981077537525751442e-01,-5.378431848707391216e-01,-1.461891259230941431e+00,-2.321951704591172227e-01,1.209435873603016631e+00,1.223922084498445945e-02,-5.238313553243155729e-01,-1.079320426560337332e+00,1.702559670866019781e+00,-1.289283135470494335e+00,3.552756485669461561e-01,7.104712731349996924e-01,6.453388239623700784e-01,-9.590021561416933737e-01,9.383216760705401782e-01,4.084438974939398892e-01,-6.971598435333419275e-01,8.500805279816038285e-01,7.159144905545514193e-02,-1.027803819575036304e+00,-8.828019939658697801e-01,1.873495434231249757e+00,-8.014528221988039824e-01
-9.937418482532860420e-01,1.406855339952056139e-01,-3.262120257449447891e-01,7.338430441045556973e-01,1.620726770687297202e+00,4.207253742542857444e-01,1.071561370898433285e+00,-6.750685025879663570e-01,2.223732797444216036e+00,-1.013298253429779777e-01,-1.022976020114844564e+00,1.563044987565682886e+00,2.201018460778986913e-02,1.536218154446118644e+00,6.104416817874352280e-02,4.764826251706064664e-01,1.668520310622407382e-02,2.906140544757693234e-01,8.189647749100369412e-01,9.822599111630267998e-01,-3.046072369481708786e-01,3.585710409290775447e-01,-1.475876484345795880e+00,2.362144475317045078e-01,-1.463139592431392133e+00,9.701686373473670244e-01,1.477921346205555153e+00,-1.696292041977884191e+00,-2.380095366534590529e+00,-7.636493517080759075e-01,1.230923543255828811e-01,-2.408286068396792434e-01
3.045587181832263846e-01,6.985760152577125126e-02,4.161635560846301679e-02,-3.769856085325417050e-01,3.870901345820849104e-01,2.795077457612045735e-01,1.787708822165658740e+00,-3.979916960444426777e-01,3.427538800377263883e-01,-8.493396399910863037e-01,-3.081158886451328405e-01,-8.946866599067128112e-01,6.547690055406206744e-01,6.326566019666985952e-01,-1.359341873096581166e+00,-2.049504492093248142e+00,5.437016786629004228e-01,-2.971396187652767806e-01,-1.449856496615009593e-01,-4.143569228365773793e-01,-5.295503442981934761e-01,3.446761454633663901e-01,1.730902712620466133e+00,3.320315460400555807e-01,4.262937181668212394e-02,8.280916438850737249e-01,-1.486779619311130896e+00,-1.069333749357829877e+00,1.252808620694911168e+00,-7.884580719021284656e-01,5.264048591998126136e-01,5.786735565596301534e-01
1.140099679993958448e+00,-1.185806295739719463e-01,7.453839190211705157e-01,5.366616029563017198e-01,-2.994631576189893396e-02,-6.066831112949464533e-01,-3.947850658629331044e-01,-3.649950806536411685e-01,-1.118787654384465258e+00,-5.494780455117772577e-01,7.163958500822260184e-03,-1.104010113204106636e-01,1.535621485024128763e+00,-7.941565315512710832e-01,-1.160336198653558887e-01,-5.375208295298021799e-01,1.660289757786159948e+00,-1.999902804889638341e-01,4.349813667886519020e-01,-2.087159004572025633e-01,-2.935721705243045654e-01,7.355593124257756577e-01,-5.130356895597255606e-01,-4.637385973818366480e-01,6.164527027744558518e-01,1.056399630019831670e-01,-7.497409181320064953e-01,1.480714474930495683e+00,1.610739490148159314e+00,5.562973806991607928e-01,1.605315730236811511e+00,-5.871075418683895375e-01
-9.543507407015242583e-01,-2.388818494291819194e-01,-6.039542576315363315e-02,1.744600852104777056e-01,-6.624525860737167093e-01,4.803752898287640960e-01,-2.675064939592425528e+00,1.201217104687474224e+00,-4.809922973899551368e-01,-8.865893081834209655e-01,4.468346975598933568e-01,-4.938211822929262640e-01,4.211802243367726017e-01,3.083986349573358821e-01,-8.726965351271225302e-01,1.030739729393584048e+00,2.067071630007352834e+00,-1.122418030791253241e+00,-1.975257334335538628e+00,-2.652787070837006600e-01,-1.342108242274418772e-01,-1.220020080868169376e+00,-8.403912224942001741e-01,-2.342151222463633164e-01,1.648060529211107017e+00,-1.247408869775533669e+00,-1.334051246551502257e-01,2.312731759015136390e+00,1.697045164433101661e-01,2.136703953432011749e-01,1.537272127841876834e+00,-1.816584177793009625e+00
-4.056506288947577255e-01,-2.916128988317367443e-01,5.498101785679105902e-01,5.489709737827709324e-01,1.383471087789363452e+00,-1.964142627866860114e+00,2.752481800992808217e-02,1.983159444792781612e+00,2.932426212427737822e-01,-7.726210498357040102e-01,-1.141621177343657562e-01,-5.255284733470444447e-01,1.851489428296512196e-01,4.296464942768039585e-01,7.014418282710604968e-01,8.468053187154140904e-01,5.592319554164021204e-04,-2.970965605326330028e-01,6.528961131535898632e-02,-1.566055263092672734e+00,-7.919499626804475667e-02,4.170038712766321876e-01,-1.080920789914491253e+00,-6.593679064036763737e-01,-6.252934191263245234e-01,-6.886526556294977341e-01,-2.842208327072608398e-01,-8.132569072393414089e-01,1.974124903953969334e-01,-2.930538910952522058e-01,2.487124615591659316e-01,-6.239718864883079252e-01
1.887703070189598931e+00,2.615105444419477676e-01,-3.223696990802938922e-01,-9.153701120969517380e-01,8.416124412037888636e-01,2.047341988632518817e+00,-1.541918877197609561e+00,-1.011998585682427398e+00,5.043593364836648080e-02,-3.135238615471375723e-01,2.461805357107312020e-01,-2.714458672240529502e-01,2.698301002454208675e-01,-1.118590216580415575e+00,-1.160745004739940800e+00,1.414925493077115126e+00,-7.363625407642983012e-01,1.695846907770899525e+00,-1.984662138444846236e-01,-1.363348040002963391e+00,1.292341980917966482e-01,-2.101459899444290791e+00,-1.556970541217769233e+00,-9.192981852216617344e-01,8.857366842241410909e-01,8.133630792549892963e-01,-1.960383166113651987e-01,-9.393412006050826102e-02,1.391221002277911900e+00,1.136414809392140901e+00,7.137767651375390709e-01,-3.353345894620196610e-01
-1.060865683091624101e-01,2.979333486547201537e-01,-7.781766408219660258e-01,3.965705575241403325e-01,-2.227715271455922963e+00,-1.424509991709858481e+00,-5.055070501769236557e-01,3.068050850806843255e-01,-3.534913334039121446e-01,1.004794219436487612e+00,-3.401689675318457784e-01,1.098844140457122309e+00,1.531364719396639096e+00,-4.518058140531613920e-01,-1.315050461238996382e+00,-7.957107243184307066e-01,-1.047737100807148991e+00,-8.764835733452821520e-01,2.168571581559131101e+00,-1.311208430052218654e+00,3.261846265065651562e-02,-1.713636672505416125e-01,2.056886057545775082e-01,4.577873038995713961e-01,1.555398065009856667e+00,-4.822995610284731838e-02,2.490323614463647584e-01,-1.743813084129556268e+00,1.633945914952760869e+00,-2.028765425123524868e-01,-2.426666269166910528e-01,-2.467407825668487042e+00
1.685135810255903976e+00,-1.753277588420432798e+00,1.875355691882150608e-02,-1.227766427856077591e+00,-7.405594133224339126e-01,9.408168084025335665e-01,-8.273502039708595657e-01,5.071168473500380358e-01,5.448998228408249433e-01,-1.333077576246112894e+00,1.209840951329223202e+00,5.210318381660449250e-01,-9.574684095223052749e-01,7.146188513468831882e-01,3.824578336375274445e-01,1.869608233721806956e+00,-2.358350827570287189e-01,1.496122319053334815e+00,3.652564080632915711e-01,-6.326986340676800102e-01,-5.895185138109343415e-01,2.049544827212542497e+00,-1.841464196561653166e+00,8.687786494741286392e-01,-1.386095141527756924e+00,-4.700665323186178912e-01,9.572405508345155356e-02,2.091204930362289549e-01,1.154435183476198112e+00,1.459820490098711510e+00,1.425531531390323181e+00,1.311239993055980380e-01
-1.819918694818072058e-01,-5.286691035719233156e-01,1.099325446171614429e+00,4.154280905591896667e-01,8.375199675598604676e-01,-7.782199612471430994e-01,-1.038565617730485391e+00,2.665450941128377771e-02,-7.448825686855732320e-01,1.440898606033910845e+00,4.108369075961872952e-01,-1.207977131618468647e+00,-5.055183233147497734e-01,2.036117669509978842e-02,-1.081088665597390586e+00,-7.744404605503296679e-02,-4.399411098123248015e-02,5.749506102751386072e-01,-1.157819552443775990e+00,-6.751508117133178111e-01,1.811527684407753247e+00,-4.196555989824798383e-01,-4.241435401773860914e-01,3.984454222934084022e-01,-8.023001601916864844e-01,4.738698814086857447e-01,-2.971700211341247733e-01,8.439941330811714382e-01,-1.474738620479313367e+00,2.253733963422077213e+00,-4.989017143836842472e-01,8.728195190218439592e-01
-3.116929178868615979e-01,-4.720018555910920899e-01,1.450811670260684638e-01,7.407082640983199129e-01,-8.893677490497681193e-01,6.132742861934876721e-01,-1.666672906153730427e+00,7.643805962922752828e-01,4.117403056021657903e-01,1.755371043831089217e+00,-2.500634779185794687e-01,-1.284999225913183052e+00,1.423763545722422474e+00,1.860656967326419498e-01,1.052119910410811876e+00,-2.297286570388199223e-01,-1.043500985973895151e-01,7.868489414999940701e-01,-9.784374144344147872e-01,-1.011087829258597415e+00,-7.858567846519844136e-02,-5.408674784644920130e-01,-1.183277900858065862e-01,-1.329316874813204263e+00,9.540916726527153280e-01,9.701524016495075009e-02,-1.644963958480957222e-01,1.793394088048563539e-01,-1.107703776759949577e+00,8.512062872890290288e-01,-8.098740168436318054e-01,1.655327176982300807e+00
2.096907932210774206e+00,-4.327055936821465054e-01,-8.387329518635417980e-01,-1.160435455144124051e+00,2.445917581232081861e-01,7.692821114618139111e-01,-1.299527101880920243e+00,4.629169252164425097e-01,-2.956904184317637463e-01,-8.420405772568322345e-01,-2.373297147373137239e+00,-1.519844939023943686e+00,-3.030506256300142393e-02,-1.034598288382366116e+00,-2.171721204706713870e-01,-9.011108956336413844e-02,3.606955395469146897e-01,8.847957762440398222e-01,-1.554773341805072873e+00,-8.745021434881301570e-01,7.751213122486699802e-02,-1.200887460120090705e-01,1.097414104332178120e+00,-7.636413063203114637e-01,1.381881390470098836e+00,8.463818010302153194e-01,-4.735216727826399019e-01,-7.521497049541526758e-01,-3.485402696738592598e-01,-1.922700254482821780e+00,-3.666478926977735364e-01,1.092112091374608518e+00
-1.140217310307715559e+00,1.565187698221201629e+00,9.154205678138027658e-01,9.465225303554319902e-01,-1.132030616190101036e+00,2.900459882215847621e-02,1.361923971562715385e+00,-6.118820746150462897e-01,9.492128263211442318e-01,-1.903140343306187088e+00,-4.374179670981701573e-01,-1.105706073603444750e+00,4.344430242864010805e-01,6.054291255571586650e-01,-2.236102537120725209e-02,1.376452483638229252e+00,2.438456027372019885e-01,-4.481117357971425852e-02,-9.508472620374174358e-03,-1.158176489391544939e+00,7.743559764126436429e-01,4.636272813676660109e-01,1.074222985122117446e+00,2.335094814075303060e-01,2.092708029953131543e+00,-7.097005752432979098e-02,1.464247612841996782e-01,4.903387389438594313e-01,1.970098709141522228e-02,-2.277172082786047547e-01,3.999957555208359383e-01,-2.236109744604061478e-01
-9.796216418359107170e-01,-2.114645603372665050e+00,2.178637317337868140e+00,-4.174322595164418614e-01,-5.459309354341364967e-02,2.078241902431835264e+00,3.379538479107799809e-01,-1.981814756576825376e+00,-1.264361841708162126e+00,-1.604067032261147219e+00,1.639096114297584894e-01,5.136337750720979534e-01,6.177723904359321283e-01,3.326302409060758469e-01,-7.873321272294414586e-01,-9.814360738616731972e-01,2.270864514813209833e+00,1.788577927118919053e+00,1.876408543759138237e-01,-4.147755267865780304e-01,-2.899345582501873242e-01,-1.799991656094031889e+00,2.402694085966585735e-01,1.567178675902925589e+00,-6.142131967310435758e-01,-1.759101759519841879e-01,1.001449118870493038e+00,-5.052079227082895141e-01,3.756439816246417429e-01,-5.112281805048042305e-01,-9.344493029649388882e-01,1.126986597754547681e+00
1.326650640999799791e+00,2.819159251354616536e-01,3.843155539523597231e-01,5.045610539590567045e-01,1.333884693898972129e+00,-1.505479838535759562e-01,-5.861270577249171332e-01,-9.751821293450299022e-01,-1.286875660903758600e+00,-1.723815192246107297e-01,-1.235216492158767582e-01,-2.158979456466307567e-01,7.532848905146914964e-01,1.918528538864708866e-01,6.925332275685797123e-01,6.896313427753621994e-01,2.880542780996302454e+00,4.935044686114898327e-01,9.283672718754674147e-01,-1.665169046293593080e+00,-2.082996614009465119e+00,1.412627720246024010e+00,-2.583481312133243946e-01,-1.633854389125886986e+00,8.823556003055686991e-01,1.467852132347696958e+00,1.019294922524788261e+00,8.278527372246069493e-01,-6.699230695429000959e-02,-3.609865906768270349e-01,9.038470327821883643e-01,-1.683214022551529077e+00
4.250756016374202528e-01,-1.614138857943686611e-01,-1.235617967992780342e+00,1.010807666643977476e-01,7.641459906581058448e-01,8.820385266048310635e-01,6.319542720220351351e-01,8.711077890137104663e-04,-2.365542230584828098e-01,1.219964451747352463e+00,1.192367190377974895e+00,1.976617510417888246e+00,-6.761498641986334324e-01,1.966600311335007789e-01,-9.730206859912635675e-01,1.333913633928836218e+00,2.781471656639888934e-01,-1.058637144939055030e+00,4.078542963259478848e-01,-1.303757413995415337e+00,-3.579578973054370339e-01,-1.230769282329676084e+00,-1.479918493467718754e+00,7.935190976713666355e-01,-9.627939221072520093e-01,-1.078777061212401245e+00,1.470210655778589892e+00,2.854132523648698072e-01,9.936248002547434233e-01,-2.909540106536032233e+00,-5.956997330835092086e-01,-2.078456719601270292e-02
-3.108508073433631225e-01,-1.508376065737457639e+00,-1.501850773884100709e+00,5.058728326672379261e-01,3.083023007922566783e-01,-1.122375441640186100e+00,-2.682709668173885453e-01,3.902454858510262525e-01,4.121902940059836151e-01,-6.662069091891581474e-02,-1.435597164771030387e+00,1.126731041582726967e+00,4.078133881661129556e-01,-1.241656879578592276e+00,-1.058017019807315329e+00,1.121223325130533466e+00,-1.935778820022549862e+00,3.950448284400738252e-01,1.254264670099222823e+00,-1.163600389085956754e+00,3.321327055809841777e-02,5.115497694345393365e-01,-3.483737755686908133e-01,-4.652680091192142875e-01,-7.643060351780868455e-02,2.083213019911336783e+00,-1.694734134118875746e+00,1.406302770620271536e+00,-4.061459713444580122e-01,1.552320745117124201e-01,5.847672817121688515e-01,-9.786758588119114366e-01
-7.259748036143032213e-01,-1.601208599518590736e+00,1.123691364229275846e+00,9.409078683754704686e-01,7.582011283401909885e-02,4.573245906703954367e-01,-8.783978782096760751e-01,1.009496870510253608e+00,5.354115581604220742e-01,5.371182749964593661e-01,1.701024798091533771e-02,6.474000391554515232e-01,1.167797186708661034e-01,1.413644547251793782e+00,6.213561894722328116e-01,-3.108875268914100820e-01,2.235464098017897749e-01,-1.133498387105874361e+00,-5.732334126516374084e-01,3.712700076494123563e-02,7.263021242880569606e-01,-1.069524074107027767e+00,1.807105899209045796e-01,-9.670956465122826362e-01,-9.446760552408781098e-02,1.849982945675481549e-01,2.446426787588001084e-01,-5.354677646602609142e-01,9.537306332215824689e-01,6.615531759638068610e-02,1.773156553975247796e-01,-1.710434842804367417e+00
8.185034607401090456e-01,1.723023000997631060e-02,6.291795603122788405e-01,-3.495840502559934282e-01,1.569551644328154527e+00,-2.370917380961597432e-01,-1.786567271501131038e-01,7.034564840520718398e-01,-3.460484543967612490e-03,-1.519410996401747149e-01,-1.285456654929363784e+00,7.764191073514132846e-01,-2.732223331176150127e-01,6.993153388262605130e-01,-3.988647842439785873e-01,6.611595035797179776e-01,-5.786002930678058043e-01,-2.391115100679857761e-02,8.248955844727643427e-01,-4.813823312274247979e-01,3.390114428349685904e-02,2.414001361020889025e+00,1.677897519851337949e+00,-1.583796797260677014e+00,1.897801734435217602e+00,-8.218068054105159836e-01,-1.506617878631243412e-01,-1.914315630289443293e+00,1.202122894075923432e+00,-2.936070221918841150e-01,-1.496688227341500532e+00,2.909392236985493541e-01
-1.541319960281217205e-01,3.946945684919987429e-01,3.930837861600964822e-01,7.248570912283877066e-01,8.616513231232696413e-01,-1.009521018530514791e+00,-1.031602022539333419e+00,-1.128886102987241430e-02,-2.085337605090847202e+00,-9.605146402052537891e-01,-2.059204091411291973e-02,1.405906512450365853e-01,4.400857711024134811e-01,1.254889426491287541e+00,-2.120269050596963467e-01,-1.988428058123804076e+00,7.338662439572267715e-01,9.787241932296705804e-02,-4.265093686732519540e-01,2.383756026033577446e-01,1.186820060668030363e+00,4.797590661084493724e-01,6.857941423970480566e-01,-8.761494032776875329e-01,1.597271026349489087e-01,-1.082643066010855026e+00,2.714327925578672793e-02,1.005689997157516391e+00,1.344521377912510474e+00,5.126336989829324287e-01,-1.864138958182910200e+00,2.334322743435654213e-01
-9.276893692478904718e-01,1.596679114375363639e-01,4.903419019751855679e-01,1.313973398767948497e+00,3.694755690947874593e-01,1.053807169954112943e+00,-1.455517496271058198e+00,7.753071117704010695e-02,-1.143440603687900126e+00,-8.334040051110238601e-01,-3.939168529609961000e-01,1.222184397786297394e+00,-8.884434411713898472e-02,1.408371488631345203e+00,-3.023654673107863400e-01,-5.799045839862354557e-01,-4.098141042926349842e-01,7.719056235977380664e-01,-9.029447970148937741e-02,8.307602433143411735e-01,5.848764834016596526e-01,1.936718401752642038e-01,-1.547604609830903977e+00,-8.342366668616242320e-01,-2.867655076617459664e-01,2.427691056124186078e-03,-1.826143663894376767e-01,2.386508860148218503e+00,-1.018869617618060608e-01,-4.987948126761979767e-02,4.045214528325515313e-01,-1.545929136644631496e+00
-7.241165939148191955e-01,-2.692637408492576934e-01,5.788129996179499637e-01,-2.068512791219064173e+00,1.678084574917729777e+00,2.705100947834693237e-01,4.113755869979128788e-01,3.200662662770488720e-01,-1.499080876747281410e+00,4.258916719551764651e-01,-2.911829315538783103e-02,1.423875770360467086e-01,2.398800598119532890e-01,-2.023426933234366565e-03,-4.217546395398424908e-01,-9.186880687528169442e-01,9.923529700077780014e-01,1.863357411294650712e+00,-6.413188688970380413e-01,1.022470166048913498e+00,7.959029129100352318e-01,-2.817366997707198562e-01,-8.208462058763688063e-01,9.151136856017390020e-01,-1.157682331863093966e-01,-5.902140477107757910e-01,1.446155423583695532e+00,-1.348078561488407656e+00,2.132654517643248482e-01,7.027969034041570140e-01,5.295265688822201056e-02,-2.430364503171449808e+00
1.565875995101149831e+00,1.144897023442755568e+00,2.874751969281503228e-01,1.671479886644541946e+00,1.145653572313453328e+00,-3.763685219443395624e-01,-2.457570390236923571e-04,-3.989852873608359940e-01,-9.563166777720920608e-01,-2.986393255813793446e-01,-1.029247320323413706e-01,-7.602238561309456744e-01,-1.199199212035821693e+00,-6.528858185569502703e-02,-5.291500028695501623e-01,-2.027906686737186881e+00,3.028988633104204298e-01,-9.815056417130839650e-01,-8.332441536399710635e-01,9.658889630143373539e-01,9.844812535964395650e-01,1.589837387622170084e+00,1.125075586447974729e-01,4.339633027897865092e-01,-6.850553943365379483e-01,2.408246849344111984e-01,7.012192494214979366e-01,1.748438617531314687e+00,-7.806927250145627717e-01,-1.166973609987610239e+00,-1.906323428220654259e+00,-1.689626202196947258e+00
1.144586848095861198e+00,-2.779787664272257985e-01,-1.446740586164296349e+00,3.700741009820638361e-01,-6.216662042491997164e-01,-5.370374495425546124e-01,-1.325371680385220241e+00,1.031677193473800117e-02,1.162027125102397473e+00,1.356385684790129220e+00,-1.729161379826500866e+00,1.086613884021254473e+00,4.736243206357910185e-01,1.469872925912267370e+00,1.644014415737712120e+00,-2.382504968895924335e+00,5.633506725046110580e-02,-6.764102249975239012e-01,-1.257825895597215693e+00,-1.417686524357822386e-01,-1.360745628163880561e+00,-3.309926937430695409e-02,1.791300224078488545e+00,1.469366211076827078e+00,-7.972446980858655108e-01,1.248372277170730849e+00,-6.334505173534037414e-01,-3.734941838793100488e-01,1.138004093799174887e+00,-4.750554534354996528e-01,1.237865076392821395e+00,-1.403263817492233390e+00
-7.119077450200477220e-01,6.072932960937458581e-03,-3.740599077189882271e-01,8.073249501612429491e-01,1.484529538662176518e-01,7.494177049719465966e-01,1.147490333873060625e-01,-1.631671129668308851e+00,3.164186764145412445e-01,-2.399487969942644683e-01,-1.225525409361474249e+00,1.008993087631143704e+00,-1.056371805785699891e+00,1.018715591424515177e+00,-1.427094901744395683e+00,1.093439692754872183e+00,-1.323610384539272600e+00,-1.077068247956522118e+00,8.300607700128666278e-02,-5.854477598991682935e-02,4.578497504677569441e-01,-5.677645273713608498e-01,-1.683750705385061996e+00,1.709776718161762687e+00,-8.745477131444251429e-01,-7.485295851000310918e-01,8.775505985886206117e-02,1.771563628117307276e+00,9.600813619930680387e-01,-9.489933204847682546e-01,-1.155396686079046276e-01,1.773738455203333508e+00
-1.072151941327466190e-01,-7.101955102823996890e-01,3.413159407797051181e-01,5.681232596213534602e-01,-1.733469625337484166e+00,2.142774271736555214e+00,4.801567108624792968e-01,-1.694259313816718571e+00,-5.545667211050936407e-01,-6.446703115175335119e-01,-5.882188395690178540e-02,1.969861369115399441e+00,2.704996847706789276e-01,8.170683033067932532e-01,-1.696671771048009925e+00,9.635625145883762732e-01,-5.054316623542480791e-01,-8.755283638631010390e-02,-1.141211499599642798e-01,-8.475075819781056063e-01,-2.072904260911075713e+00,-1.712514069939481964e-01,-8.852182072339708219e-01,-1.189926652714669020e-01,1.628371186957566774e-01,-1.449611395902864475e+00,7.287385758846909312e-01,-6.376586404072780434e-01,2.030826883835393781e-01,-9.152525147269391370e-02,-4.279288749622903870e-02,1.384214303587289807e+00
-8.636185597134994341e-01,1.416060835233913018e+00,1.060391179325384403e+00,2.756188425219019966e-01,3.975636087996558543e-01,2.280252771665537692e-01,-1.003516051976544698e+00,-9.770413306800287412e-01,7.915731677492254814e-01,9.650173924464131026e-02,-1.573800931868211961e-01,7.725046711077286632e-02,-5.977635118642496415e-02,-2.697409256432418800e+00,-5.514842818245770939e-01,7.417283561123393099e-02,-1.739669785113714839e+00,-1.312352301736613658e+00,8.431283920366652862e-02,-4.621608287929078740e-01,-1.297506047619179093e+00,-6.252398070836355792e-01,1.607719419844582665e-01,1.598132872144100824e+00,-1.589100119877197237e+00,7.659657720321761953e-01,1.007537969773988129e+00,-2.479771787436577224e+00,6.454883872187600069e-01,2.446372213255197936e-01,-6.433821648320253717e-01,-6.070601433329719798e-01
5.855924988629044314e-01,7.666751352834992872e-01,-3.940746713485215880e-02,-6.110208355503509159e-01,8.635573607559021703e-01,-1.748807984703279361e+00,-3.692772875151394407e-01,4.063161020926389644e-01,2.041753890282851369e-01,-2.161363533978359897e-01,4.177243720402907812e-01,-9.921990072332190214e-02,-7.791923570436207758e-01,-1.108576229343751551e+00,-8.340698199099667864e-02,7.122864785560190093e-01,2.744049279955496634e-01,-2.438906597450831992e-01,2.124895528511920872e-01,-4.753925200588320910e-01,9.491271818018673367e-02,-5.015735047045400963e-01,-4.215033363406439082e-01,-7.159886704222464537e-01,-2.769934347733014501e+00,1.422553538905986514e-01,-1.855904713044271404e+00,-4.204556978140105428e-01,-1.115223879252481565e+00,-4.904499716681061661e-01,-1.323945082512899996e+00,-3.119619937814842037e-01
-1.837150450961345938e-01,-1.120223971705007759e-01,-5.959573998210024870e-01,3.348426718788286016e-01,2.858101599154732497e+00,1.324078260104876836e+00,-5.409666023496314535e-01,4.402138749406834251e-01,7.918939696336433354e-01,2.776278373986634573e+00,-1.681935168693485139e+00,1.300725681312270288e+00,-1.294572020094830744e+00,-6.766026845460290096e-01,2.235667404155452953e+00,-6.843568495065839308e-01,-2.671437852666573229e-02,8.045571427830782163e-01,-1.249951319613211265e+00,-6.463175481425070812e-01,6.809932681687876910e-01,-8.079425943619972239e-01,-2.405614345021068190e-01,1.189401178140562454e+00,-3.008690467991102513e-01,-1.511484522806220143e+00,3.684823212565400130e-01,2.186415931508054911e+00,2.629762204455792229e+00,-1.901127913890199084e+00,5.115751591871633419e-01,7.847748894327741809e-01
-1.539089674801304319e+00,-5.339881644393672244e-02,-8.313115933084178621e-01,-4.587592275806103848e-01,-1.402900989724561898e+00,7.213020930745661641e-01,-3.018742549155791766e-01,-1.106055066670020404e+00,1.556948669650293660e+00,3.068931492584862086e-01,-3.646342866913462322e-01,1.313322930906271058e+00,6.857772875749114094e-01,1.313015574686937637e+00,-2.196322076353756980e+00,-3.920321118055607457e-01,1.919516564003977965e-01,6.282266378050581634e-01,5.427757082306999825e-01,-7.620239718562376030e-01,1.492099398271091504e+00,-1.492237792230868658e-02,3.315798629598504244e-01,-1.063876334359439069e+00,-1.237442254078924053e+00,8.392062960129227367e-01,-4.059639425093312659e-01,-1.493044307170230178e+00,1.674120474676983328e+00,2.626802650496404268e-02,5.536248864566589711e-01,-3.780050968928184707e-01
2.174578157195214689e-01,9.226508365915837562e-01,-5.915804573191147941e-01,-2.986180067488512169e+00,-1.075512959443928995e+00,-3.928522542574705012e-01,8.715093516575280752e-01,1.330601442839362214e+00,-6.239838783540216927e-01,1.367760034021346494e+00,1.322080886088454088e+00,8.987418096074589746e-03,7.133529728573367867e-01,-1.220458979604192695e+00,1.167145814924470226e+00,4.409590500710345307e-01,-1.339798919683916179e+00,1.601008333576614096e+00,7.745159961425265305e-01,1.967882701525988653e-01,-7.623491597452521917e-01,1.425372958534747436e+00,7.993622633522124987e-01,1.036850333498828824e+00,8.806251545521612267e-02,3.826849979777611210e-01,-2.367893895619764821e-01,-3.473527780229792028e-01,4.770641684463502452e-01,4.641046044045629149e-01,-1.015407000663369530e+00,-1.017113522478725773e+00
-5.401682572838152341e-01,-1.291267524553896040e+00,1.275115815089079119e+00,-4.540977381942403190e-01,4.488048497036410955e-01,-4.622720845147737512e-02,1.673645965638099087e+00,4.266436050838239846e-01,-5.647709347716033806e-03,2.052954614758397245e+00,-6.354082844432707988e-01,2.734508849958138810e-01,-1.527610465584276211e-01,2.570379197630738854e-01,5.573486706682818648e-01,6.922982226812905981e-01,-5.107084137030716287e-01,6.721120470337338393e-01,-3.910009020501667987e-01,-4.591295457323678331e-02,-4.061790631674250251e-01,4.811098477695168185e-01,8.026303594563723998e-01,2.133993993957785107e-01,1.003930781453533649e+00,1.552542673654260685e+00,-5.087337476879717074e-02,-3.466433508619315429e-01,1.908027620229238996e+00,-1.077753263152787626e-02,8.423148150381268850e-01,-9.509514369009036683e-01
-3.834027270487286310e-01,7.127350894689689353e-02,-7.204390342017765736e-01,-2.249191452307381933e-01,-2.726881556807265322e-02,1.790920080593265407e-01,-1.730675648353398322e-01,1.429634103193130779e+00,1.145521943234320883e+00,2.415940009292985302e-01,1.593608922736917677e+00,-7.943441392255733424e-01,-1.146111369199028923e-01,-1.134415038948660026e+00,1.861266762159659693e+00,-2.895230537506759960e-01,-1.162613317886487696e+00,-1.482477123399919827e-01,8.509240214548002834e-01,7.606324707635483406e-01,-2.856164663384815755e-02,1.986940923400628278e-01,6.841305704001159338e-01,7.505525533762165136e-01,-1.430741443633589682e+00,4.053265993283888119e-02,-3.030562339707565389e-01,9.219482433871322158e-01,1.496586697446619929e-01,-4.868239639852974254e-01,7.395730443212000793e-01,-1.213711937508382466e+00
-6.937290846576649184e-01,-5.517002304063594043e-01,4.854096630340940521e-01,-4.096777827730656574e-01,7.252824544267030271e-01,-5.405098872992450953e-01,-1.593749790543747435e+00,7.538709815182598195e-01,-5.477697423356825412e-01,-3.131716094399148997e-01,-8.969957186320223208e-01,-1.397534377889890544e+00,4.861801683885500491e-01,1.066327614899275744e+00,1.670073792709075633e+00,-7.079512224178118318e-01,-9.737562578592456886e-01,5.006078996539921055e-01,-4.643251824543224715e-01,1.479277394864431328e+00,-5.166321182505907439e-01,-3.184046493697953450e-01,1.697917413005209264e+00,9.714540248707499437e-01,-2.518813127574431876e-01,8.018799584805881286e-01,-9.252632532653147501e-02,1.387663173760548707e+00,-7.507061547529501055e-01,5.780741915465505976e-01,-5.120010656675711980e-01,-1.732688950685626339e-01
5.785477621614123489e-01,4.995416659890231648e-01,-5.427566694300466343e-01,2.187109097679498237e+00,-2.059085547881022826e+00,-8.326019984036103772e-02,1.181340806734785254e+00,1.314289770531062163e-01,-6.811409974899409470e-01,-4.418622265737014443e-01,6.452292644759677342e-01,-2.956460565591202960e-01,-2.308880106323126791e-01,-9.098821754316218646e-01,-1.499114735559938572e+00,4.868519870352657208e-01,6.074943213354446758e-01,1.634909587993962132e+00,-2.927973907455188596e-01,1.823021628876495770e+00,1.753190922292334475e-01,-3.092033946449627702e-01,6.180920694905682744e-01,6.974162070077508102e-02,-2.143355256408066012e-01,8.737206742285598404e-02,-1.130430920036533005e+00,5.601351069874371813e-01,-8.312354551163970706e-01,-1.962013461889347443e+00,4.565300740833140858e-01,4.581647771926675716e-01
2.221351441959201090e+00,-2.134152229591761429e+00,9.411362621955746688e-01,-5.458335481962500735e-01,6.683428811917501156e-01,4.117181016797684112e-01,5.879794803335863795e-01,-1.392127783806405283e-01,8.461312527482204304e-01,-4.850329080065282628e-01,-7.442942148486491050e-01,-4.164630395956691045e-01,-1.930677339644353729e+00,-1.246262866876533260e-01,6.623928458646393125e-01,1.186241403165785524e+00,-1.310859003044903215e+00,6.799101360118362525e-01,8.934635814716450630e-01,-1.839125645117046792e-01,2.132810230385228656e-01,-6.242768995337809601e-01,1.285378595432465076e-01,-3.027496614314645895e-01,-1.903580025766006822e-01,1.513628818977785506e-01,5.637999806215381327e-01,1.601193952735858739e+00,-1.436774317658164657e+00,2.024802115997189622e-01,1.390373725095018775e+00,-3.755826770812479287e-01
-6.388963686902767725e-01,5.618632986685034858e-01,5.416535126619973495e-01,1.246494420033679162e+00,1.400918628845820413e+00,-1.881281638370108644e-01,5.422359323472859538e-01,-1.666066137182860007e+00,-5.638185314724784014e-01,3.718384026853168711e-01,9.731757258533632049e-01,4.318375763414837309e-01,-8.187229482091739063e-01,-6.205324511011353072e-01,-1.282046415333381928e+00,-1.986937552745306201e-01,5.074172288896832139e-01,6.655340263412494739e-01,-1.729329700494139699e+00,-1.156394066324491904e-01,4.884187865863564015e-01,1.294906189170849542e+00,6.198080893289215076e-01,1.822674471724274659e+00,-2.188597901661101019e+00,1.589236201876550458e+00,7.420421269917375495e-01,-6.747945974071132280e-01,7.120291927096989992e-01,-5.120283698044981735e-01,1.329233460598715055e+00,9.590686606904108569e-01
9.863638898530312504e-01,-8.564374391062297143e-01,1.491871603645719579e+00,-2.824823575821966762e-02,7.315465517190912204e-01,-4.079931757060025199e-01,-1.208414870218192799e-01,9.387121054611187176e-01,1.793174725682644244e+00,2.269443181971499079e+00,6.736202427191828601e-01,1.275669258126484351e+00,3.856212258540651083e-01,1.314451603966761417e-01,7.232655479355649675e-01,9.945507323757658558e-01,9.707011368146576391e-01,1.078927124768416901e+00,-7.576284644525346224e-01,-1.477187276662652371e+00,4.925495937880453035e-01,-4.255201900429831374e-01,-9.865246392479276594e-01,-4.968171828031354154e-01,-6.408496772865835966e-01,-7.090019701226581983e-01,-9.160269292774281258e-01,-8.978930441253079042e-01,2.246438822261494384e+00,8.126611470946552007e-01,9.498975477559720160e-01,-2.735811957358389002e+00
9.216391199152815794e-01,-2.699786753561440600e-01,9.585405346620501366e-01,5.668251321969073331e-01,1.002793406685551281e+00,2.048887049547904252e-02,-7.038811555283057408e-02,6.821025375766784915e-01,5.059101036403926832e-01,-1.255249886133984472e+00,-6.490576253564273035e-01,6.925583953178099383e-01,1.313642401571992302e+00,3.664907306747337001e-01,-1.124147701194815469e-01,1.878199353544419470e+00,7.530775930440880561e-01,-1.528415423194698031e+00,-1.281694258206400594e+00,4.096100341594186567e-01,1.924820720503007676e-01,-5.077760331737198873e-01,6.549230984803116051e-01,3.143435441754713899e-01,1.867557376597440255e+00,6.068177284327158638e-01,1.248271530891434500e+00,-3.248038266165835797e-01,1.581097971564455751e+00,2.426500807098702917e-01,-1.896124579904285012e-01,1.538218832054328189e+00
-4.402440063610663090e-01,5.440931101398206043e-02,-7.674001947096703580e-01,5.827825577716935213e-01,-9.825443236389017065e-02,1.236635422600663281e+00,1.245232908356913804e+00,-2.018717981758838265e-01,-9.170816797623984051e-01,7.884350906007998594e-01,4.063592742994034251e-02,1.760251151502823408e+00,1.126235093969019774e+00,7.776035580197239172e-01,1.489461461072190573e+00,-9.943038200868548060e-01,3.782236562658397028e-01,-1.215691109082669419e+00,-1.588122199590943140e+00,3.332475237288948788e-01,3.218372478185512198e-01,-1.876565577903427595e+00,5.659457755973184012e-01,5.309607177257827937e-01,-3.631525408141176303e-01,4.966947943845063940e-02,1.579234739838841772e+00,-4.806822643711970433e-01,9.098174128860225807e-01,3.807931605116455787e-01,9.345911067007923734e-01,9.312742526054984538e-01
-5.932664839787583633e-01,6.691407687723996967e-01,6.486161254243335561e-01,2.624165522231824421e-01,1.065117116523643270e+00,-7.517688398255105708e-01,7.983507987475005896e-01,-1.038500079542490351e+00,1.254723721267088532e+00,2.457402348096464351e-01,8.099384387603626445e-01,1.875172689598873399e+00,-1.237645043019398039e-01,5.142150351624160676e-01,-5.180390762482314226e-01,-5.539891543490569337e-01,-7.026688398870511998e-01,1.427435990246579411e+00,-3.196130540204993875e-01,-5.742130668281950623e-01,-6.690632340061100081e-01,-2.705639876745340525e-02,3.254921889961089332e-01,1.644498025132604679e+00,-6.831679711384096576e-01,-3.582285500348822427e-01,-1.280265482092708034e-03,3.942189803788486713e-01,9.117495560061712467e-01,-5.843328276008515065e-02,-8.112050332583954637e-02,-1.218419809999616299e-01
2.433993447848141756e-01,7.702085536557112810e-01,6.264131967352674080e-01,-7.315371199538266145e-02,6.145172551671908012e-01,-2.247823941787142399e+00,-1.582133771701963010e+00,-2.587486316073215331e-01,2.959716878860044753e-01,1.626072869106257590e-01,1.009208552417249827e+00,1.242984202062245247e+00,-1.292095714476773627e-01,-1.355273492846360339e+00,-4.940327773757438035e-01,-3.092074393618339023e+00,-1.937074154880231713e+00,1.398253773640343756e+00,-5.664604511777536766e-01,2.142633152220680681e-01,-5.707147083683773436e-01,-2.211440787705218458e+00,2.273166346522343950e-01,8.844362831543582937e-01,-1.113605697741187894e+00,1.025298152643904448e+00,1.270874133901964464e+00,-8.893370398326502224e-01,1.456952953763557046e+00,-2.968685956476091459e-01,5.836245851591427281e-01,4.404765273166068307e-02
-2.961393390464027719e-01,2.394828864542760005e+00,2.084778209979689101e-01,1.138955723561341893e+00,-5.636396203262465654e-02,-1.378648362026109186e+00,-7.527679235178742490e-01,1.219319209681623217e+00,-1.130109575291179613e+00,7.143692280376600090e-01,-1.549260374548644181e+00,1.367320198531489561e+00,1.519494165143949083e+00,-1.215396951483628474e+00,-7.833537710392986242e-02,3.111390443250304852e-03,2.462261720573643009e-01,5.810590664154742235e-01,1.053116383016625024e+00,3.064888322453293013e-01,-2.838352086911455907e-01,-3.078623152741067348e-01,7.008897455425379119e-01,-1.573600009349111817e+00,3.811279839983251067e-02,2.874137390143883808e-01,8.120950236953560220e-01,-2.811857997941781817e-01,-9.329263743604100378e-01,-4.913592244465724845e-01,3.050460970213089151e-01,6.406657167122850050e-01
5.513729278130221623e-01,-2.323601304304919957e+00,7.324725277211131536e-01,-3.709213259371783589e-01,-9.115557471806308154e-01,1.503940255715244589e+00,-5.018896523988539693e-01,1.406074823204007951e-01,2.465089480864859073e-01,-1.060135015767978306e+00,-8.364596570731500438e-03,1.608792048486333170e+00,-6.214423404265778661e-01,-8.671131205110386153e-01,-2.661513875638759630e-01,2.694503163990712435e-01,-1.523641017889067584e+00,-1.416060740724105038e+00,-1.261342360578526334e+00,8.479305689162551785e-01,3.341304106836778587e+00,-5.533948380871038797e-01,1.494985578068209087e+00,6.317735644772491943e-01,2.445131373498118155e+00,2.585516711994392813e-01,1.149043150887903986e-01,-1.156915328903461715e+00,1.205720939393291724e+00,6.268137242855537083e-01,3.470829546614419975e-02,-1.638184732209862826e+00
-8.928933838006146706e-01,1.561030101146243521e+00,8.000984674240756434e-01,-2.086697826299340475e-01,2.231879010056386226e-01,9.969882842901680101e-03,2.699071597137493672e+00,-4.680445926521056288e-01,-1.324786498033498461e+00,6.955910408765916264e-01,-8.441972901776823024e-01,6.771026406173427103e-01,-7.045538678113719699e-01,-1.703132612711529825e-01,1.359194343569573686e-02,-1.545318393074901209e-01,8.737850536876198282e-01,-3.785986292196650282e-01,-1.586770212348753928e+00,-2.137300216472356684e+00,-2.059338046235352326e+00,3.839990141410775659e-01,-1.467402653387283873e-01,1.378886346774109484e+00,-1.600894457763553325e+00,-1.881838725444489602e-01,-8.423325886005111895e-01,3.784049193804747135e-01,1.018733858787106872e+00,1.243768442918008255e+00,4.402260506384005345e-01,-3.215862549188743813e-01
1.201923435965950526e+00,2.576090672155971761e-01,5.270845746562744516e-01,-1.340567865552479754e+00,1.227206041489053323e+00,7.730196404030160728e-01,-7.813679407582596603e-01,-1.213506915901955141e+00,3.983924686572933305e-01,1.783752843962322254e+00,5.086664994563209197e-01,8.264925847455533159e-01,1.405504699749709596e+00,-9.401571471946297553e-02,-1.058471298775522484e+00,1.039235341694039638e+00,-2.173251566944007784e-01,1.926892293238558374e+00,-6.301254451774951360e-01,1.828123419801881144e-01,4.268099887263858694e-01,3.152626006407130976e-01,5.384292620353904324e-01,-1.596320390745032958e-01,1.257764245394966895e+00,8.922850067805229157e-01,-4.390587293833551619e-01,1.010997072493691862e+00,1.245474451914415415e+00,2.220384166942059312e-01,2.636213436707604552e-01,-1.354474238025592081e+00
1.237956756477183173e+00,2.737218585022845319e-01,-1.854487566245182295e+00,2.392739091816406816e-01,9.150480268466057443e-02,6.452726777665295232e-01,-1.858797450475558666e+00,5.756052587695660305e-01,4.588493357447633314e-01,8.220076828598062990e-01,-1.391499588274973442e+00,4.798666273523258252e-01,-3.781565830329987610e-01,1.030000801403029437e-01,-1.330719619932849263e+00,7.565778981845848739e-01,-7.137378949456368860e-01,-1.570958948274859601e+00,6.408861871486598583e-01,5.006783999089733372e-01,1.424147015812961881e+00,-5.987228405029931810e-01,2.066621679648236176e-01,2.026269096919237067e-01,-6.819687315147140438e-01,1.415423187480043365e+00,1.775238797153748438e+00,-8.314147349513987262e-01,7.527739184426234242e-01,-9.724207117386256538e-01,-3.955845265627897511e-01,1.893223059197467750e-01
-7.531468967858040431e-01,-1.462144084486053819e+00,-1.030801465926588056e+00,1.408385466844325473e-01,-4.903862126179906467e-01,5.011840292946462272e-01,-4.982902496070599763e-01,7.913011840346481640e-02,4.208487517194162697e-01,1.021940532260161572e+00,-4.708417546582735480e-02,2.117305314729202026e-01,-2.151453353404121083e-01,-1.129143191183133554e+00,1.698231214289573243e+00,5.844479431698179628e-01,-2.360999822698807371e+00,-9.722148560337114942e-01,-1.533550540948006136e+00,-1.558158874665835025e+00,7.217804209217306699e-01,-2.148151553652297707e-01,-9.527503017426461884e-01,9.344347213368465743e-01,-1.548976297054681428e+00,-6.039204946714151756e-01,-8.352923982258936286e-01,1.045711832462018487e+00,-1.285944600244107949e+00,4.266583533828149921e-01,6.080885633606630120e-02,7.072277724557552991e-01
-5.582184829119031244e-01,-1.312976322340353441e+00,4.541541302453095397e-01,2.314154086540747723e+00,-3.084334357041257357e-01,2.085289412139557541e+00,3.367733391916200580e-01,2.283492308254427172e+00,4.198311488686528592e-01,3.543593324081013018e-01,-1.630067454136431837e-01,-6.409434671163652952e-01,-1.670441964883145003e+00,9.241256139822184856e-01,-7.858485726670784433e-02,-1.943745541776675245e-01,1.760448182462977851e+00,1.592967205050191515e+00,-7.200511110747542798e-02,5.069798067248225681e-01,3.365280513685269259e-01,1.724924794274327877e-01,-1.746804773321507520e+00,5.505455153491197740e-01,7.603530266755845202e-02,-9.261374456537215805e-01,6.192500081828435921e-01,7.683493631834712456e-01,1.054965848140786283e-01,-5.629766273305806257e-01,6.203929933903764432e-02,-1.015145753786857785e+00
-3.481369479608944495e-01,-9.758085254050128388e-01,6.331840010274243369e-01,1.086243732123959305e+00,1.201646840805734362e+00,-1.695914362595867253e+00,-1.790369093678348289e+00,1.165880346934330403e+00,7.559486464327999089e-01,-5.586401013537525273e-01,-5.931978189424030878e-01,1.943341212370519600e+00,7.698765346097182771e-01,9.664098907909888236e-01,-3.369588794832643064e-01,9.981519504636652274e-01,7.392927791147387850e-01,-7.858240178903403983e-01,1.631373032722784000e+00,8.867509470025425333e-02,2.506820168918181269e-01,9.549419756930629388e-01,-7.786407153748394760e-01,1.406656373342319577e-01,8.914108817254418060e-01,-2.508638857381728648e-02,1.169724343151811397e+00,7.873404943821999957e-01,2.112082902450223287e-01,-3.006916654500035313e-01,-4.498318480467942138e-01,7.074808157353339455e-01
-9.291442108347426343e-01,-2.716160522546451905e-01,7.935433477944582592e-02,-3.796883387857485914e-01,9.353262538760542810e-02,-1.301562935342409633e-01,-2.231266464478945943e-01,-5.710685547896538622e-02,9.659241063860721788e-01,9.209678576734727784e-01,2.131067635119869852e-01,-1.704827133724917676e+00,8.969802763014590452e-01,-3.744218218034393586e-01,-8.791791070354674220e-01,-4.160457204534229181e-01,-1.012886239694393398e+00,9.215237612849367377e-01,4.629645523731656942e-01,9.472160289739417482e-01,-1.414490847585585520e+00,8.763856914242994234e-02,-1.075344034436647611e+00,-7.295739203228596148e-01,1.499188717178189023e+00,-7.125378669126047892e-01,7.339248893269290086e-01,-6.197439556409670702e-01,-1.254982695066733100e+00,-1.229492610028114497e+00,-2.728085522412999619e+00,-1.238835729384938800e+00
