-2.627337244114423820e-01,-8.598393433979951983e-02,1.020784136173490841e+00,-1.070122338163481457e+00,-3.599774574678053507e-01,1.991628219608415351e-01,6.576576851440284477e-01,1.398248234539386514e+00,6.684206461773871677e-01,3.503288989669905429e-01,-1.322030525092508513e-01,-2.121555511745717215e+00,-3.433873236638268489e-01,1.298973032644663850e-01,1.167739479630527155e+00,2.686336624991300659e-01,1.145414118422874994e+00,-1.714686421639331382e+00,-1.856330161447799498e-01,-1.809475395050428759e+00,-1.068107188208393898e+00,-3.156152887569527166e-01,4.911999857235882505e-01,1.758231391944063970e+00,1.273721199129882908e+00,8.103310891931263527e-01,1.042908554675157307e+00,-1.619536096350150944e-01,1.842150000528807174e-01,1.659968770566297325e+00,1.240827638106748232e+00,7.378444482459607379e-01,-4.106694949600311340e-01,-1.118635197530929881e+00,-2.004990567236438981e+00,9.443552743483897283e-01,-1.357429140385443489e+00,3.742934574776790591e-02,-4.885759982144315949e-01,-9.741033161558471098e-01,-1.814270396464873203e+00,1.629047589620779557e-01,3.009767496802419062e-01,-1.103220607738236492e+00,-1.958597064355236839e+00,1.219764706575773516e+00,-2.459254573567340105e-02,-2.686953104705089301e-01,1.528720549110478555e-01,-5.913840161045168520e-01,-3.776157210020437693e-01,2.475318908894912351e-01,-1.296728121853372384e+00,-3.736475434066270362e-01,-3.671372330912198723e-01,-3.856155004994057944e-01,-1.766321986231748964e+00,-7.471779916914549069e-02,7.681255900844495832e-01,1.030594878079033050e+00,-8.798774541016348705e-01,1.426215803526698633e-01,-7.585039953205089391e-01,8.627856902115182969e-01,-9.257364235837189925e-01,-2.634202284857105614e-01,8.723251233165713048e-01,1.125550255289346602e+00,1.262288114043201626e+00,-8.321693853585283573e-01,2.092439484943657835e+00,2.764977128242839255e-01,2.279924111522172225e+00,-1.990715569526272377e-01,4.870549425684833067e-01,9.867254419162386769e-01,3.986336202515631394e-02,6.132126400896320551e-01,-9.986438811455523590e-01,-1.437680047724945731e-01,9.086057873715072120e-01,1.014166289509267765e-01,-2.773805781718907126e-01,5.078559481627547001e-01,-9.575243817883931641e-01,-4.767718542866551945e-01,-2.712944390175039411e-01,-7.572705218773455593e-01,3.307937504590112154e-01,-7.197404253115733397e-01,-6.206255081570406507e-01,2.414647837273652953e-01,-1.240626697803814071e+00,-2.627214131279089759e-01,8.653789532153352004e-01,-6.270601458886529977e-01,-1.341303861972832578e+00,1.381305420510600790e+00,-1.864052372323856677e-01,4.254814343589698178e-02,1.729684461264622053e+00,9.965770862450321066e-02,2.591184133703643422e-01,-2.011750139672421056e-01,-1.184214059710752442e+00,4.992359451466087950e-01,1.213443984575708789e+00,1.666665564851252279e+00,5.120970916565776854e-01,-1.041670399572212358e-01,-7.765866061776034723e-02,3.670980575268584234e-01,-8.374052598649834867e-01,3.921751044372276396e-01,-5.769547474866501546e-02,1.768671529113456486e+00,1.204807269410101078e+00,-5.797734073142327832e-02,-1.630465394323434625e+00,-1.618094990853010895e+00,2.199394198764241803e-01,1.373114413069684847e+00,5.587733227927982327e-01,8.681409741224752619e-01,5.888093676638139762e-01,-1.909978511811080804e+00,2.585556520542260373e-01,8.357013562786591576e-01
-5.602445099091529768e-02,-1.582471460201561486e+00,1.487758919749904374e+00,2.062179233924687494e-01,-1.318279034271268468e+00,-3.809969235614191208e-02,-1.596719795592985158e-01,4.656629694755685112e-01,-6.766046809173837939e-01,-2.047936427246205033e-04,7.861068242776325654e-01,-1.017733191965290107e+00,-3.919272254094274821e-01,1.192740477247839770e-01,5.132802823946908122e-01,1.471872334349438427e+00,-9.958695752560910996e-01,5.565346437362986842e-01,-2.327310784829933199e-01,-2.774969911432145220e-01,3.780083162727975177e-01,8.165075123974183668e-01,-8.717831843949650494e-01,-1.835182303732605158e+00,-7.454769430874400582e-01,-1.899309153061914390e+00,-7.403831419313082474e-02,6.951794761015661628e-01,2.192750631274583029e+00,2.698930814455757776e-01,-3.840916370747928799e-01,-5.848095409511682163e-01,5.964813675380550295e-01,-1.498034295442287611e+00,-4.323898103428701623e-01,-7.673579486821158202e-01,-1.177317012017965459e+00,2.291453390551849711e-01,-4.616783219379906322e-01,2.536559472689461359e-01,2.742450208489976560e-01,9.453458028791219547e-01,-2.198373226824055671e+00,1.699566822407342581e+00,-1.714493494875558133e+00,-9.133052180875178561e-01,-1.982379205928992860e+00,9.641055564939189360e-01,6.638239118582789366e-01,3.882180577860536164e-01,7.132904700776566687e-01,-9.130162715526992656e-01,2.486186013196798883e-01,-8.445263955439416548e-02,6.130298380079381160e-02,-3.862307977401797099e-01,-1.165382702150751792e-01,-3.218540150472587458e-02,8.094906564402856164e-01,-1.564725392890915723e+00,1.298063202048415299e+00,-4.601704968271869145e-01,5.863092700865601276e-02,-6.887021878303979383e-01,5.240195727939934711e-01,6.840442430029000098e-01,8.204139126682630234e-01,-5.216583428844123738e-01,3.089418565638670788e-01,-1.283945255410533504e-01,4.118931735428543739e-01,-2.814471986068098008e+00,-5.773509030258134889e-01,-2.902552254692602474e-01,1.374931306981644896e+00,-5.507966746509541656e-01,-2.428850807157731106e-01,-9.492096468251518537e-01,1.115522097646236110e+00,1.632980507128420022e+00,8.005267619244839095e-01,1.029169294222430198e+00,7.174515196875466128e-01,-8.433048401716995990e-01,-2.262398402833991629e+00,-1.327016070108584245e+00,-9.714415399624826142e-02,-7.634366118664049905e-01,1.702746158295384837e-01,-6.004041121448312479e-01,1.099874003365029163e+00,6.663105869241210399e-01,-7.825947496177493301e-02,-2.478492070831749342e-02,1.483313822296193463e+00,6.080668881375891344e-01,9.132690018089857364e-01,-8.224327559836780432e-02,-2.188290524762725564e+00,-2.047135801105703923e+00,-5.987683640264088725e-01,5.024858378889839328e-01,-1.170258422729914649e+00,5.007687625624409611e-01,-2.534840516675570532e-01,-1.366786270323938624e+00,5.433168737725726505e-01,1.164941643134190796e+00,1.104503273240301731e+00,3.971260426633040352e-01,5.310429348567738961e-01,-1.127730878669848336e+00,4.978699300023165519e-01,-6.758807500648226219e-01,5.112024930638923159e-01,-4.434333395357693552e-01,-1.416945873306359793e+00,2.326709233831617762e+00,7.583916788562005129e-01,2.727536047009546660e-01,1.023471669527367567e+00,4.034941186390519213e-02,7.812838241756379087e-01,9.030931092206053723e-01,8.240376164758522748e-01,4.424347244007480473e-01,4.796362605606097618e-01,1.278402762505627344e+00
-1.814079859129525893e-02,1.067804024301018062e+00,-1.019539864259109141e-01,6.633009909528401193e-01,1.111125245778497861e-01,6.325707848222265062e-01,-6.746636027186422302e-01,9.943734777671625613e-01,6.336764620504429235e-01,1.621529749135568466e+00,5.167198561922242001e-02,-1.224658083573055389e+00,1.000679777994714970e+00,-1.583089604771437786e+00,-1.652996054015498373e-01,5.057073514065297815e-01,-4.884085241882498152e-01,-1.178823231966839719e-01,9.461093477968202103e-02,8.625993161517226948e-01,5.900720233511235202e-01,1.854813350780770476e+00,1.187374140049388682e+00,4.963162448895077072e-01,4.733432010026430992e-01,-7.488191524633192042e-01,-1.104819072730450991e+00,4.232490964498101804e-01,-8.179692840249740415e-01,5.070508898119747976e-02,1.673606583326502362e+00,-5.211344826283544895e-01,3.153607335302984760e-01,-2.241468937934050665e+00,-7.674048614073762931e-01,-8.643756258173967977e-01,2.174914543753887042e+00,4.446992179096930786e-01,-1.458558833351778772e-01,7.386049828044232157e-01,8.594410056450991764e-01,4.765365663023479192e-01,-1.922177791382550405e+00,-5.523200050869162547e-01,-1.948140626875732639e+00,-1.450496674253597851e+00,9.592402258466009579e-01,-2.910533789489498369e-01,-1.276587416719522139e+00,-6.191912248143776054e-01,1.900389417331289188e+00,-1.584730138148374712e+00,-5.594421903699407089e-02,-1.200433628507269423e+00,-5.993256530990888065e-01,1.994071691261690926e+00,1.763093037062247737e+00,-1.186534795602884051e-01,4.685383815398414531e-01,9.493037039907287200e-01,-5.170801816680714591e-01,2.192869844983511118e+00,-1.068002031281069242e-01,6.261119967757877713e-01,-6.400155625596191111e-01,8.535627176454644305e-01,1.751984080516972186e+00,3.194088790453536442e-01,9.616984638110648298e-02,1.195977388225008209e+00,-1.601309196283424274e+00,8.967161060072795786e-01,-2.470556378708013978e-01,-4.373133510268250451e-02,5.360961803206242271e-01,6.368301795993808190e-01,5.344936289019177611e-01,-7.291812450103754006e-01,-9.576161677108699921e-01,-4.120213703221339285e-01,5.403452091106212413e-02,1.917125558910836025e+00,1.159657906071898781e+00,7.184448193526430382e-01,-1.986415040196925386e+00,1.135375847935091942e+00,6.037036590037719863e-01,1.056351781389836125e-01,5.385493640698711948e-01,-5.933896720969139560e-01,-3.020487319846908436e-01,-1.834624135031265757e+00,-1.519386437260211720e+00,-1.378880125667964196e-01,-5.829215415572300829e-01,1.013212310727199084e+00,2.716207133943657898e-02,-8.339003212696225464e-01,-1.815793729742321894e+00,-9.917589688394551350e-02,-1.401955348643946497e-01,8.680119923773223223e-02,5.267545425600014264e-01,-2.984004028589258839e-01,1.222166540450443151e+00,-7.531938533319962881e-01,6.928502636508833135e-01,8.501096063655829704e-01,-3.616618202166851370e-01,-3.295971005255065034e-01,-2.527682779855288664e-01,-2.651185491153228990e-01,1.432557621031255612e+00,-6.407939377591269636e-01,-1.441918137536141176e+00,1.031059872099080676e+00,1.010308035898930479e+00,9.209268310662809265e-01,8.658233334998550745e-01,1.513472641165294064e-01,1.092206317961820217e+00,2.835163571936848981e-01,1.402846899233868516e+00,2.517240306097319191e-01,-1.316841916012023050e+00,-3.964734006248130660e-01,1.027994391416871434e+00,-8.523251973717665964e-01
9.996118696353918642e-02,-5.217657412555738450e-01,-1.792609978802854664e+00,7.232262073862349983e-01,-6.268270647248590233e-02,-9.095132192750393640e-01,-8.022219269177377488e-02,6.511796357582876338e-01,1.092763342904296137e-01,-2.919506779184437555e-03,4.301763104631050050e-01,1.473475325169575079e-01,2.160900918441346352e+00,1.125635734589457287e-01,-1.343359867407958354e-02,1.483114394488740606e+00,-1.174277440844646803e+00,-2.589849737167375099e-01,8.249569843362655197e-01,-7.833854693738238062e-01,1.008750550994684803e+00,2.586928506353214363e-01,-2.009020931549898581e+00,1.022886572294702950e-01,-2.038518747812827492e+00,-1.739382631730654050e-01,4.720487502823479953e-01,6.747926996367258345e-01,6.844393598232286456e-03,-2.954013072155770026e-01,-2.962829123735549186e-01,1.046211804562649395e+00,8.495911437740739577e-03,1.981767188661903156e-01,-6.564317459470523364e-01,-7.379411403610622866e-01,5.082584422103620936e-01,6.145149702281411663e-01,-4.061765614628374266e-01,1.189751873657725056e+00,8.973263249349144877e-01,-1.096594180861726109e+00,-1.772755125215730032e-01,1.006121914279881846e+00,8.306178096651140041e-01,6.461187768590591629e-01,-1.630072436233705124e+00,-6.813366148013363377e-01,-4.301306229743334097e-01,-5.282118842931068370e-01,1.315917944199191947e+00,1.289712227164160563e+00,-3.884315246555860024e-01,-9.726975788747738161e-01,1.397744212103547268e+00,-2.552976739533702535e-02,2.782089787616630616e-01,-1.700430791196385849e+00,-1.356293563444539885e+00,1.791719678750260725e+00,1.178957362887970817e+00,-1.252838591429044968e+00,1.667958181566354392e-01,-6.291222209626542439e-01,-3.039801254480424264e-01,-1.938602422375706125e+00,-2.238091244875932417e-01,1.937700916753857472e+00,1.192995998566671156e+00,7.337878957369750044e-01,-5.379238095684829579e-01,-2.151812028353443373e-01,-3.001773504653515445e-01,-6.031427064888793266e-02,1.617795072949567592e+00,-8.227052033729213010e-01,-9.238304789210463053e-01,3.418882156193722710e-01,1.343190372369554630e+00,1.531027460166221044e-01,5.702377173477227723e-01,2.133151094420679683e-01,-1.452460975102721541e+00,-1.492674498131423277e+00,1.007391898111135858e-01,-7.511452036222003859e-01,-6.701184348387122514e-01,9.213811848922561776e-01,-1.074954263796660120e-01,-4.901407366644435770e-01,-6.547152438541276043e-01,3.357867330004795647e-01,5.178947683813136388e-02,-5.529938735160663255e-01,-1.259139602771740751e+00,-3.963997482707301012e-01,-7.207515205732464292e-01,-2.628508947152786157e-01,4.334442922213541105e-01,3.468986743644741910e-02,-9.251332645141127076e-01,-6.881443897470487236e-01,2.626171848351959159e-01,1.478744242138896547e+00,-1.376583877276896517e-01,2.283085397070005670e-02,8.125223025931989085e-01,-1.643478532781529999e+00,9.273442129198988804e-02,1.116158545854158302e+00,-6.691224494461605055e-01,-2.552881347909893295e-01,-1.021567499966688386e+00,1.250641543148487411e+00,9.418266662747855344e-02,1.827575136816904020e-02,-1.116157886280414679e+00,-9.639146687726912743e-01,-6.004207550976915497e-01,-9.455396109636150515e-01,-1.595123288260505701e-01,-2.244213207366177187e-01,-1.154503394323910109e-01,-7.775255249787258460e-01,-1.270869337373713881e+00,1.222414865365817116e+00,-5.185490569756450174e-01,3.410844295449316776e-01
-3.896781922703992929e-01,1.486536795048714332e-01,9.593387455601302127e-01,8.688436911804535701e-01,-1.290472669852758547e-01,9.010817314094433650e-01,-2.406280936874502174e+00,-3.173724256556603174e-01,-7.138089202039110681e-01,-2.446069938619264972e-01,7.144253569226294287e-01,1.855165562048549432e+00,-6.200890627488978568e-01,-6.002647039566679776e-01,4.059063805390939472e-01,2.668919980445909168e+00,3.191132742009336054e-01,1.026309822190289323e+00,1.344745299965791618e-01,-8.910558678883147010e-01,1.704450564946775382e+00,-7.854904560063494801e-01,-8.301186309138118835e-01,-1.252614566169636401e+00,5.659370229006458475e-01,-1.202072355129349734e+00,-1.255165082999696091e+00,-1.695925477025285177e+00,-7.338894835977199937e-02,9.573970324043357127e-01,9.759780057836361933e-02,7.761902340080867324e-01,-1.447405737638132850e+00,1.794345961942481749e-01,3.811700076035839935e-01,-9.611127775144842067e-01,1.792821037057705791e+00,1.364560153903390916e+00,-6.646884261128286342e-01,1.698763383880362021e-01,6.142843310064538542e-01,-2.837922414699435847e-01,9.476245207325354469e-01,5.314339298104664433e-01,-9.156446456534800271e-01,8.177615672685774051e-01,1.024762390679770485e+00,-8.498919304304176636e-01,7.490318374196401896e-01,-2.694312297565397141e-01,7.424120035369501380e-01,1.711215139039844457e+00,-6.216086614987187398e-01,7.355697342500548963e-01,-1.414992058385280277e-02,1.704076999655762259e-01,-1.286773183162629453e-01,1.004865395530617045e+00,1.660942990393666330e+00,-6.989246585845109161e-01,1.731291190554439918e+00,-1.583427679019357992e+00,-7.225507217592109788e-01,7.966914154922712932e-01,5.774349553805098179e-01,-2.680407241187692247e+00,-2.023336897872205054e+00,3.983374506814690852e-01,-1.789885536567916491e+00,-1.562275892727617910e+00,-4.538724299538429152e-01,6.086988814993010699e-01,4.780520861721170855e-01,1.502631055888254075e+00,1.012992162697411880e+00,6.201379615104023468e-01,-7.861489645077551769e-02,-1.034692845535140293e+00,4.646853904014120462e-01,-1.239413809630850016e+00,3.134915195055994891e-02,7.108868858938520718e-01,6.144873590653613382e-01,-4.730602884481968640e-01,-5.321411322636558916e-01,-1.211546683158684301e+00,-9.064757705831407719e-01,7.539763851876473133e-01,-8.626657571196655327e-01,-3.170654382389872517e-01,1.986060899402831148e-01,1.130077306436320539e+00,-7.174581651378735270e-01,-6.524461468789477525e-01,-5.030719497520357297e-01,-4.161053291738670001e-01,8.034084302190173110e-01,-2.522185531339258824e-01,-3.517105720795243862e-01,-6.744812598501048750e-01,-1.290640169704545814e-01,1.380048724940684313e+00,-1.786529934659712104e+00,1.427198654891252749e+00,2.047733430415102918e-01,-1.558441304073811429e+00,-1.910761279337494178e+00,-1.022471990818723198e+00,-5.438961069482990407e-01,-4.811450241325784249e-01,-6.600775639485752244e-02,-6.382148991902731883e-01,2.423541963995403947e-01,-2.254114443643690791e-01,6.328196857641394946e-01,-3.116270142554923295e-01,6.706357082904107481e-01,-5.765635252841318920e-02,1.639077998113044998e+00,-3.916428261535371824e-01,9.743785960788337031e-01,-5.704705324859282722e-01,1.118497279179835546e+00,1.822329415623919591e+00,7.222203981971332398e-01,-2.618473813714235487e-01,3.136639722022897814e-02,5.679314979976243100e-02
3.852871984294216068e-01,1.219154578024090052e-01,1.505910732867046464e+00,-5.169161953269070242e-01,5.266161214863174234e-01,4.192559556987528191e-02,4.192219608868445468e-01,-2.237630344184709852e+00,-8.219561426846304641e-01,-8.673287104686355775e-01,6.805987103342331368e-01,-2.170228905558585220e-01,4.973276891375522091e-01,-1.269343222904137480e+00,-3.774116347496885293e-01,1.021398945239545067e-02,-9.356631407166945413e-01,-3.951198732524775492e-01,5.192043442349029286e-02,-8.907255478659910075e-01,5.047009811188209877e-02,-2.074791714721362645e-01,1.626465576011815184e+00,2.095141227648506632e+00,-2.118979095636557564e-01,-1.396274923673908708e+00,-9.188926386566118598e-01,6.615089821171513673e-01,-2.175197605299092618e-01,8.729244118574758238e-01,-6.742354971319978185e-01,2.216870429421428756e+00,1.521469023145682442e+00,-1.039119682109854947e+00,-9.320504741269892701e-01,-1.228990531124350305e+00,-2.048729568072849450e+00,-6.614634524974273289e-01,-5.790960097932278394e-01,6.752605373528803856e-01,-1.100457784367500080e+00,-3.959871146498341044e-01,-3.469559566054331579e-01,-2.701607809684419603e+00,-9.506199798408245805e-01,9.365965500688121503e-01,-6.774402004384224574e-01,-4.450799375146176073e-01,-2.970216112959676025e-01,-2.425217120910493351e-01,-4.227477714002761955e-01,-9.042036140618958662e-01,-1.560338943503535969e+00,9.777703500140648707e-01,1.941751754079322767e+00,8.562609764061949180e-01,5.532904897482044948e-01,-8.042234887968261470e-01,-6.262147854336171937e-01,-1.270039508014182972e-01,-5.051621048975900585e-01,-1.365751398988055421e+00,1.642218363231879641e+00,2.600713610200056092e-01,-6.276798047844633910e-01,-1.188826630096434744e+00,2.412958413133300173e+00,4.373445006325473172e-01,4.885691594519286224e-02,1.485784951412881139e+00,-3.319379846137450185e-01,8.605369660944367505e-01,6.894735696392439994e-01,5.032802331563233089e-01,-1.564195610852433527e+00,-1.335443861666888665e+00,-1.248651112282657349e+00,2.928293671671644005e-01,1.968415118879682235e-01,-1.031951080297641016e-01,1.806054577043915366e+00,-4.444101075769359421e-01,-4.429175916571980731e-01,-2.243704179674884891e+00,-1.615173605084025743e+00,4.236562206735040026e-01,1.503406348222948441e-01,-1.413346285500058030e+00,2.049557889481451234e+00,3.026310025289496441e-01,-6.113973839896946066e-02,5.992169873588838458e-01,-1.709151218899773061e+00,-1.115837688325493682e+00,1.093177582895423550e+00,7.569161749690471730e-01,1.049446277300932762e-01,8.763691302713703113e-01,1.104380444856340127e+00,-1.993858216538093586e-01,1.789633223651800664e+00,-9.773605527091601131e-01,-8.296852997705835842e-01,-1.326344636328819826e+00,-5.131186329088808229e-01,-1.394612548947545161e+00,2.358966314411853060e-01,-6.278291916371140369e-01,5.489982700266837767e-01,6.700491288397556477e-01,-4.231363002783048444e-01,1.000220622487097311e+00,-5.173185123195359753e-02,-1.190834782395066238e+00,8.926129207043046465e-01,-7.178851497424332262e-01,8.022216580014865928e-01,-9.895389395898435136e-01,2.935500849456372241e-01,9.037205751002880261e-02,-6.164363230977665253e-01,5.564695706594727787e-01,5.458124910969196220e-02,3.222713161345521771e-01,4.232299910029117540e-01,-2.127215522327356556e+00,-1.044184796266647508e+00,-2.062550430353553288e-01
3.827245339833797999e-01,3.919738616206238646e-01,1.209983452601978593e+00,5.696733358067381792e-01,-8.416348936370405820e-01,-1.042782672084881845e+00,-1.107855788927237128e+00,-4.350957757602357256e-01,-4.669343194639104522e-01,-7.305947922759883362e-01,-1.830294239504580034e+00,-9.892070640453931585e-01,-9.638724868556233227e-01,1.170523441216358318e+00,1.328955879445823607e+00,-4.285104070647893226e-01,7.839106151782970766e-02,1.040883096383764528e+00,-1.038767615742233641e+00,-1.037664503732160348e+00,-2.102173717816996357e-01,-1.192651985980333063e+00,3.223360168130749992e-01,2.092491550906554754e-01,-3.763789275165883852e-02,-1.559705626615964791e+00,-1.257938617224792388e+00,7.848255772582506395e-01,-9.735772245808377301e-02,1.856731939049619806e-01,-2.595142509005391451e-01,9.424727730318400720e-01,-1.192052714396773405e+00,7.584020244804824673e-02,-8.970968993566866834e-01,1.014741005315326627e-01,8.289103321618243037e-01,-1.796547089463802482e+00,-1.266094205100897208e+00,6.507438241883592434e-02,9.833641388321871790e-03,-5.642173054962940082e-01,-2.400535011305650057e-01,6.889272225527965920e-01,-3.276788817458193281e-01,3.764432661711104577e-01,-1.140581639974874273e+00,2.007435673765167294e+00,1.375016704226041941e+00,1.142611486936479626e+00,-1.823802189050640621e+00,-2.603587845747752372e-01,4.617127524472713351e-01,1.101766142642945645e-01,9.849662727222543435e-01,1.086192525619035232e-01,-4.626874588445338277e-01,-4.927839519478467434e-01,-1.329074817823656440e+00,3.563347032101812362e-01,5.167973889230317308e-01,-7.714080222040048396e-01,4.215130793065846038e-01,1.678272301627187491e-01,-4.760209960596797213e-02,1.975399510794728863e+00,2.105179654182572080e-01,-1.940495550164428540e+00,-6.536844923651764505e-01,1.066980233814355472e+00,4.646344833271388031e-01,-1.391875401170746818e+00,-1.422463989761837855e+00,1.981688457113695567e-01,4.084665033417030910e-01,-4.473299319474353941e-02,4.384524711583916989e-01,-3.914716548654250533e-02,1.081101860637262879e+00,1.223508907574182153e-01,-2.782069958133285281e-01,-2.182048577398659761e-01,-6.036719853577883210e-01,6.615679333576426346e-01,6.491641483743870733e-01,-1.545027898339788042e+00,1.525177299369514738e+00,2.119500148447142074e-01,5.617675779289127425e-01,1.252207238608138207e+00,5.123270952895193631e-01,-2.092094662308058961e+00,-1.794386669040971327e+00,1.466399303756814820e+00,4.245248448999601187e-01,-1.264632547916187122e-01,2.827101701667871780e-01,1.863065875183461451e+00,3.166465002932929151e-02,1.062809753245882005e+00,1.891293511590119047e+00,-6.811481897068963898e-01,-1.532756283208114578e-01,-9.302875508578338781e-01,1.026672156535626490e+00,1.497653769864918938e-01,-1.033535847951221331e-01,-2.658660529685159535e-01,1.978740616809369635e-01,-7.117046653182641514e-01,-5.642513315039562327e-01,-1.879379970825066026e+00,-4.345261823381824651e-01,1.360809373439101841e-02,-1.587266059322415268e-01,-1.277881477270252919e+00,-8.752920840265091540e-01,-3.895168237096153230e-01,-1.722225330357085360e+00,-3.337677788473420448e-01,1.391629471781470062e-01,-1.306589644618784796e+00,-3.945583667434200414e-01,-9.294976053536554428e-01,5.994606600527208062e-01,1.700645820270484831e+00,-1.157748879253776897e+00,1.455883320868393560e-01
-1.305788432034877822e+00,-6.466957727829222291e-01,-1.552800269326563454e+00,-5.377628556560839351e-02,7.358852627625900311e-01,-5.083809171806975558e-01,8.374392387555536221e-02,-1.819296425315556909e-01,1.243221213389660518e+00,9.015520092428519483e-02,-1.320516255073993783e-01,-3.772817633338488297e-01,5.221367081852347214e-01,-1.947821481262774324e+00,-1.263741260984931891e-01,-2.072555515258970082e+00,-9.639832219949578951e-02,-1.177755955548965283e-01,1.201892624914366658e+00,-1.474974407922369224e+00,3.062539931712515151e-01,-1.500105271458719081e+00,4.294756594244815151e-01,-3.703967780590968206e-01,3.466977099234953008e-01,1.659903655078964202e-01,-1.824382882391104355e+00,1.538470101310117411e+00,-3.418744708250933684e-01,1.209161867936200396e+00,-7.545765698195932014e-01,8.207332151540005505e-01,1.468930102801180748e+00,-3.897670104901516663e-01,-1.025112702110073215e+00,-1.192574108613278228e-01,-2.601688777692705568e-01,-9.015327228137408611e-01,6.237850791233020553e-01,-6.187599131850406164e-02,1.691117547206334004e+00,7.983677690312046549e-01,3.744345567564897337e-01,3.019403502959338015e-01,-3.647768714981820121e-02,-2.071449501488782818e+00,1.663405386173603256e-02,7.864225865399308013e-01,-1.351697636056691798e-01,1.435793278078416391e+00,3.694693726127907252e-01,1.231103757586685110e-02,-2.241247630628686871e-01,1.160415265378026861e+00,-5.454854098494223841e-02,-3.909929339305694973e-01,5.364318841933973792e-01,-3.223606027353486114e-01,-1.690544887441230548e+00,7.812127953130745261e-01,2.502826431306099941e-01,-7.326606409829148348e-01,1.929566379137783283e+00,-9.565230523657668460e-01,1.029710571922053175e+00,-1.142901938913061688e+00,6.327456324470563942e-01,6.509952818987855272e-01,-1.285672992009886828e+00,1.774670990823801864e+00,-4.693845069164465089e-01,-8.519650644226045566e-01,-1.929964312461446951e+00,-6.315033698207926649e-03,-6.370162810924736574e-01,-9.913718601763156502e-02,2.104899491954481672e+00,-1.552549175593375963e-01,-1.101234231327303581e+00,1.356368219963202781e+00,4.906837625463423280e-01,3.044246004765889246e-01,-9.021048461055933831e-01,-5.050447221614232651e-01,-2.346626878548200568e-01,-2.521021240742056801e-01,1.539323953329845951e+00,-8.724777735909449161e-01,5.372658501002115505e-01,-2.346237937323429446e+00,-1.929979676959781676e+00,1.152856977852309006e+00,-4.774806898101976449e-01,6.475315058424516712e-01,-2.202937160051529286e+00,1.307475182599609820e+00,-1.927353428007868574e-01,2.879050261512893227e-01,-1.339524975156517916e+00,-1.613429334093403056e-01,-7.090887082323482637e-02,9.591399840276217115e-02,-8.092066542067941626e-01,1.702585007711470588e+00,5.245727385952392297e-02,-8.282102439243000935e-01,-1.756888857988075370e-01,8.217459340665766998e-01,6.749998657096339949e-01,-2.440125648404033176e-01,-9.230290465786928911e-01,-6.805571951738773606e-01,-3.101584241982462409e-01,1.083056589927093860e+00,1.328713027224824428e+00,1.640471989059314240e+00,-2.821882288947273665e+00,-1.007791503933930688e+00,-1.479941842279787201e+00,-1.823464406091878987e+00,-2.040383053986841166e-01,4.025275010520768526e-01,3.374023503250134226e-01,-1.437151151655397197e+00,-1.224309045135223428e+00,2.158696484861596099e-01,-2.846941354698023230e-01,9.223365752862741074e-01
-7.449510416828063475e-01,-2.321320319176103375e+00,1.903524474300869240e+00,-2.185221936864291781e+00,-6.959686392266031252e-01,-1.006086199735054310e+00,1.126709790862358229e+00,-1.439763086356377952e+00,2.206247435865118955e+00,-4.538116993421417722e-01,3.016453496178588822e-01,3.067203074269283028e-02,-3.529686843527189422e-01,-5.467331665510467564e-01,5.309690088058962587e-01,9.605367414571887030e-01,-5.099780251933607733e-01,-5.434874001818169598e-01,2.992550888750263316e-01,-3.820362724942118482e-01,2.902574082099730890e-01,-4.854628085388836833e-01,-8.281633714411286151e-01,1.092530192150677371e+00,-5.076491384222356906e-01,7.042605464080886613e-01,5.936556427482123643e-01,1.022561648633354636e+00,-1.226589386483808664e+00,2.438532017202095503e-01,9.464017648944675898e-01,1.785087761769907910e-01,-1.549670062710110319e+00,9.967387381624201459e-02,-1.997283276767064297e+00,-1.002591462800498379e+00,-8.456709261433358327e-01,6.524344240415343998e-01,1.273753436530729921e+00,-1.388902844990836175e-02,-1.368489344435744437e+00,-1.063058743739292655e+00,-1.497803004373618352e+00,-1.893818228653981306e+00,9.635359656360992231e-01,2.532071862754589620e-01,-8.785968301105048228e-01,-8.696784118753443371e-01,3.784706263788213954e-01,-3.336825897203303803e-01,1.833543910868307980e-01,-7.333879105098065621e-01,-2.502849481587568370e+00,8.967952585888940842e-01,1.722774109335766801e-01,1.057462249205804561e+00,2.841246500024334209e-01,-5.389885709816240045e-01,-1.272978326751343092e-01,-1.871674473455932519e+00,1.555586921872838535e-01,4.776070101618729580e-01,9.941089792338415609e-01,8.156382080792184963e-01,-1.605981166002309779e+00,-2.185644084943091665e-03,9.225893205317831081e-01,1.228774442176642445e+00,-1.197369770793452748e+00,-1.602591823213316724e+00,1.839823767821649803e+00,6.989917215941129358e-01,1.031703407446258464e-01,-8.769309327023536715e-01,8.942070808152038364e-01,2.680383765529258389e-01,7.745948547077212698e-01,-1.635144677911222755e-01,2.148007877059729509e+00,-1.286324483711981825e+00,-8.490175325302257159e-01,3.958220925104564136e-01,-1.244117964748988170e+00,1.191688416045417531e+00,3.193347765572001618e-01,5.663976425972012951e-02,-5.649716842798504501e-01,1.156509419970170871e+00,-7.854455583962663967e-01,-8.502729644342847948e-01,7.821412163887981883e-01,1.076753933296844268e-01,-8.704742629368397155e-01,6.706041324801716996e-01,5.955355225235114958e-01,1.419254905912794573e-01,-4.238858741963173471e-01,-1.548169154494959621e+00,-1.729478523708691151e+00,-6.062349735859644539e-01,-2.108863983521121754e-01,-9.023537801338016306e-01,-9.838348034891023497e-01,-4.644878614406148798e-01,-2.328935054338137078e+00,-3.810274949191744254e-01,4.664913004064628194e-02,1.458852291203053708e+00,4.572263613853798647e-01,1.088728565200136389e+00,-1.133071123020466198e+00,2.600321632430971919e-01,-2.394762982533470974e-01,7.852099027968646450e-01,1.453234572859223306e+00,1.074724801799156415e+00,-8.854994672681182344e-01,2.508954117529529904e-01,1.026689504652687823e+00,1.449599419852566906e-01,-1.376037495827620583e-01,3.085072013674066582e+00,-6.227234048728002014e-01,4.642330141412923106e-01,1.494490172347622714e+00,-8.969653771245733598e-01,3.261507014195548226e-01,4.935618750707671532e-01
6.274396577423598798e-01,-1.528382502970034418e+00,-9.115559426319196357e-01,1.105519242193710339e+00,-9.883119411814507149e-01,4.144640428985859049e-01,2.775551959560379478e-01,-8.242344222292423694e-01,-9.618985382466949119e-01,9.540363992159122120e-01,-8.836221882486138268e-01,6.294628132513371277e-01,-1.833823322484138263e+00,5.715836161411784744e-01,8.290975010553243152e-01,1.751361137436217241e+00,-5.109546771359779749e-01,3.955511045724682262e-01,1.111173770251367016e-01,-5.661749921320875512e-01,1.798648549188677670e+00,3.060757805360702632e-01,-9.815727229450820213e-01,3.931075821385664470e-01,1.049525901453076893e+00,-2.890397178737230677e-01,2.222013180300710378e+00,2.194972374353403755e+00,-1.440170885546190105e+00,-8.783029353744498113e-02,1.125929603729819428e+00,7.349968146505711508e-02,8.575052575311797876e-01,-9.006218226419335782e-01,1.981604921690190146e-01,1.238626812533081267e+00,-1.354864875170126437e-01,-7.502141574619507480e-01,-1.093696893872083686e+00,-5.958443299720495023e-01,-2.183340410460611961e-02,-5.669339479639095014e-01,6.270070259362098275e-01,4.892467326737768296e-01,6.146440856399493224e-01,-4.742305209447697512e-01,-7.632323522004892391e-01,-4.550378711096890461e-02,2.472321810454267410e-01,8.216785248476348169e-01,7.640340148137766962e-02,1.950653640930082089e+00,-5.293255653038161368e-01,-9.464057282750436562e-01,-1.370967045701800835e+00,4.285568572611662685e-01,8.436519058389725378e-01,-8.684888600813829296e-01,-1.868818793142089429e+00,-4.472074367773289927e-01,-2.536235753661691961e-01,-1.324242459223755164e+00,-7.377987811341095714e-01,1.387570971431245637e+00,7.849335351952860806e-01,-6.362389774735826009e-01,-1.117639008811223578e+00,5.212906213432795255e-01,5.404534120990200918e-01,1.933308394771930672e-01,-6.157733751573051251e-01,6.657285876637527577e-01,-2.340394933658364263e+00,-2.165358149703414670e-01,7.365921690383929743e-01,9.939118042106839246e-01,-8.360972461352390583e-01,-1.643165679183623773e+00,2.398258347754942843e+00,-1.524626310306014254e+00,1.001127367519332179e+00,-1.142139779820545986e-01,7.891130441113211047e-01,-6.594936421788510916e-01,-3.030127220893513718e-01,1.010360242057834368e+00,-4.912200639170135469e-02,8.046517579309793167e-01,9.257971150588081288e-01,1.505532656714356987e+00,1.385079885404315148e+00,-2.352211837180088194e-01,-1.120096069206966805e+00,-8.708052307970658434e-01,4.435596497993338772e-01,-3.643508170675675562e-01,8.074248384159214975e-01,-1.581938673375265503e-01,-1.052174786407319290e-01,3.479854615706791110e-01,-1.731436973013624092e+00,5.565899841526776859e-01,-6.403601848600790625e-01,-5.994500389418623287e-01,5.016801056474714526e-01,-3.328057794989766061e-01,1.454581885524649232e-01,6.707238294799728884e-01,-1.167236993896220987e-01,-6.646829932410370789e-01,8.774722603643070329e-01,-1.696211574021115887e-01,2.891679540710453966e-01,3.449535789371865890e-01,-9.539836613162538947e-01,8.137038051468682420e-01,-3.536368832806935925e-01,-3.711054617487977159e-01,5.397193897310677002e-01,1.125951645675747459e+00,6.906093851243366721e-01,1.986635174878891297e+00,-1.153028218541350264e-01,-2.419489028665842423e-01,1.616329555069101476e-01,-9.875019011993066975e-01,-3.129296314671611845e-01,1.352887542535581300e-01
8.105119829935736320e-01,1.387490098216713763e+00,3.567747599612626774e-01,6.500801313219541945e-03,-6.698676980091067268e-01,8.624636257566296038e-01,-2.314784418535138055e+00,-3.760987137666795266e-01,-8.213889162671852429e-01,1.428567475988040902e+00,-1.782077153791285395e+00,-8.684881670648655905e-02,-1.778926447277557055e-01,-6.626292718213542265e-01,-4.517103583396411270e-01,-2.078730096416954443e-01,3.493609898569827732e-01,1.886218592292378426e+00,-5.394594938457519112e-02,-2.895899598973790123e-01,1.958140309419393599e-01,3.011222379757290402e-02,1.580055099416554754e+00,1.522854817363785029e+00,1.234490938241283642e+00,6.827745311264501451e-04,1.056171066838276662e+00,3.312633304051115606e-03,6.834455443743563396e-01,5.518647459149167434e-02,2.492355112697739739e-01,-6.694471268715386225e-01,2.083102158726887865e+00,-1.132960160970123864e+00,5.392434708656782538e-01,-2.222646397614127245e-01,3.835078181008929610e-01,4.163488606827994154e-01,1.899366467549430615e+00,-1.709688178850945262e+00,7.027661280473703753e-01,-5.176353102553021834e-01,-3.006549194072687947e-01,6.534174380667253645e-01,9.877056425830456066e-01,-4.538759523928542206e-01,-5.939746563709233929e-01,8.035763976465954972e-01,2.208003125514903520e+00,-1.001170497872251042e-01,5.618787388772155111e-01,8.192615890243593046e-01,8.026795755700771862e-01,1.274484539997708110e-01,5.705088769589609088e-01,-5.318305835719384228e-02,-4.935202836010588179e-02,-3.157695669864831745e-01,1.226638617099497841e+00,3.842544838486800507e-01,-1.420446605793785344e-01,1.486387591261327801e+00,1.727308354268972113e-01,-9.862335453205174352e-01,-1.446050533109527692e+00,1.682616308070499500e-01,-5.792196489899740230e-01,-8.592095825525285502e-01,-5.290710459218093131e-01,-1.492499272046853065e+00,8.431286771613597519e-01,1.035987285456693163e+00,-1.308823758667701398e+00,-1.095938943944168464e+00,4.686776201443710460e-02,-7.893838055569777357e-01,-1.519348880441105054e+00,-8.700670212504082457e-01,-1.293233780863493942e+00,4.545843236672050258e-01,-1.901076944295160054e+00,-3.191819650780979845e-01,-1.071618989698397861e+00,-1.555814402479510195e+00,-2.009067888484346920e+00,4.023670424376353250e-01,-9.478008453207943385e-01,1.380373836098333751e+00,6.235739465336634924e-01,-6.733017680258688298e-01,1.265700339639337091e-01,3.779867877441271395e-01,1.229304054858549211e+00,8.391700149624162774e-01,-3.239463058208762458e-01,-1.594908153246838101e+00,-5.020577952667276689e-01,2.696818509021911003e-01,9.352926661854166213e-02,4.958339824562629228e-01,-1.746306092838066037e+00,2.964749983628475194e-01,-1.002001422595030951e-02,8.385190269374517280e-01,-3.425000484623674790e-02,1.985150720635389554e+00,-3.941373171024639688e-01,1.881315875944770954e-01,-1.359515362654782011e+00,-6.166778029360823199e-01,4.068856957345199366e-01,8.352501549100455058e-01,3.285449642717173102e-01,7.373259590499973148e-01,9.007667991422247944e-01,-7.803132353846152780e-01,-2.024557113978791567e-01,-2.034853872111446638e+00,-3.431247089321046717e-01,-1.197855115653526648e+00,1.456169253142940656e+00,1.400714730015447218e+00,1.874916807986151124e-01,-5.895888459203273840e-02,4.592939799510492582e-01,-6.214274285654049212e-02,-7.078782408079069555e-01,-7.037324012385378635e-01
-3.847982379916096152e-01,1.608047393310814144e-01,5.115070672309603994e-01,-3.121155531185217380e-01,-8.338023111190094872e-01,-3.939491119220320248e-01,-6.382943595393637537e-01,-1.987348632282456951e+00,4.621199471753597021e-01,-1.354335005133305625e+00,-9.870423406660628896e-01,-6.807522189900074849e-01,-2.143748234932749241e+00,5.368463226078323824e-01,1.007850089795111481e+00,-7.164321341189767711e-01,-2.860069455425345186e+00,8.041603816345790356e-01,1.766612356682368545e-01,-1.885038076880274804e+00,1.408455995572866493e-01,-3.358679892455941896e-01,3.311720901119484806e-01,1.324893598515875182e+00,6.826095687731322803e-01,1.706500228450642087e+00,-5.876502864919532776e-01,8.193640169524517569e-01,5.159808907225025276e-01,-4.823776455935678276e-01,1.194914630101456127e-01,8.061583021227007873e-01,2.673198149035302396e-01,-1.867118388666666018e+00,-6.611032482092136231e-01,7.780624743172463997e-01,-3.976924119438450256e-01,-1.344437338519588021e+00,-1.013198039261761635e-01,6.512783847685221783e-01,3.097856221214054795e-01,-4.178651710049240964e-01,-1.137778235283749273e-01,9.858414874182193088e-01,-1.153929579408263795e+00,-9.200774540641422083e-01,-7.179325317950880914e-01,-4.047710601503416439e-01,3.424990947090784110e-01,6.271671925447456220e-01,-4.899511935222765069e-01,-1.126416760170441123e+00,1.296621610022568108e-02,4.444446646117827249e-01,-1.076652326640477941e+00,7.679441366022184967e-01,3.945931351878066984e-01,-1.592893787454042531e+00,5.436373487577965680e-01,6.282984329061637174e-01,-4.572254610657444651e-01,2.647005669247199378e-01,-2.350073224830177276e-01,1.006222173042380597e+00,1.637072969244317777e+00,1.710963302771641992e-01,-1.467325955350615940e+00,-1.878451159625786904e+00,1.935572233040167012e+00,-2.445452790787280062e+00,-6.764824866689302940e-01,-6.492246790132324419e-01,-8.424316827751499037e-01,1.621143461502609462e+00,-2.695270560413799976e-01,9.880619276290801556e-02,1.239346241379544050e-01,6.626098939955660239e-01,2.185697371031768643e+00,-7.735905997441404336e-02,-2.727601865207546772e-01,-2.004506688146247217e+00,2.596749815407555673e+00,-4.689408385862115503e-01,5.628108090797483420e-01,-4.852596388957048368e-01,-5.041406443895730671e-01,2.125876765001864843e+00,8.607953718491271333e-01,1.044556451497578309e-01,2.234435677835808320e+00,-1.181884734830920713e+00,4.416405923800849065e-01,-1.752141503508938269e+00,8.582119435291023501e-01,8.580826063104637358e-01,-6.836929605816299826e-01,-5.472172347664957526e-01,-5.088668346189677977e-02,4.693051734211244053e-02,-4.054852865735944500e-01,-2.123648340838586446e+00,-2.095986110979493056e+00,3.791347630217805076e-01,-3.501280642172548419e-01,1.107470596420706777e+00,1.162324452338982184e+00,-5.778819130843233509e-01,-3.785009455891658048e-01,1.012294578917757981e+00,1.467750802539480759e+00,-1.786526693225539475e+00,1.389185927104678697e+00,4.339185879465452117e-02,-1.328892889205272931e+00,2.832142207464303230e-01,-6.666139176003960110e-02,6.963710748348284074e-01,-2.577092562062924586e+00,1.809711388928203490e-01,-1.498478912411988981e-02,-1.431829555716150670e+00,-1.121805107145884994e+00,-2.392087025985859317e+00,2.861924711395453236e-01,-7.422120990737865465e-02,2.550219141735804995e-01,-8.823570686739355962e-01
-1.280312779658267397e+00,1.216363563738042351e-02,-2.190170838417541788e+00,1.811495268842984840e+00,1.442552981865303119e+00,-1.392593701600493006e-01,2.001753072315178628e+00,-9.495860673474966207e-01,-2.032163421020560020e-03,-1.969821862677278101e+00,8.878767092889112700e-01,-6.635283282190671539e-01,-9.371399762153677093e-01,8.805551423014014167e-01,4.026215772186044206e-01,-2.939301418776545383e+00,-1.377213557436761215e+00,-6.446392559522553523e-01,1.567400579517126191e+00,1.051884299359102881e+00,6.815416263428151211e-01,-4.361237430992405406e-02,-9.270342478964052058e-01,-6.551491902709543069e-01,-7.113264751568937339e-01,-5.299025218047703767e-01,1.826424086159314619e+00,-1.448574653094846232e+00,4.574957668509358477e-01,-4.488118281155822342e-01,7.030328832334868938e-01,-4.295357115774676299e-02,-8.134193052520928280e-01,7.216612962352186855e-01,5.353574265840416180e-01,2.289223415664621009e-01,9.758376964486548122e-01,-1.217536418406828469e+00,5.875493998524452532e-01,6.758630095999259568e-01,7.613939969849213840e-01,-1.427345735316873088e-01,1.614077187954687576e+00,8.158944618898493761e-01,2.113156785728409037e+00,1.376396975540382650e+00,3.661223796309603373e-01,-8.959607126650873665e-01,-4.234462208133309424e-01,1.707678815363227853e+00,5.043311810200314937e-01,2.564763294883508071e-01,-1.993418797741403514e+00,-2.329451107519776798e+00,2.959211497464290241e-01,-9.840996113785540622e-01,-4.954277604668871349e-01,-5.850502559940814473e-01,-3.784613294068024381e-01,1.703793383715002108e+00,1.377425401884402101e+00,7.630690076055840487e-01,-9.685598375231585511e-01,-3.014011261629870875e-01,9.122619022544589118e-01,-5.273635304622086295e-01,-2.732942960843277036e-01,-3.937128731840564000e-01,1.160212570994762604e+00,-4.085793089316852034e-01,6.100159803722685625e-01,1.340267500753962837e+00,3.560554750801017687e-01,7.547869282105754696e-01,1.260459914552730432e+00,-1.161718846819994461e-01,-2.047794659975298026e-01,-1.189865332431246703e+00,3.951695482215500377e-01,-1.708853430614097668e+00,-5.957902810977142583e-01,7.966228851909231690e-01,9.894127702470164598e-01,-5.299653960739770797e-01,9.701416722754749866e-01,1.311520576271087535e+00,3.531241429252994779e-01,-1.189926355849708184e+00,-6.465193928704504600e-01,-1.211614387997535403e+00,7.772869333643236400e-01,-6.847524920935385007e-01,7.028221505783456280e-01,-4.456384459036168977e-01,-2.734741497391254827e-01,-1.491386005770203971e+00,-3.842512973371045026e-01,-2.762924005227287427e-01,-4.147771605085446844e-01,9.245296843157230215e-02,-2.626417498260948113e-02,6.353850134548619799e-01,2.457621515255613287e-01,-6.185812107838311036e-01,-1.021017148238999306e-01,7.851591828872305223e-01,4.331093637186053114e-01,1.380947569836720401e+00,1.345543791071481143e+00,-1.425258668245189098e+00,-3.200234385623906830e-01,7.039545202765176146e-01,-5.749636631013070875e-01,-1.428697810705215732e+00,-2.296075581357998330e-01,-2.691469262233415760e-01,7.606296685724990292e-01,1.141088837310365367e+00,4.221540944250838923e-01,-1.307224953479190210e-01,4.274257294726694356e-01,1.195477063079880553e+00,-4.598908853537918562e-01,1.245512436127881761e+00,-1.819212121040902908e+00,-6.105205805022048127e-01,1.382490835556220432e+00,-6.287992809150326767e-01
-9.192333831674076583e-01,8.273049607355916768e-01,-8.613325540100619238e-01,4.813007708844986299e-01,5.524721805889014625e-01,1.007937458338103998e+00,1.298129968930578304e+00,-9.332878751657577299e-01,-7.895566647497596069e-01,6.575758348764543237e-02,8.452439075849819128e-01,8.229651450829483794e-01,-1.096783384071989831e+00,-7.616560241874934523e-01,-9.179975937729473179e-01,-8.411878337282590046e-01,5.195004662596564016e-01,4.701782622486884722e-01,1.207060380749099382e+00,1.305516750051927966e-01,-1.002145105574595130e+00,1.074317414865355147e+00,-2.671144971087313080e-01,-1.628881356607833619e-01,1.024585883744535630e+00,6.860200154454760835e-01,1.306112721315602299e+00,-9.684148947258581774e-01,-9.730262970822172175e-01,4.694143296167258006e-01,6.318231815397596929e-01,-7.952856718597842711e-01,-1.460632587526686121e+00,3.677372733789855963e-01,-6.479416489892012576e-01,-6.308501735936588029e-01,9.358386809609506862e-01,1.146403602851882031e+00,3.983720594439663087e-01,8.286170602119913298e-01,1.106449297227134254e+00,-2.033417165197564547e+00,7.760795996216491854e-01,-6.247118524142355467e-01,-2.101188939421313684e+00,-6.109393482549101417e-01,-1.688186747306809898e-01,-1.174832522682938585e+00,1.535669158756150399e+00,-9.902615386500646100e-01,1.103224214942100767e+00,-1.048741390840160825e+00,1.626109961165217666e+00,-7.304247291028409528e-01,8.996461162675695178e-01,-3.071049669057505760e+00,7.501897189826705059e-01,5.185087575018902939e-01,1.082010908021195261e+00,-7.742051832053655769e-01,-1.059338256453987936e+00,-1.945144954725974484e+00,2.893511218670688154e-02,-1.212003127323001417e+00,1.173498522580004311e+00,7.186549343447853899e-02,1.253059240727465884e+00,1.359558965748620396e-01,3.151137006837467693e-03,-6.196997274466663486e-01,4.345445768963437927e-01,-2.407766447825079870e-01,-6.553213160439759211e-01,-1.589342415901200400e+00,1.610156592287432797e-01,-3.769740105528547863e-03,5.283816231092652860e-01,-5.019364666342309711e-01,1.184369363907363804e+00,1.597771651040983537e-02,1.197702186677956693e+00,-1.714383441840816591e-01,-1.850786597416308465e+00,1.414993691620637650e-01,2.861109728947352493e-01,3.439740511009964141e+00,-1.143614958854457520e+00,-1.040643425081007489e+00,4.143862578926712364e-02,9.605118764207724036e-01,-2.248085720129836262e-01,-3.729029250023563891e-01,-9.940614396509364070e-01,-7.289813432887918276e-01,1.687322956764315762e+00,6.543935278064200167e-01,3.136253248713518627e-01,-1.212812158514597338e-01,2.273443396199063216e+00,-1.605177584208701047e+00,-1.156969550713951689e+00,2.652059164822833548e+00,-4.998493423110577649e-01,3.377264431378506626e-01,5.366376763560672947e-01,1.497308679648809149e-01,-2.290418986196110507e-01,-1.936702857771064323e-01,-7.162619877678594316e-01,1.277824514397868372e+00,-8.009567739121652430e-01,-1.706449862492730674e+00,4.969834343779738206e-01,-8.343803569408944076e-01,-2.033800133448826042e+00,-3.645117422216381103e-02,1.549576056492216303e+00,8.943063882794105579e-01,-9.885212933028111326e-01,6.684621800335630581e-01,3.444365620718234933e-01,-3.557326805510453438e-01,2.812874572115317551e-01,-3.254203240706817768e-01,3.508135205278383739e-01,1.205803884674194304e+00,2.067430461855307711e-01,9.111118956216155418e-01
6.881118400759292930e-01,-2.604093404560935965e-01,-2.546344155883333293e-01,4.721513654508842084e-01,8.631606838461821640e-01,-7.683121927886884528e-01,-3.237200893324864714e-01,-6.736330148720141020e-01,9.813778033211569829e-01,-1.527177973529296295e+00,4.288154807859674740e-03,9.210574192504371593e-01,-6.565312937102961710e-01,-9.440310253348301872e-01,2.827972800512146834e-01,1.130622635382853458e+00,-5.851412340007590140e-01,8.911564162691606450e-01,-1.181743423048737390e-01,-9.634933782011163572e-01,-3.387868052166530947e-02,-1.488274670882357320e+00,6.866227743320371113e-01,-1.791448872553940586e+00,1.690056068185556315e+00,-7.145701763728606881e-01,3.427455497856697342e-01,9.721145167296569856e-01,-1.133177263637087928e-01,7.205528928749208584e-01,4.461977095151923312e-01,-2.628375530476242616e+00,5.188491497609655501e-02,7.729231056538767852e-01,4.729733008043223719e-01,-1.777657818895078123e-01,9.294931124922812815e-01,6.195332976238850931e-01,3.299774363467071203e-01,1.169888149565439517e-01,-1.574831851918698788e+00,2.945321978010291275e-01,-1.050871278834145661e-01,-1.509474564125530271e+00,8.326056292548468241e-01,-1.239815992101354292e+00,3.448180672008929748e-01,4.349727434844830043e-01,-3.936252987287586214e-01,-5.485853437254908371e-01,-1.081086851213180350e-01,1.279501639070363517e+00,7.391907881815141801e-01,3.276749734243782908e-01,-1.831603428647717635e+00,3.021188594838002395e-01,-5.792995618612690745e-01,2.340183105449876177e-01,-7.454872595593668716e-02,-5.122003468651827873e-01,1.024562836329456106e+00,9.004538554771197578e-01,-7.348744180049234798e-01,-3.630901756009900783e-02,7.649202765513830604e-01,2.343288305644418479e+00,-5.483345568477621113e-01,1.028981241240548711e-01,1.691565863118362989e+00,1.976099090468157016e+00,7.326455234202869926e-01,1.278577208324047643e+00,2.647949171889431644e-02,6.382532331119174229e-02,2.501096768143336480e+00,-4.197343251516217899e-01,6.795048928994590343e-01,1.461712740979839609e+00,4.485897129964558361e-01,5.823924771671813438e-01,-1.532977227507126727e+00,1.106350243016619439e+00,1.420848841601658030e+00,-7.162931537195331710e-01,7.619708962816870157e-01,1.669600838075453453e-01,-1.762061603309799107e-01,3.386364049045622049e-01,-1.590566383270390072e-01,7.415561657836146070e-01,2.207260703075932806e+00,4.258492090547935649e-01,-1.903212553610797719e-01,1.280852303136443382e+00,2.335310388420471228e-01,2.711005455117191154e+00,3.861106476966640055e-02,2.453811323766152519e+00,5.687793697781891034e-01,-9.367709708412661485e-01,-1.312899946795832884e+00,-4.451455365015614118e-01,1.533529288652697442e+00,9.726636397419645697e-01,6.315483246672126683e-01,-2.351779006703315633e-01,-1.017534057894233568e+00,-6.221865152153066569e-01,9.888128120381851627e-01,-7.465006591022677052e-01,-2.319630007876740951e-01,-5.579260887844605943e-01,-1.078229229824082314e+00,-2.800281907399919112e-01,-6.069588926103973714e-01,3.145725455205707344e-01,2.655081652195415476e+00,1.035685141635466211e+00,-8.887533695359103314e-01,1.586299008693189405e-01,7.725441407752682288e-01,-9.613964487896938804e-01,-8.023646388162312126e-01,8.731638450968740583e-01,3.573020097100629844e-01,4.273675112793271502e-01,-7.848477483130130716e-01,-1.356025659770533848e-03
3.570986239163020937e-01,2.947648402657204736e-01,-1.817222072958723844e+00,-2.162838151321234970e-01,-1.036117076909326640e+00,9.597034509618280751e-01,-2.606286634349062881e-02,-1.373839834678030281e+00,1.727811413629699033e-01,3.056729956395144443e-01,3.367116860802782385e-02,-1.598259119401828909e-01,2.929585994789310477e-01,4.250047091960519330e-01,2.713754994926908637e+00,1.014586271296754383e+00,-3.684549172239982018e-01,5.721650722153478474e-01,7.494254649013614156e-01,8.369954295304582459e-01,-2.343257159340780549e-01,-4.155574205421772027e-01,1.838220869669100477e-01,1.072880066927685894e+00,1.677036842520236160e-01,5.839345081261804182e-01,-6.023019234656905585e-01,3.457303572869762642e-01,3.890287087269102551e-01,-9.568523174633590811e-01,-1.030294195172705818e+00,-2.078900515122626969e-01,-7.872852218815253877e-01,9.604168844201170785e-01,9.031255297576472607e-01,-1.065646608072400581e-01,-3.533967838124624783e-01,1.621139042054951518e-01,1.467995218709416960e+00,-4.034432070324969755e-01,-3.130313066355982499e-01,-5.026531411440933184e-01,2.426751077944204193e-01,7.330019317813648572e-01,-8.765899692132349541e-01,8.911253787525446057e-01,5.727548614257120807e-01,5.591820068403877686e-01,8.658393295771193987e-01,1.095474273914877728e+00,7.929594653928704329e-01,8.868970087535342772e-01,-7.177892773883464139e-01,1.889722924835287809e+00,-2.061781051833495859e-01,6.591161375587124838e-02,-2.277499597380559404e+00,6.456925844947556392e-01,9.034960300557381974e-01,-1.045388593085953666e+00,-4.712931366201106309e-01,-9.146049186088273109e-01,-2.160279372019485444e-01,-1.670797162699294125e+00,1.499452272846492629e-01,-3.741384714272864564e-01,1.326386770008821214e+00,1.720477803016293938e+00,-6.893242604731510959e-01,-1.446590749615069560e-01,1.784435651796204780e+00,-8.199941823986610645e-01,-1.170714743936096758e+00,-9.706293698456094354e-01,7.856204303026937952e-01,7.761227446821983289e-01,7.604931789717109258e-02,2.243762251832304433e-01,4.946692988942343328e-01,-5.068031163569066688e-01,-1.063161106314051363e+00,-6.518588244271436571e-02,3.730272244591986142e-01,-5.085243067743432793e-02,-1.951034307543826563e+00,-8.804951411269538175e-01,8.996271153146120358e-01,6.153461802223985505e-02,7.939857593495116550e-01,4.128209880730773773e-01,4.418689097803462640e-01,1.741433845507960876e-01,-6.929784350408284554e-01,1.709540427465953583e+00,5.180065943295399794e-02,-4.239229448676634093e-01,2.163038835909727009e+00,-1.546235785265173357e+00,-4.783277077697725699e-01,-2.207799247638040085e-01,1.059366688450535943e+00,3.427975557486971914e-01,1.269608726207826388e+00,1.594637541029918282e+00,-1.552451662088379369e-01,9.794509213064765962e-01,1.586661405060096064e-01,-8.444162470794919217e-01,-7.983318852090039996e-01,-2.166151201966412185e-02,1.296532052801240953e+00,1.231059679604936397e-01,1.328675935132553221e+00,2.877937024406247019e-02,7.835362105783762188e-02,1.187043697256505714e+00,1.109262816923711981e+00,-2.855010835890122722e-01,4.535679881340317077e-01,-5.618485043982115457e-01,-1.263345802838156562e+00,-1.278821057224544866e+00,-1.906588592987564557e+00,1.883245759659242513e-01,1.533833553999343624e-01,2.770621974763540218e-01,1.054880333522931091e+00,-1.002631238285508708e+00
4.632926913991036177e-01,-1.676685932036428461e+00,5.798427409797060061e-01,4.472194005032598674e-01,-3.011069496127217748e-01,4.067435395963275857e-01,8.703979890457105295e-01,-2.416262976015478778e-02,4.643252166552906401e-01,3.183705474025257942e-01,1.380606903730750012e+00,4.049094877973050677e-01,2.579915433429250116e-02,-1.734968896882616851e-01,1.498366455867467639e+00,-4.117365251482087846e-02,-5.103493637698693908e-01,9.668449454161242018e-01,8.747073044371692641e-01,1.039801135086437123e+00,-9.508169419720396975e-01,6.583233979371944100e-01,4.666358551352836059e-01,7.657116183968811773e-01,6.523842645642077276e-01,-1.375465309191516439e-01,-9.624401927638542853e-01,2.035094130542881852e-01,6.245503905650228171e-01,-1.134174743185434320e+00,-1.445640816776472493e+00,1.869785896309735573e+00,-3.727067740028140452e-01,3.549870166382625980e-01,-1.519778750119300081e+00,1.690408706047821230e+00,8.332403043609263316e-01,1.319056895686974151e+00,1.127840338231744788e+00,2.071968426068539593e+00,-1.018724426859979992e+00,8.429411130196194923e-01,2.778586685853626781e-01,8.658910125457173201e-01,-2.052362804893017034e-01,4.329594747102783470e-01,9.160238843769269446e-01,-1.228248067940725941e+00,2.967563846674233119e+00,-5.296115648370961493e-01,6.756656310847793112e-02,-7.703546046631867261e-01,5.029772753975714217e-01,-7.682136797570298103e-01,9.291041913851342260e-01,-5.115738086258688755e-01,-1.231828118409613149e+00,1.537910656378389973e+00,-5.769865377749107127e-01,-2.940313874818281104e-01,-2.944032077028451155e-01,-1.710852796909935192e-01,-3.839327852949370179e-01,2.595915060199710522e-01,-1.736869550325831624e-01,5.051400612542068513e-01,-3.121335431751092737e-01,6.160713842892292513e-01,8.578924497945896732e-01,1.767378384379533651e+00,2.125317859626536965e+00,-7.394668917194783253e-01,-8.744522410665299672e-01,-3.486982610364217409e-04,3.038731815128108416e-01,-2.092216927822210162e-03,-9.798313325523390349e-02,6.781940768595523528e-01,-7.727314661279223451e-02,-8.216976328504514981e-01,2.293215462013963091e+00,-1.074425910504053228e+00,-8.043774847644871162e-01,7.889082105742056816e-01,-3.620734060287089662e-01,-2.129574966723849772e-01,-6.438253777845791559e-01,-3.327079404921726852e-02,3.233977040943769032e-01,6.656708101603050487e-01,-3.446835355501091658e-01,6.219064790366273243e-01,1.515428592601781643e+00,5.153013904731175154e-01,-5.143723579059891193e-01,-5.609075988725705786e-01,1.148018447557442645e+00,-3.027633128017491737e-01,3.061945301801268782e-01,-1.047823752397795682e-01,4.506464762671712476e-01,8.853599364249569170e-01,5.208552674517474834e-01,-3.240041430293917335e-01,-8.470989156968538047e-01,7.877096763767925391e-02,-1.916503322810924892e-01,8.451215452350516744e-01,-1.752254456280553319e+00,-1.723358555600190689e+00,1.099912866445661219e+00,-5.138434069246122782e-01,-6.915232502561307060e-01,-2.655098295921128893e-01,-4.819030636034620230e-01,-1.662987494142404432e-01,-1.537363640953521626e+00,-8.675179076187957694e-01,-1.218569290035929065e+00,-8.078835961573148650e-01,4.313866752232604629e-01,-4.312737416324818884e-01,-5.715312824809303249e-01,1.534293868993772181e+00,-1.505916148650986885e+00,-6.770829090625352098e-01,-7.802859932817177713e-01,-1.390568486303150442e+00
-1.590864154549386678e+00,-7.800659965438581089e-01,7.466909773600254319e-01,6.090448871042184464e-01,-8.019187375851971611e-01,-4.143520830762917329e-01,-5.200563431312441587e-01,-1.965080077748039500e+00,-9.278128407516380571e-01,1.398145349527670223e-01,-5.887722019539330942e-01,-9.862876261758825036e-01,-1.517272633028124318e+00,-2.537916411988125009e+00,-2.737475950425884097e+00,-1.785585850303917255e+00,1.817799116495407263e+00,-9.061581197481741734e-01,5.243969507643075900e-01,8.902468146694878515e-01,1.801592723883957969e+00,-2.502118699165868376e-01,6.303800214033272731e-01,7.639818185078999235e-01,-9.537922206849077655e-01,-7.503247228055777152e-01,1.756910918060031745e-01,1.186835392561254032e+00,-5.291564814103066894e-01,2.311033732137464547e+00,5.923929636995681758e-01,-2.303030244465883447e-01,2.825771081834376197e-01,-9.936091405504726692e-02,8.311306622883046780e-01,5.089079034079014852e-01,5.439030462135709121e-02,-2.021875557105555846e-02,9.978190854505875063e-01,-1.045883201195302092e+00,2.854884429424315306e-01,1.619705968986429268e+00,6.026087275002259824e-01,-2.809792368560707354e-01,-8.375824691752442597e-01,-2.129198585468377036e+00,-5.763015564000650154e-02,8.321737892466801734e-02,-1.532256310845752645e-01,-1.633992634233713881e+00,1.337600886092401575e-01,2.636583756934221534e-01,-3.702403107564601337e-01,5.235472405959415987e-01,4.077545546757613271e-01,5.553444417172220815e-01,-1.504469937389009242e-02,-1.507105692435359301e-01,1.798387421955972287e-01,7.044032060497814607e-01,1.837166094695497520e+00,1.695613782854484608e+00,-9.712213301404526433e-01,-1.016027314675006649e-01,-2.348139025324345874e-01,-8.484657758427603946e-01,1.403531659382999397e-01,3.861324652969909121e-01,1.380661596256586465e+00,-1.179816535298645164e+00,-1.339772653617849141e+00,-6.192023142300893124e-01,-6.761396399089032450e-01,4.066496904949759572e-02,-7.371490271361831326e-01,2.323101724947375657e-01,6.186802082541486419e-02,-1.204539169188010517e+00,6.051942306592397042e-02,-7.329426399233115452e-01,1.649811384388396140e+00,-1.213052871869282123e+00,-9.809034378936961618e-01,9.788694780100336557e-01,-9.403965176206013910e-01,-7.238097750058373192e-01,7.417984773470963633e-01,3.581611247211879262e-02,1.112402004127529986e+00,6.069306969168697385e-01,1.235280438276064485e+00,-3.673753942947027840e-01,6.852275647488240695e-01,1.619957928057119023e+00,7.822765555248217817e-01,1.098501818769408667e+00,2.343853726359330647e+00,-7.898431101971273849e-01,1.217760576767377562e-01,5.767008516830463526e-03,8.735153406879547777e-01,1.336239988087967179e-01,7.636436334235813250e-01,-1.208626860057009811e+00,3.537144146293140778e-01,-1.079254143065030425e+00,1.155385144856149460e-01,-1.622434998825015517e+00,6.768997979383001296e-01,-5.519068342151043360e-01,-1.463765017299464732e+00,3.999013696518446404e-01,2.722700965384557970e-01,1.003090925607201533e-01,-1.168088674844643959e+00,2.988532846456006808e-01,-1.682263214619170721e+00,1.406964870750068153e-01,7.199820105063767239e-02,-2.042680337360788523e-01,2.076807567383352066e-02,3.297431528846536120e-01,4.728958034873953498e-01,-1.071344298626245584e+00,-3.236587821302087942e-02,1.527980645010757588e+00,-1.058315836424782441e+00,-1.106886598309035241e+00
-8.726759077373466011e-01,3.723950740728814157e-01,2.656436717434229045e-01,-1.387165313090233720e+00,-1.266144760017008153e+00,-9.802121601208583224e-01,-1.245063449489502760e+00,7.624973778430671478e-01,-3.721151100173282766e-01,-4.480093100424877295e-01,2.310674545392361612e+00,1.986812147222577762e-01,-1.188398626060965801e+00,-7.471160061973760591e-01,-4.043029445057391702e-01,-7.637966434570683250e-01,1.429791723069883946e-01,7.425834929076271518e-01,-2.241663374765286432e-01,-1.420810488420593265e-01,1.371726037299466849e+00,8.367206370893232048e-02,8.626076122788542966e-01,1.644958271935507588e+00,5.399514800839543271e-01,7.565615345595011476e-01,2.174579963723455300e+00,1.700815965357028725e+00,-6.322433647005900603e-01,1.376333790312896488e+00,6.834948821321812362e-01,-2.685227032611829490e+00,1.693481270743922851e+00,-9.585151215246791034e-01,1.284764388168933014e+00,-7.346972308319624223e-02,5.076241797188907334e-01,-1.116034130745799935e-01,-3.549679137122848105e-01,3.878892069493710543e-02,-1.171480575340030396e-02,-3.834083259278985856e-01,-9.019125475016550597e-01,1.030574742363239871e+00,-2.172538823139865682e-01,8.322412289173209965e-01,5.813924588321905951e-01,-3.495443832498529302e-01,8.868344368244197515e-03,1.276558167533784482e+00,-1.853570447857147752e+00,1.231423380527372657e+00,4.044108917870346542e-01,4.904494019217967016e-01,2.295971842193197165e+00,7.151153507564390610e-01,-1.091629380614138750e-01,7.092300475101803725e-01,-4.350158511302243958e-01,-6.278454958572105005e-01,1.171100949171573369e+00,1.786899140469318942e-02,-7.558262294711345364e-01,5.871479287465241059e-01,-9.027366492310805457e-01,-1.135364448896429401e+00,-5.530168899015542872e-01,-8.920479751612314656e-01,-9.997917124090677232e-01,1.228198624655197690e+00,-1.433073061932392367e+00,-3.186638075552417071e-01,1.701407641770845691e-01,5.684411404645546284e-01,9.274879071634688499e-01,-2.478242388732210810e-01,-1.083667278136391382e-01,1.000273666890321156e+00,-2.291585929262422439e-01,1.382209571014334282e+00,8.265232284941891328e-01,9.344942613673975496e-01,9.415632966367686041e-02,-4.939029724586890824e-01,9.514429549243305084e-01,8.744979729252024825e-01,1.687037556614968459e+00,9.683676093883261116e-01,-5.696784394900910042e-01,-1.672589380912057333e+00,-1.218439961831702389e-01,7.623435048791286084e-01,6.774851014737317545e-01,-2.970162775291226298e-01,4.010716518078313170e-02,1.510805418410238465e-01,4.587968208537608894e-01,-6.005126286877255914e-01,-2.628397492244153866e-01,7.719866231613571328e-01,-1.310881792155930148e+00,4.531284359287953700e-01,1.729412721708835643e-01,1.435254982977827130e-03,-7.798070818913367397e-01,2.058355805380991832e+00,5.159428142949107343e-01,-1.149432976953535801e-01,7.214426896550494295e-01,1.140623581691134480e-01,-6.296100073864380198e-01,-6.320322859433543661e-01,1.947062538424334521e-01,-7.682427074642650400e-01,-1.481205135983159726e+00,-1.383809107487096846e+00,4.026450733480749777e-01,1.570825132065367224e+00,-1.952234020616749888e+00,-7.257330208532789539e-01,-2.138637946012553193e-01,2.196664094199420880e+00,1.667183549134104492e+00,-5.199485783933837091e-01,-4.455010341312397038e-01,-1.247692618229580219e+00,-1.289014369064110099e-01,-8.308356697861297713e-01
1.573525352793510912e+00,5.090090564719389477e-01,1.725442668676333557e+00,-1.265747792749627731e-01,2.580619920998608485e+00,5.462779099917922654e-01,2.885441973709170771e+00,-9.828472063814414073e-01,7.820075765257186173e-01,8.448739158082514411e-01,4.110785965789781060e-01,1.539709426377417589e+00,1.498705003617724740e+00,4.829765488587855482e-01,-1.981344387978571653e-02,7.358644514136959691e-02,-5.850410653383331105e-01,8.728433231188512664e-01,1.887922409039893390e+00,-1.134394058226326552e+00,-1.976372029871882319e-01,1.539419728163234025e+00,1.625324451378250323e+00,-4.770492156096114295e-02,8.898039209544611472e-02,1.062968553543187644e+00,6.301709369996072452e-02,-2.162287516745912130e-01,-2.550327006865129587e+00,-1.081852505061341230e+00,-9.195316621734338502e-01,-3.170218055341786356e-01,1.592668431556386377e+00,-5.757424658681553620e-01,-2.005869921960929947e+00,-2.440763598696589765e-01,-1.394623315453243473e+00,6.666633009403016841e-01,7.736860687030368000e-01,-9.353442941471679095e-02,-4.287112536423787201e-01,9.545302114091115675e-02,5.806461898261674470e-01,6.090693839011027677e-01,-8.139115947142028240e-01,3.778147326207014767e-01,-1.801396203000894536e+00,3.256999259523855605e-01,-1.520762574777661247e-01,1.244412307238333515e+00,-9.041620403143760809e-01,5.419041608442369817e-01,1.842765244187864582e+00,4.461215910712959531e-01,3.120021999801144141e-01,3.673715398116051412e-01,-8.223005881999585764e-02,-1.267102567153387316e+00,1.400814327548784988e-01,4.007957422403131131e-01,1.487817601283272451e+00,1.375738189388558963e-01,-2.673819314870194419e-01,1.915957106142227029e-01,8.644627222409945189e-01,7.407507532507633385e-01,-8.212335748126832202e-01,7.293436906738399728e-01,9.219848891275522762e-01,8.544899440558642034e-01,9.482382076578206309e-01,-7.539056486107224009e-01,1.153345576008208695e-01,-4.992981085642295702e-01,-8.544480652499732987e-01,5.987350771413177952e-01,1.113802615351351166e+00,1.226458313044201942e+00,-2.490068675563696377e-01,1.312891397109557046e+00,1.156752805367034842e+00,-1.363700415280040712e+00,-5.483199530753680717e-01,-1.119702798514831121e+00,-6.676260051338211987e-01,8.501835627747638124e-01,-6.117823776833068994e-01,-7.598646245205894489e-01,1.292622656117812907e+00,3.923500261779857001e-01,-4.375553126155079520e-02,4.799455348271867150e-01,-2.639703332270202374e-01,-5.321059095683967621e-01,-8.633655933397482718e-01,6.322464127833389291e-01,1.622953416396787363e+00,8.724196382585319709e-01,-1.061822150824659028e+00,8.476716719109848031e-01,8.386902892042516489e-02,9.669680458820161251e-01,9.995572540240531545e-01,-4.649172183019977811e-01,6.551318737228121192e-01,-5.847603636649133518e-01,1.256556949262056522e+00,-2.798262758450859033e-01,2.629101420903675379e+00,-1.459515785050859160e-01,-6.002841501351710018e-01,6.157075268915317423e-01,-2.027383415346846185e-01,5.264458383194662305e-01,-3.233193948336791634e-01,3.084663655196809989e-02,-2.488173855470000861e-01,1.128837396084770628e+00,-8.982094264864216582e-01,4.119320948426086759e-01,2.341835894617529501e+00,-1.002005431447896139e-01,-4.807865176495327852e-01,1.768541865500469767e-01,2.421827797048836939e-01,-1.504164128835346226e+00,2.774876062199422844e-01,-2.870300501156258566e+00
1.998191172274273730e-01,-4.445329229275786220e-01,-1.253442559480190788e+00,-8.282623130224308072e-01,2.004888994967410909e-01,5.170733166028617100e-01,9.648863301273300497e-01,1.363363620385984021e+00,1.007304420204272244e+00,-6.742586921394162491e-01,-1.013824590855788799e+00,-9.539683036725803422e-01,1.939508819651854510e-01,-3.155062558878798384e-01,-1.066569937629856302e+00,-1.486377709978759176e+00,1.859951317577412944e-01,3.346661012496616183e-01,1.226373563378659742e-02,-1.280385317773302445e+00,-5.142227718384150270e-01,-8.767966028128557632e-01,-7.274648768490615813e-01,5.432505497377169146e-01,-1.561519042515265410e+00,-1.098747658149336948e+00,5.623176333775476987e-01,-1.474844744342371339e+00,7.370323083067815695e-01,-8.167091043327858735e-01,1.058117429376840724e+00,-6.979339719291871580e-01,-3.940531585917628199e-01,-1.014693122432849953e-01,-6.287133375728026774e-01,6.885463738631136810e-01,-1.852042517761367246e-01,1.031512576460393710e-01,3.093450615198933829e-01,2.413299801311869774e-01,-4.182086458238937765e-01,4.645489186777906204e-02,1.191571336006679305e+00,4.508066652869427426e-01,1.461818824016174689e+00,4.510040197919800570e-02,-1.031309233237234890e+00,-5.319191949987536194e-01,9.902956053343913156e-01,5.888965654296516306e-01,4.259987163569067259e-01,6.939521190153913333e-01,-1.213329341284500040e-01,-6.605886669789582388e-01,-8.678563726682742008e-01,-4.594538311918052176e-01,-3.437927016860791718e-01,-1.753016209332552755e+00,7.359474999212982371e-02,-1.270003519202582254e+00,-2.342312049408397032e-02,8.740226716616336100e-01,7.030589618535522389e-02,-1.469444596117167157e+00,1.446562501771703202e+00,4.380743998391666283e-01,8.102412317039419110e-01,-3.849557203565871499e-01,8.039372704055587349e-01,-2.265233940898353726e+00,-2.292735519843223990e+00,-1.277498553643154344e-01,-1.386339809922058075e+00,-3.788191853270353460e-01,-4.340199572710620179e-01,-1.251798768885191704e+00,-8.541843695084131438e-01,7.168936664496791122e-01,1.926145651381533652e-01,1.255596751131458744e+00,4.680364854266263336e-02,-1.043893735315014837e+00,-4.467028969061132559e-01,2.248859687510269545e+00,-1.122518594893713306e+00,-1.929826624941953783e+00,2.219040032994283596e-01,-5.830223537787489196e-02,-1.048880932273996924e+00,9.806844385442549106e-01,1.179611643254011355e+00,1.825764700472484459e-01,2.040755052295850636e+00,-8.126739233384190353e-01,6.439464192792884178e-01,1.855123178800214490e+00,-8.885838277699837917e-01,-2.116817864310759356e-01,-1.054188008514983510e+00,-8.468741818666928323e-01,-7.072742905106161881e-01,-1.791946887658813159e+00,-1.447671917660602769e+00,8.466714549535414580e-01,1.370845267108103949e-01,6.207738985372130980e-01,1.930734389081659730e-01,-4.678598906788451472e-01,1.555488280220251207e+00,-8.420582431572333215e-01,-1.169087306827906181e+00,-4.102087661388308382e-01,-8.282293062607440914e-01,-4.353939979520732861e-01,-7.645948130203612525e-01,1.382637591803981936e+00,-7.821503725334741919e-01,1.992260416916698862e+00,-1.073723207075372305e-01,-1.022574824169425467e+00,3.356466494151053026e-01,2.939027497777525477e-01,-1.130037593565214271e+00,2.945478063631901122e-01,1.144620749366143997e+00,2.362465683445923448e-01,2.984594674272323944e-01,-1.901298610332151418e+00
1.239444691047524083e+00,-1.537543581499135892e-01,-1.680949757184293514e+00,-3.122550680091035757e-01,-2.441175693518565087e-02,-6.507381338561218920e-01,8.179621683604725302e-01,-1.805858441382334756e-01,-1.319586554510984167e-01,2.353659280658257705e-02,2.523061274699657797e-01,-3.687885460377168245e-01,-1.788183989425008377e-02,6.618164445966781030e-03,-1.618478075725722221e-01,8.776063404102997234e-01,7.784214546924864697e-01,3.119563212145295972e-01,-9.976449386709693723e-01,-2.032903680617010433e+00,-2.120596205062434958e-01,-1.059117702987786069e+00,-8.801322041316920197e-01,5.806979863386901863e-01,-1.301638416652710406e+00,-1.412032231964417628e+00,6.454419003301483659e-01,-1.768773310181972924e+00,1.307948732854641083e+00,6.406254009197807076e-01,1.604019556997319240e+00,3.020600550707874254e-01,9.334526528141017243e-01,1.006898501170480520e+00,4.994002207426144757e-01,-4.527465207223719396e-02,1.233685679418792702e+00,1.235977529999092273e+00,-7.862694910133947168e-01,-2.674879612424172937e+00,7.129480162673347277e-01,-1.071065797653526275e+00,7.140029126532643211e-02,1.325254476246544799e+00,1.371653482223708753e+00,-5.539700081360460215e-01,-4.457793739247939424e-01,9.264462007833633717e-01,-6.196242457751682114e-02,-2.877025495506453368e-01,1.866383963354073805e-01,1.108568584358261555e+00,1.250142807742943507e+00,7.289018964896065711e-01,-1.522330321207643111e+00,1.049291160975755366e+00,3.793526368751734545e-01,-1.284417847453369899e-01,6.031057641795724289e-02,1.105595420328076006e+00,-2.353018233612476973e+00,-3.818601084560596659e-01,5.624552368072887054e-01,1.799811574898087518e-01,-3.503751394939887964e-01,-4.875739426024799233e-02,1.394530750122606078e+00,4.317472524667103073e-01,1.104502431985146638e+00,-3.436809335473869909e-01,4.296045375308299441e-01,-4.335635943077824073e-01,1.613255797838233363e+00,-1.463521914113553590e-01,8.114498562305152429e-01,6.196159217404548780e-01,-1.603328079421707963e+00,-6.829491353039633950e-01,-1.462384169026580860e+00,-9.215613329758136352e-02,1.702801793262876950e+00,-3.461353624885584179e-01,5.200837190180130146e-03,1.029231874253373258e+00,-1.486327077882160896e+00,1.070118686557721910e+00,3.181070018277175393e+00,4.540313412047974340e-01,-1.303968115000004646e+00,-1.353399004086840163e-01,-4.471201503310893721e-01,-9.686354768687688299e-01,3.062056062133788892e+00,-7.096501737634952622e-01,-2.016473620436924019e+00,-4.608871064463229694e-02,-1.457879538923021245e+00,1.538702040922791170e+00,4.146959437178550090e-01,4.762411312219331228e-01,-7.742260365039894676e-01,-1.451706454362024390e+00,-5.626464441360639057e-01,-2.681936637123714662e-01,-6.021369714330265799e-01,9.147722106294988720e-01,-1.510844722438885457e+00,1.023524836257314607e+00,-1.441006754971566606e-01,2.596937581555167185e+00,9.119500083602349871e-01,-3.992209668394921529e-01,7.793120302810561117e-01,8.262687942751425485e-01,2.439193454574790920e-01,-6.880667309409134180e-01,1.571669865757135520e+00,-6.842922428330253104e-02,-7.785430640793824519e-01,1.341603513795786018e-01,-1.303048771595094468e+00,-2.838830001415433291e+00,2.032313428360820462e-01,-3.625420507700168882e-01,-3.311647840378819652e-01,-6.697181478791780496e-01,-5.931840600707314337e-01,-1.870838508575034809e-01
-1.310441340488482265e+00,1.422149069398697119e-01,9.529209888142088358e-01,7.241755408816463735e-01,-1.597188183749290502e+00,1.386895199833622638e-01,-4.062961515666006496e-01,-5.603899948331463321e-01,6.550940960724254136e-01,1.712969539068098790e+00,6.179581484356702070e-01,1.245595479936916217e+00,5.723489802368266766e-01,-7.014302332926750649e-01,-3.534259388936252244e-01,1.384132968856417234e+00,-1.571502177791065824e+00,-1.263737405821727444e+00,-1.697843378658757119e-01,1.514928107785270095e+00,7.956512867312006687e-01,3.549641175815312355e+00,-1.007398255703688683e+00,-4.580273811938962436e-01,2.446267695895917083e+00,-1.869737784374219336e+00,-5.386395786239863703e-01,-1.073148147416969511e+00,6.054089537460507486e-01,-5.847322548130150510e-01,1.010328703378174486e+00,2.215602528332414611e-01,1.295976007819344300e+00,9.190820860248763990e-01,-1.353465991348947184e-01,-8.558784982965439436e-02,-4.832476354712293976e-01,-9.794445122130805981e-01,-1.253573138008728716e+00,5.667706432795718285e-01,5.589215009781755006e-01,3.160695314806681866e-01,1.854632776185505927e+00,3.692248460717557079e-01,-1.224740346279880043e-01,5.302034136362694661e-02,1.030701547133153317e+00,8.068696138842080812e-01,-8.212491229226864808e-01,3.971433169447228378e-02,6.694224921708369358e-02,2.611031287493207897e-01,-8.952882613495714847e-03,9.343006503242832217e-01,8.000691924195303395e-01,3.750233681009538800e-01,-2.842816447368123334e-01,6.290929011804724524e-01,-1.379752095772476039e+00,2.449499959600882348e-01,-7.098676065804713220e-01,-1.392045663609054129e+00,-9.183088364017408800e-01,-1.937962203247658000e+00,1.392850105360317725e+00,2.114259622608117617e+00,-1.416472203433219557e+00,-1.867165530785638961e+00,-1.693917921428798934e+00,6.054098618322578673e-01,-2.421726837794452580e-01,-2.514436030386809073e-01,6.486202188583937156e-01,-8.413265514629122976e-02,-2.845520743413092468e-01,-5.252937527531227335e-01,-1.800025286004440783e+00,4.713376740359409567e-01,-1.473029611848772902e-01,-1.300266002241888597e+00,2.923018774449732238e+00,2.228105583160619185e-01,6.379171452988925406e-01,-3.848491204383138742e-01,1.511667103379580768e+00,-7.492365616801058836e-01,-7.573743437887400232e-01,9.126522437051367564e-01,-2.761348727872357522e-01,6.630365399151727512e-01,7.659562234223138422e-01,1.844642402298138695e+00,8.168953532526970207e-01,-9.773207136116123239e-01,5.012828903456371110e-01,-1.107974499542512675e-01,5.579255395463809108e-01,-8.447317332785868327e-02,3.148677822372751289e-01,3.502920705696440096e-01,6.483175807973461380e-01,3.014821227234971146e-01,1.978637905291300347e+00,9.897917384955612352e-01,1.230063425970170599e+00,-9.024931580099230244e-01,1.434410359303306681e-01,-1.114722014479681444e+00,-1.175688813881250239e+00,2.174852040685878174e-01,1.587074175844441215e-01,-3.765709850830357697e-01,-1.151909757658199362e+00,-7.488803731572047928e-01,6.956019660495762480e-01,-1.815786167571261656e+00,3.851152781097729738e-01,4.288398597855750533e-02,-1.728474642668843320e+00,2.683178436971087044e-01,-5.389780014834953670e-02,-3.769136646234758081e-02,7.370328775353265360e-01,2.454730145742514136e-01,-1.543574940828361663e+00,1.158314491318318984e+00,1.231222579486707547e+00,-1.108955187437271617e+00
-9.150301478150567602e-01,-1.321107412747993815e+00,-1.247946738623326279e+00,-3.736681155591576320e-01,-2.133590129090458809e-01,5.483150442276943926e-01,-1.778639151175733124e+00,-4.178461635548157971e-01,-1.473153424820932589e+00,1.640440458973280391e+00,-1.225683344693772714e+00,9.439385301079695756e-01,4.534229091804307110e-01,8.741736852044725836e-01,-6.881234691946876980e-01,1.514183552468350458e+00,-1.198495529741925303e+00,4.540537589797528084e-01,1.240995088559697868e+00,1.134848409680194514e+00,1.839162532166675135e+00,-1.007352917187462449e+00,3.615027700768141949e-01,2.373375696310680849e-01,6.131954459806153723e-01,1.199631627716730708e+00,-4.777632191510515769e-01,2.547505107355754750e-01,-5.909830544383376516e-02,1.858328627096923480e+00,4.444634944413721200e-01,8.147671482639871066e-01,-7.625248659040219090e-01,1.380836062384017460e+00,-9.142652007386457003e-01,1.179950437504488470e+00,2.549906502438972766e-02,-1.402059519406074539e+00,-1.710403132740454246e-01,6.642282141815809837e-02,-1.037588899271932874e+00,-1.674613307949033014e-01,-2.736429076642807323e-01,-8.829652894806254426e-02,-1.996701412913464146e-01,2.073063475218138996e-01,-3.988019621446424745e-01,-1.116704281717461500e+00,6.491288607394768428e-01,1.020954238485907606e+00,-8.025897659992120570e-01,1.551074104782674601e+00,1.685797959751972885e-01,-9.332514529574302831e-01,-6.165626787939068043e-01,-3.578763401338002637e-01,-2.945619142061836060e-01,8.693506059102580341e-01,-1.270579065258883977e+00,-4.956970203534593611e-01,-1.051314993825405386e+00,7.549350394302838385e-01,2.879813302782920914e-01,2.779187782585777478e-01,-8.971783320625764668e-01,1.209683036481309787e-01,3.845052693665699795e-01,-1.017882900332707896e+00,4.404351192490935790e-02,3.705453200462674457e-01,3.652137954837352263e-01,5.342627156175797642e-01,-3.822056615386786871e-01,-1.689392383138835774e+00,-1.094468150896099834e+00,5.999871772376313972e-01,-8.297027109442245418e-02,1.138525202159239802e+00,-2.132959762720091912e-01,-2.128806660466274536e+00,-1.309989555171771958e+00,-2.072793631530806813e-01,1.830071032921205765e+00,3.971221700890058548e-01,-4.165757291848317112e-01,1.318805110404577485e+00,4.180543776193220706e-01,1.611905092372210857e-01,2.752665528702459841e-01,-1.538294877312990083e+00,-1.052588028831788591e+00,4.564199387466951197e-01,7.235168382704899592e-01,9.903285098776239970e-01,-3.972713658182979723e-01,-8.271493700857369957e-02,1.068466314115313676e+00,-1.420880537677612798e+00,6.515826576637869794e-01,-2.300678561584369730e-01,3.294208594746105834e-01,4.667034005157945087e-01,4.313841016557812269e-02,8.593519252632764172e-01,4.939180009558291617e-01,9.919991507522917251e-01,-3.368848863902150770e-01,7.491740297708249230e-01,1.257988951263988797e+00,-2.572183377060616727e-01,1.717322084806162552e+00,-9.271284190950911386e-01,1.332812162087542385e+00,1.736529815183782827e-02,-1.333639437286400498e-01,1.402785751528953462e+00,5.321741570400416732e-01,-1.285416510934710654e+00,3.750100228750066766e-01,-9.315239457121410327e-02,-1.010475765300252071e+00,2.006837892379258748e-01,1.284556521979738797e+00,2.360123527896391404e-01,-6.568528748989299615e-01,-2.979631390288015741e-02,4.611199111113398197e-01,-1.108784352400683959e+00
1.060373700354342308e+00,-5.872038447827603314e-01,7.476326635688176903e-02,-1.424898348187331854e+00,-1.197866913604641148e+00,-2.099166504447242676e-01,5.108949922365261243e-01,4.923726051021249939e-01,9.421551567891076617e-01,-3.768272965799200347e-01,2.299601404488218759e-01,-5.093431741385355815e-01,-4.569502879526486927e-01,9.765551830200880357e-01,-2.120356608017096578e-01,-1.261597097649661992e+00,-1.199846398216568133e+00,7.677305137819375735e-01,1.136739140106322932e+00,-5.320656199332330916e-01,3.262780296533265290e-01,1.225607418320647568e+00,-2.064597029479377621e+00,-6.908786536863559258e-02,-6.778448395874674404e-01,-1.040562350242779432e+00,7.541039584413873342e-01,6.675369311422506557e-01,6.624509511311922338e-01,-2.241552673254665895e-01,-9.443786203870209173e-01,-4.498277183130217627e-01,-9.483142764474146169e-01,-6.704597660542798154e-01,-5.660545566304272525e-01,-3.119830258654602839e-01,-7.846642743238593232e-01,1.551079816668775369e+00,2.362576440077607254e-01,6.625984324136767745e-01,8.223606024531389114e-01,6.362452645282848929e-01,1.128794987225988589e+00,7.137657639967411871e-01,1.402890538638765117e+00,1.610235154829558812e+00,-9.863905503963404930e-01,-6.106014534028306739e-01,7.364425568630253993e-01,5.936253156963827715e-01,-4.472695450691663854e-01,-1.970291353170024740e-01,-1.955151753090509092e-01,-6.859231789793803769e-01,-9.602130374673590874e-01,3.305964018881781818e-01,-2.166268630222677460e-01,-5.082230552906312759e-01,1.319330874827034483e+00,-5.398589733528528223e-01,-3.421942448918256496e-01,6.886736869110646753e-01,-8.096514206356910659e-01,-3.499905502891424991e-01,-1.463128705806299390e+00,-1.274302014945741357e+00,-1.510668179462762994e+00,1.245036357718224407e+00,3.032038664820125851e-01,1.025981395430424659e+00,-2.828914987099387379e-01,-1.804967526211162188e+00,-1.461937802903485517e+00,-9.686973244955739137e-02,-9.066593540424952025e-01,-8.720071605780699286e-01,-9.817202549236890841e-01,-1.675245255756262264e+00,4.011163813218813767e-01,2.029466549111430318e+00,7.114693296559062574e-01,1.080392720074070168e+00,6.199129448077771443e-01,-4.717347732557305301e-02,3.545740201277917669e-01,-1.107274200084091831e+00,1.442051834817442924e+00,-7.591887515891453386e-01,5.758790924483729867e-01,2.574259686218681731e-01,-6.153363756354333081e-01,-8.337680823121431661e-01,-1.818202323609620974e+00,1.436159832528237645e+00,1.335901291727697338e+00,-1.982641124705826763e-01,-1.343714278207408741e+00,-3.402919602133950140e-04,1.364859209965817444e-01,1.704984526024489577e+00,2.202126136651688437e+00,-3.718203522484510998e-02,-9.589482571938579003e-02,-6.957117996693992223e-01,-9.551471220543500396e-01,8.099827740266525300e-01,-1.688307620238472584e+00,-1.119567523342163584e+00,1.313720678402016846e-02,-8.763833502629625460e-01,2.322322405993944572e-01,-5.429520980587868584e-01,-1.143163502230804651e+00,6.494825204406149410e-01,6.664641256578951456e-01,-5.766110173504738340e-02,-1.900966282965338205e+00,8.894106530682847067e-01,-5.500540349594136291e-01,-1.129042511041336683e+00,-9.706775140632963872e-01,2.402276812811571238e-01,1.326306090368828405e-02,-6.757574208401915250e-01,-6.192060201740522407e-01,1.592491088126188004e+00,-1.986165970322683882e-01,-9.147809809436133754e-01
-8.316864800382629541e-01,1.013896134294150375e+00,5.805435314043856654e-02,-1.338968396194991195e+00,7.820962523983998604e-02,-1.346281357208007901e+00,-2.348750109459658841e-01,8.921338866489081365e-02,5.118869563616569307e-01,-1.293415424126111102e+00,-9.605187450354990553e-01,-2.364665338375086800e-01,4.246098943744098797e-01,3.987457344982354712e-01,2.131776261221678404e+00,1.728138684835408001e-01,1.028056250033541952e+00,3.859788973167984083e-01,-4.465522833069625053e-01,-4.288098077739697644e-01,1.573519872733414038e-01,1.528543249289507910e+00,-1.370935466717635665e+00,-1.960780723495432198e+00,-3.804660906881850990e-01,1.466301414570577166e-01,-4.227161496244766226e-01,-2.893753772584193099e-02,-1.483835246862287294e+00,6.098637194095436476e-01,1.618197445779934879e-02,-4.372574453201041877e-01,1.396716216321823634e+00,-9.011268272155895653e-01,6.891867484317260040e-02,3.318813978089828476e-01,9.421597788384672434e-01,1.125924394963868647e+00,1.465380368599753479e-02,1.168249465527304132e+00,-2.083618485640745810e+00,8.639157888342198222e-01,2.781876616818941550e-02,-2.024248877768573818e-01,-2.322833565246042523e-02,-5.792551167157959924e-01,7.158114337844871944e-01,-1.697855652832508389e+00,-1.733898606167085243e-01,1.709513572129304215e+00,1.040960983643276910e-01,-7.463997033638982703e-01,-1.213737028739366952e+00,2.722279413050971986e-01,1.391960630987313374e+00,-9.295543837810494869e-01,1.907092017980402954e-01,-1.277424592409499571e+00,1.333732457554927642e+00,-1.798636508724746452e+00,-2.220708739377587060e-01,1.301025201139491383e+00,1.121158289623905846e+00,7.066357874798426079e-03,7.811414199589066243e-01,1.317249953481824720e+00,-2.265251071688365314e-01,-7.694830932813814250e-01,2.217019464563198261e-01,-1.761877692310926280e+00,-5.161959162727154382e-01,7.438802712440810705e-01,2.195354921978193818e+00,1.137398083915435398e+00,8.221829111389140632e-01,1.628384600872218257e+00,-6.980514757795752701e-02,2.504885265315478886e-03,1.388213583335918822e+00,1.276411988712058854e+00,-3.518900145040637639e-01,3.624226187642539676e-01,5.513109361130387187e-01,8.017974833782149924e-01,-2.303077888409087226e+00,-2.674852838198744642e-01,-1.401113617938636757e+00,3.505958537279783155e-02,-1.028541332055935564e-01,-1.815055992918945260e-01,-4.334412118623134913e-01,3.668944087860541714e-01,4.858052200407471655e-01,-1.355864338172246164e+00,4.770640780045604101e-01,-5.648277392581461109e-01,9.051148398718721344e-01,-8.945555820528358626e-02,3.071665793200855088e-01,1.054865142652499088e+00,3.239712360071916319e-01,-5.144149063559839696e-01,-1.687338810840811387e+00,3.194384978596985780e-01,-3.048589632975743369e-01,1.708523430655789765e-01,1.228607104181193899e+00,2.788400423046795695e-01,-9.171235381420933530e-01,1.623997660782155128e+00,-1.177853789921658734e-01,1.177464820521484379e+00,-2.165026071650324735e-01,5.346900126027273048e-01,1.229537330234565129e+00,-2.577924558166603316e-03,-4.501889921126006056e-01,7.893160515185039250e-01,6.326327832899695906e-03,-6.616173219819351248e-01,-2.365513169917115022e+00,-1.553173402151242000e+00,3.037011795122598334e-01,1.115423886617370464e+00,-1.684768586573313964e+00,6.192298023170520471e-01,1.130340491075729759e+00,5.901170928032963836e-01
2.484374490680860137e-01,-5.081370450948841100e-02,1.464948867672350552e+00,1.494895740368452353e-01,-3.890061221203913178e-01,-2.423910061017498507e-01,1.081833250227194565e+00,-8.572260158208581116e-01,2.048146609033239418e+00,-5.354740167217361124e-01,-1.105595709221922407e+00,1.184663186665695783e-01,-1.128138884511464379e+00,-9.212057978696943650e-01,-5.340096810143020178e-01,-1.475271868476187853e+00,-8.066992360715616872e-01,1.275635158673013914e+00,9.335205737590481778e-01,6.794888980837830994e-01,-3.318584512969644518e-01,-6.954889320992800883e-01,5.236064438531318199e-01,-1.499106263484014212e+00,-2.131169465826497689e+00,1.353245932686910846e+00,-2.520054073888460255e-01,1.080873361536770753e-04,2.957538743910166912e-01,-5.884120907823242597e-01,-9.039025782298142353e-01,-4.147218760707594987e-01,5.784719466271472932e-01,2.177449031835975379e+00,-8.041245501626402836e-01,-6.704527140232299787e-03,1.427967674241813034e+00,-1.573508105832500892e+00,1.517594987069236900e+00,-1.003482655515688382e+00,-2.062938389767757924e-02,-4.557007807482031936e-01,-1.094119207881977918e+00,1.408765872412575559e+00,-1.416003912924640673e+00,2.763518015038898490e+00,-1.330466833533375359e+00,1.101268913484139356e+00,-1.048951806427689482e+00,4.496559957901472560e-01,3.978451081780364634e-02,1.316667480359857700e-01,2.889197967579044124e-01,5.067419704332638553e-01,7.572299820409055249e-01,7.016825358456127981e-01,-1.131874977303059193e+00,-5.345620275797696719e-01,1.455726107006269032e+00,1.025071629230624781e+00,-3.492857563981003333e-01,1.196257975624391845e+00,3.426547991914630220e-01,8.473453061579551138e-01,1.119986697527524333e+00,-1.416574750551477524e-01,8.159378294040260382e-01,-2.362159992896119221e+00,1.228591168807324330e+00,-1.132257734775867331e+00,2.823047574518496639e+00,5.844055457330374903e-01,6.762676855624899508e-02,2.894136915279882372e-01,-2.649959408938593608e-01,1.791105168684591631e-01,2.514049918127281735e+00,-1.191814908039361409e+00,-6.553276446760476492e-01,-1.051734058428006158e+00,2.272821371038806770e-01,8.538931035062261032e-02,-1.504967597502495202e+00,2.531899326909149428e-01,-1.646057148165802342e-01,4.587564304949005578e-01,2.888705839551982679e-01,1.774601677517273268e+00,-1.176366195122857006e+00,-1.226379421588420504e+00,-1.709649611507085831e+00,-1.158848269649729090e+00,1.929690740812787020e+00,-1.071684434960694099e-01,-8.166448967194608333e-01,8.774645991792280331e-01,1.606213905218894789e-01,-5.647278792235036482e-01,-6.789146219128912030e-01,-1.240830028816693013e-02,-1.028165115248733885e+00,1.294611354547092752e+00,-8.265590172370680389e-01,1.745603251431063485e-01,1.168446786009677885e+00,-1.283363527150804595e+00,-7.768815495502692237e-01,1.277172696119305284e+00,7.040047536432131325e-02,-1.835868213759030143e-01,-8.121436743427246086e-01,5.128984787528552414e-02,-1.249967061488975295e+00,-9.881381308857289936e-01,-6.426369754461174200e-01,2.069292105449734021e-01,-1.162379251335757813e-01,1.545945559762716748e+00,-5.837659427644015936e-02,1.126742188702189562e+00,3.991294847435029047e-01,-6.520981215686449950e-01,1.690281902498373123e-01,9.129559642650445506e-01,1.747690098215677265e-02,1.179321253470167363e+00,1.686210193117717027e-01,1.903657339663753945e+00
-2.088241469905851300e-01,8.842261038071936863e-01,1.524301853300806586e+00,1.391760349542625619e-01,-2.998490370404975278e-02,-1.694403932505124555e+00,-1.884480001659545989e+00,4.694314773021642795e-01,-5.303695947263110944e-02,8.488125545857524434e-01,2.824014973457582012e-01,-4.796996700171293204e-01,6.622056495528113595e-01,1.877389825058072725e+00,6.284516087941530715e-01,-7.935127160171445704e-01,-1.041175976775455370e+00,1.556179354261610026e+00,-6.358922220852490925e-01,-1.825342685509872831e-01,-6.955363143239728929e-02,6.682102668756395580e-01,-8.514902696405434179e-01,-3.766240247104962052e-02,6.812105081949080265e-01,5.478314744685950366e-01,-1.250486033812955755e+00,1.515964969592628331e-01,-4.804831519001174223e-01,3.250741466998830487e-01,-1.417859868736484508e+00,-5.782017278617618316e-04,2.171203980599621275e+00,-1.695044128522579907e+00,1.019241207242303826e+00,-7.851171620674358698e-01,-5.823769803144411839e-01,1.112754705755534673e-01,-1.387418861492129007e-01,2.178561016242229476e-01,1.609487813762116915e+00,-3.063198456785208301e-01,-5.297413551382748054e-01,-1.948979793187221032e-01,-2.029802843434352633e-01,8.840753669682085425e-01,1.117560935337832628e+00,6.552658374768994820e-01,3.582328096219861147e-01,-1.865972825151353542e-01,1.976275834888543859e+00,1.889515691797579500e+00,-5.254985669960011707e-01,-1.229732931992493450e+00,-7.274390274691990843e-01,-1.663386242257270720e+00,-5.393090343805254649e-01,-1.157184268482800427e+00,-1.668891649246942166e-01,1.186028943625745180e+00,-1.633464535963866440e-02,7.593169080057207143e-01,-2.037745947974909377e+00,9.718933342497148020e-01,-8.138427338622697960e-01,1.268462388976606015e+00,-2.139663025156431919e-01,-6.161732827910689769e-01,-1.471339925809875382e+00,-9.562619627546076195e-02,1.335280079177251888e+00,-5.123714117409980950e-01,-7.442372031065848104e-01,-2.761208262332358609e-01,3.857966184796630671e-01,-3.438602838436859988e-01,-6.727674254061498660e-01,8.070025252771467761e-01,-8.490653678388910830e-01,-5.407322303724626522e-01,-7.034079143294442726e-01,8.062683203178734326e-01,2.760974754754974558e-02,1.203854645389290878e+00,-1.007775530249848117e+00,1.158234915099126239e+00,7.718812320678620775e-01,-3.094650309682553946e-01,9.638482887859881609e-01,1.348905627975804267e+00,1.073310038944838007e+00,-9.615189248964502999e-01,-5.619070316542185139e-01,-6.907166660996874041e-01,8.433227737897235343e-01,7.854591571858252630e-01,-1.102237274636282516e+00,1.977173520798503281e+00,2.584450711802599443e+00,-1.358386927718900017e+00,-1.855045180445696884e+00,4.609882892560978052e-01,1.374848874288788103e+00,-1.148096839500305721e+00,7.201739404398337374e-01,6.818594813647473885e-01,5.827545159142231146e-01,1.323481224555161706e+00,-5.710449207780453618e-01,8.414314561358882116e-03,-6.388851405748081635e-01,-1.508869989131645051e+00,-1.487917681388469526e-01,-4.781957259158252094e-01,-6.028522015648134502e-01,2.391254828541388919e-03,1.095275599072882855e+00,-7.355987786941938777e-01,-6.393468057344625644e-01,7.481959899759683674e-01,-4.718609868012674236e-01,1.683301627270640255e+00,-6.409294206661994009e-01,-1.242486681866515758e-01,1.280695947175167326e+00,1.265504277513566533e+00,3.090172922561537638e-01,6.784639834485030052e-01
9.916739518056956193e-01,5.628204256343680711e-01,1.195975593332390341e+00,-6.681155619497169962e-02,-6.063002514472813909e-01,-6.277579281094507468e-01,-9.123025755253554303e-01,1.218279699328609356e+00,3.540356762129377999e-01,-4.262942848249191008e-01,5.873647162834865210e-01,4.477483701330558508e-01,-2.096310271057832963e+00,-4.967360731315712541e-01,-1.399201580628317343e+00,7.547556465524496438e-01,2.579703770900752535e-01,-7.154846950896881497e-01,-1.863622402517361720e-01,1.588025358949384458e+00,-4.425329272829178762e-01,-1.543312679665980180e+00,-3.781199563187798707e-01,4.522648146071643338e-01,-1.395658418039559812e-01,-2.986290392937037685e-01,6.205765881862297384e-01,-9.009449188582759893e-01,-1.610514700540998989e+00,1.560187648544059114e-01,-8.258072645717349225e-01,-8.479347386953032251e-01,-1.468402789087807303e+00,1.742473654175265896e+00,2.008834200209336784e-01,1.705281845297614840e+00,-7.430136138906631160e-01,-2.715782384630964219e-01,-1.466187636557370944e+00,7.532280880830043435e-01,-8.001113667751550418e-01,2.825781606956035419e-01,-4.133891929384806985e-01,-6.119604545099358722e-02,6.426416782205446321e-01,-1.432074508465836837e+00,-1.621874744267745694e+00,-9.905257963725112857e-02,1.213800738575400828e+00,2.295059467367557282e-01,6.332849265384885573e-01,9.852993231782132266e-01,-1.589471026836825507e+00,1.163241617865709426e-01,1.278167756452226744e-01,-1.480765904184577986e+00,4.984245690942890605e-01,3.048247166040884970e-01,-6.187411635907600349e-01,1.057227620737982932e+00,1.755294837211611947e+00,-2.088477115604485124e-01,-4.621709204086256739e-01,-3.505267406520193862e-01,-5.813748924141636243e-01,-7.506816613925773041e-01,2.128463370768629570e+00,1.062740522088775119e+00,-2.859640395933333301e-01,2.440852142409752346e-01,5.018250847740286513e-01,-4.388613909899857224e-01,-1.300745070692958805e-01,-1.362123516182593974e+00,1.200570374861957612e+00,-5.250502444606532926e-01,3.871187786891386873e-01,-3.293526442178437708e-01,-8.724229562001948324e-01,1.064181948992951821e+00,-5.412532070665140305e-01,5.638938482498073723e-01,-1.292280243538329321e-01,-1.210201947544442103e+00,-1.983975284239143599e+00,8.113678688245525850e-01,6.605638141553941134e-01,2.522080299003876647e+00,3.003720847806916061e-01,-7.151486708669039238e-01,7.380677024024174804e-01,-1.672097689954317845e+00,8.745089297098995740e-01,1.438648849935317275e-01,1.011004095364758548e+00,1.400459191588792340e-01,1.614624709046382556e+00,1.028798877519080390e-01,-6.535173834187045783e-01,1.215502371709648255e+00,-4.475468722068210448e-01,1.712466880173926453e+00,4.002350917822419252e-01,2.283188627870074150e+00,-1.060756571545297344e+00,1.174675881840461927e-01,-1.891040508148353672e+00,2.243083685280776951e+00,-8.941065086377135707e-01,4.334260756102008005e-01,-9.004355915101291963e-01,-1.649141224319196630e-01,9.669499771945124778e-01,1.269289464675077417e+00,5.171449571075398266e-01,5.751478121897328766e-01,1.854858776774658047e+00,1.075796271553156380e+00,6.046779020083666717e-02,5.292893967255681842e-01,-3.284597609098771076e-01,-3.340305077119425925e-01,1.325179850613315002e+00,-1.080501593042773711e+00,3.203692607780954105e-01,1.111383941182300772e+00,-5.120632306015432400e-01,3.569776158881849959e-01
-1.501776512309192180e+00,-8.637253682507708419e-01,1.792319736298386923e+00,1.515403763358281163e-02,2.027087527833964509e-01,-8.929751734799680207e-01,-2.381482570502478691e+00,-5.849339924227747733e-01,6.231223395328099324e-01,1.674951214896811258e-01,-8.623435573998964321e-01,-4.427981110915303331e-01,-2.080651688518719400e+00,-7.852338936973993766e-01,-1.998425297728666949e+00,6.199497246003136119e-01,-2.387285482824437199e-01,-6.189986507921980685e-01,2.213691374208084373e-01,1.361636716848079853e+00,1.138112136054835855e+00,9.813762531991682136e-01,2.570839879542306528e-01,-1.217652894493373328e+00,-5.777897311073125763e-01,3.730526541600491519e-02,-2.376725593865416097e-01,-2.714360901321058339e+00,1.828307881659287704e+00,2.007378983806026307e-01,5.406548807306639226e-01,3.877035256332416191e-01,1.079504497110086669e+00,9.419186722485142216e-01,-7.099372892627314746e-01,5.508420650867291712e-01,8.658291075893950195e-01,-6.589250822414227660e-01,-1.095463174309000642e+00,-4.813846071178981001e-01,-8.629013690647767687e-01,-1.123234433690748268e+00,-1.333195470440148078e+00,4.757174395749296236e-01,-1.106591158980101408e+00,1.670239969448842343e+00,-1.432375948552257805e+00,2.161792832174864454e-01,-1.777458031239937883e-02,4.351463277978432909e-01,-2.157491637351612868e-01,-2.801727907388858352e+00,-5.391168497711714691e-01,5.854312504028029718e-01,9.264858249840006721e-01,-1.061862603450860254e+00,-2.787169102238995499e-01,1.608067830313765212e-01,5.997084939106741563e-01,5.866402894043998284e-01,5.870152853528367576e-01,7.964006055828770636e-02,3.677447036149302240e-01,-1.389495800111877344e+00,8.706448926616675577e-01,2.342014283232458638e-01,1.361902412924059780e+00,1.626228873010837184e+00,-1.706697347955277833e+00,2.804255351119501749e-01,-9.087918646744843620e-01,1.079120504543865211e+00,-9.760469904833148913e-01,1.433723437201665396e+00,9.889705763124222448e-01,1.194883608287006238e+00,1.799260078643160343e-01,-2.836231836405433970e-01,7.667493860747788270e-01,8.304523733247387574e-02,1.003028507985570528e+00,1.290109396285147536e+00,-2.419523825393429806e-01,-1.350994790641635968e+00,-5.504181284948423958e-01,-1.341860038155934021e+00,-6.135063125975062093e-01,7.359317887674601266e-01,6.066569095553945301e-01,9.646696616102364841e-01,-6.614690521833166414e-01,3.447301132399567813e-01,-4.478635363862419339e-01,2.110073194774091943e-01,4.370623660628714657e-01,-6.464892981625821600e-01,1.472948978740082016e+00,-5.903877191085271647e-01,-8.805319867636898779e-02,-1.236911684671206046e+00,-8.170515675128596778e-01,-3.439996673670533966e-01,-6.000204573083915971e-01,1.251050778902069949e+00,3.232829415631816028e-01,-1.221208121261848634e-01,-2.164329892661953192e+00,-2.480795124956376996e-01,-1.901969624142747506e+00,-1.559912812516086156e+00,-5.546314150138043075e-01,3.615377103822754040e-02,1.131214465238787881e+00,5.724990496915924876e-01,1.064215932931230402e+00,-5.088056269529717124e-02,-8.196522785298424596e-01,-1.087824950667394541e-01,8.461003942080521645e-01,1.246486919578219332e+00,-6.088446546755658939e-03,2.186276422672944059e-02,-1.514168055076485775e-01,3.162074460618585769e-02,1.196795027193952921e+00,-5.955475924117605846e-01,-8.713506750628620123e-01,5.180257551245265324e-01
